%YAML:1.0
svm: !!opencv-ml-svm
   svm_type: C_SVC
   kernel: { type:RBF, gamma:1.0000000000000000e-02 }
   C: 100.
   term_criteria: { epsilon:9.9999999747524271e-07, iterations:1000 }
   var_all: 15
   var_count: 15
   class_count: 2
   class_labels: !!opencv-matrix
      rows: 1
      cols: 2
      dt: i
      data: [ 0, 1 ]
   sv_total: 378
   support_vectors:
      - [ -1.74472451e-01, -6.57908857e-01, 8.70954573e-01,
          1.81522727e-01, -5.88548601e-01, -8.88175011e-01,
          -1.34149778e+00, -1.31038427e+00, -8.93813133e-01,
          -5.09609103e-01, 7.75837660e-01, 1.10116267e+00,
          1.92945564e+00, 1.17942345e+00, 3.26052517e-01 ]
      - [ -5.57937264e-01, -1.08787787e+00, 7.90794253e-01,
          1.09626889e+00, -1.74861446e-01, -4.90114182e-01,
          -7.05293834e-01, -1.25918162e+00, -7.79449761e-01,
          -8.62989128e-01, -6.04628801e-01, 2.18863085e-01,
          1.37152624e+00, 1.37788105e+00, 1.66700053e+00 ]
      - [ -3.94811481e-01, -9.72736180e-01, 8.02944064e-01,
          -1.25126347e-01, -8.95941734e-01, -1.07725251e+00,
          -1.04893434e+00, -8.28894198e-01, -8.34150255e-01,
          -3.08587581e-01, 9.60875392e-01, 1.24303627e+00,
          1.97178233e+00, 1.07242155e+00, 4.35375005e-01 ]
      - [ -7.38105059e-01, -7.12666631e-01, 6.61788106e-01,
          1.61041766e-02, -6.83896720e-01, -8.30262899e-01,
          -8.44403386e-01, -6.80483818e-01, -8.39285553e-01,
          -8.39095414e-01, 3.56324553e-01, 1.22940648e+00,
          1.95353627e+00, 1.81500983e+00, 1.36030018e-01 ]
      - [ -6.35080040e-01, -7.92307794e-01, 7.02228904e-01,
          2.83076279e-02, -6.38843775e-01, -8.21191370e-01,
          -1.28053689e+00, -5.70657909e-01, -5.64971864e-01,
          -6.78090155e-01, 6.67559862e-01, 8.68245006e-01,
          2.37068820e+00, 1.35217929e+00, -7.52900541e-03 ]
      - [ -6.92567170e-01, -9.14841712e-01, 6.30799711e-01,
          3.05904076e-02, -6.42607749e-01, -7.48917520e-01,
          -1.34180593e+00, -9.06113744e-01, -6.36447191e-01,
          -7.33524323e-01, 8.15918803e-01, 1.12628472e+00,
          1.75232399e+00, 1.43492806e+00, 8.25979769e-01 ]
      - [ -3.39777172e-01, -4.35373366e-01, 2.20080957e-01,
          -3.00162435e-01, -5.57760656e-01, -8.02730083e-01,
          -7.41696000e-01, -7.28444517e-01, -4.44998503e-01,
          -6.71135664e-01, -5.98082840e-01, 7.56290033e-02,
          9.41592336e-01, 2.28378677e+00, 2.09907198e+00 ]
      - [ 9.54031587e-01, 4.76800203e-01, 1.50276279e+00,
          -2.51093805e-01, -1.27118015e+00, -1.54399955e+00,
          -1.08518398e+00, -1.65351188e+00, 4.36955392e-01,
          -3.60536464e-02, -9.09471512e-02, 3.68157268e-01,
          1.13055515e+00, 1.00607061e+00, 5.66372015e-02 ]
      - [ 1.80280164e-01, 3.89521092e-01, 1.31793272e+00, 1.64202303e-01,
          -7.78049469e-01, -1.29763460e+00, -1.43514013e+00,
          -1.31083190e+00, 3.49935323e-01, -1.24898684e+00,
          1.89509019e-01, 1.29633486e+00, 1.27945340e+00, 9.71730113e-01,
          -6.82560205e-02 ]
      - [ 1.37993968e+00, 8.45156074e-01, 1.53908443e+00,
          -2.40210947e-02, -6.03477240e-01, -9.77061033e-01,
          -1.80153382e+00, -1.32421970e+00, -3.56794745e-01,
          -4.08834934e-01, -3.47350895e-01, 1.07539141e+00,
          8.06330204e-01, 5.74609280e-01, -3.77217501e-01 ]
      - [ -2.69902140e-01, -4.98146355e-01, 7.18797505e-01,
          -1.31815895e-01, -8.68889809e-01, -1.01318455e+00,
          -1.21957898e+00, -1.03031301e+00, -2.09157601e-01,
          -6.56748354e-01, -9.65119749e-02, 8.12224567e-01,
          7.59258986e-01, 1.50972891e+00, 2.19423866e+00 ]
      - [ 1.29358387e+00, 6.50776982e-01, 2.04369831e+00, 2.69974738e-01,
          -3.56116593e-01, -5.90548396e-01, -1.19422996e+00,
          -1.03813238e-01, 8.49085152e-02, -1.25577283e+00,
          -1.35917890e+00, -4.00373757e-01, 1.17818403e+00,
          4.72350121e-01, -7.33442962e-01 ]
      - [ 1.03715408e+00, 9.31946337e-01, 1.81236756e+00, 1.36927152e+00,
          1.46039501e-01, -2.35020332e-02, -3.07391495e-01,
          -2.67303109e-01, -7.27947712e-01, -1.46737993e+00,
          -7.94727802e-01, -7.24518597e-01, -1.08992004e+00,
          -8.62254679e-01, 9.68166590e-01 ]
      - [ -9.70785320e-03, 2.15316206e-01, -1.47529066e-01,
          2.10584998e+00, 1.70718014e+00, 4.17829275e-01,
          -1.51770934e-01, -1.68378323e-01, -4.93268102e-01,
          -1.04308617e+00, -1.59289753e+00, -1.38184452e+00,
          -3.16619217e-01, 6.63408577e-01, 1.95517495e-01 ]
      - [ 1.48793554e+00, 6.82916224e-01, 2.05577403e-01,
          -1.92509323e-01, -5.90600967e-01, -4.57522571e-01,
          -8.27954948e-01, -1.19233322e+00, -8.79815996e-01,
          1.89446107e-01, -9.86181200e-02, -5.30713201e-01,
          -3.96167040e-01, -1.02641188e-01, 2.70300126e+00 ]
      - [ -5.62378347e-01, -2.49502912e-01, 1.06407857e+00,
          1.31210637e+00, 7.40452409e-01, 1.15761474e-01,
          -2.43906483e-01, -4.45136219e-01, -6.29579425e-01,
          -9.08206284e-01, 7.36196041e-01, -2.11422276e+00,
          -2.09188312e-01, -4.65226233e-01, 1.85875213e+00 ]
      - [ 2.39767134e-01, 6.05134010e-01, 6.47842467e-01, 1.53304553e+00,
          1.32892537e+00, 1.01489711e+00, 6.69464767e-01,
          -9.28876042e-01, -6.85058162e-02, -2.72625983e-01,
          -6.18058264e-01, -2.10368705e+00, -1.19901466e+00,
          -3.36458981e-01, -5.11849582e-01 ]
      - [ -4.42926109e-01, 1.12161207e+00, 5.65571725e-01,
          1.81608069e+00, 1.51992667e+00, 1.20731986e+00,
          -3.84722382e-01, -7.41059721e-01, 1.21428274e-01,
          -1.35655093e+00, -4.70877022e-01, -8.65747213e-01,
          -1.03027415e+00, -6.12203896e-01, -4.47578013e-01 ]
      - [ -2.26445064e-01, 1.16786234e-01, 9.23492849e-01,
          5.13056755e-01, -1.09320104e+00, -6.80018485e-01,
          -1.18866706e+00, -1.38055325e+00, -6.29959166e-01,
          -8.07327151e-01, 3.03646356e-01, 3.78107697e-01,
          1.56002223e-01, 1.81526041e+00, 1.79981875e+00 ]
      - [ 1.03551865e+00, 1.59216475e+00, 1.31810224e+00, 8.81656051e-01,
          -7.67381489e-02, -6.03971183e-01, -1.57379460e+00,
          -1.63512158e+00, -5.06836236e-01, -5.55398226e-01,
          -8.54696035e-01, -2.39760667e-01, -1.75715521e-01,
          7.07832158e-01, 6.86758280e-01 ]
      - [ -6.94161236e-01, -3.96493077e-01, 1.84358954e+00,
          8.03061426e-01, -2.03052446e-01, -1.33253384e+00,
          -1.68523026e+00, -1.03457892e+00, -7.32124090e-01,
          1.66304633e-01, 9.36491430e-01, 3.76085401e-01,
          -1.85138993e-02, 1.16555393e+00, 8.05601537e-01 ]
      - [ -6.67053521e-01, -5.97910762e-01, 9.55602646e-01,
          2.90545732e-01, -6.36081398e-01, -7.38068461e-01,
          -1.71914065e+00, -1.13143504e+00, -9.38540816e-01,
          3.07738353e-02, 3.55986416e-01, 9.65588331e-01, 9.31979358e-01,
          1.38952088e+00, 1.50823331e+00 ]
      - [ -6.79847717e-01, -1.41191125e-01, 7.19520390e-01,
          3.75968292e-02, -8.55662882e-01, -9.20224905e-01,
          -1.56648171e+00, -1.27097595e+00, -1.43581048e-01,
          -1.07360529e-02, -1.13102183e-01, 4.75254744e-01,
          9.54833508e-01, 1.71708190e+00, 1.79751611e+00 ]
      - [ -6.66500628e-01, -1.83124468e-01, 7.77330697e-01,
          4.76789176e-02, -7.93358684e-01, -7.83674955e-01,
          -1.49237680e+00, -1.11793888e+00, -8.82177353e-01,
          -5.74575737e-04, 1.82760015e-01, 6.81530178e-01,
          6.14700377e-01, 1.76058996e+00, 1.85513628e+00 ]
      - [ -7.88802326e-01, -1.32448450e-01, 5.79899728e-01,
          2.13801309e-01, -4.47398692e-01, -7.98978448e-01,
          -1.69374704e+00, -1.24549568e+00, -6.43794462e-02,
          -4.56174731e-01, -1.57017946e-01, 6.23153627e-01,
          7.62278378e-01, 1.71818447e+00, 1.88712525e+00 ]
      - [ -6.33536875e-01, 2.83221751e-01, 1.21909487e+00,
          6.75706685e-01, -5.93970537e-01, -1.43757236e+00,
          -2.11847663e+00, -1.31849861e+00, 3.88729721e-01,
          6.10209703e-01, 7.37275779e-01, 3.68869543e-01, 1.17185473e+00,
          5.91998398e-01, 5.50937168e-02 ]
      - [ 3.32780719e-01, -1.02521613e-01, 2.06902337e+00,
          3.23265761e-01, -1.05323207e+00, -1.01277673e+00,
          -2.12097454e+00, -8.24560046e-01, -2.81954825e-01,
          -2.35989809e-01, 9.83420193e-01, 6.70365453e-01,
          2.72251010e-01, 2.99349010e-01, 6.81554079e-01 ]
      - [ -9.80729163e-01, -8.80962014e-01, 1.44797623e+00,
          1.21378386e+00, 5.69756091e-01, -6.53409958e-01,
          -1.20477903e+00, -1.52399564e+00, -6.62538230e-01,
          -7.48726502e-02, 5.40934980e-01, 1.59108832e-01,
          5.92358768e-01, 1.72648394e+00, -2.69116014e-01 ]
      - [ -1.05139673e+00, -6.00379884e-01, 2.79136598e-01,
          1.19287384e+00, 1.21291637e+00, 1.20367503e+00, 1.63734543e+00,
          1.04933381e+00, -6.93994761e-01, -7.22321689e-01,
          -9.35955942e-01, -9.15365279e-01, -4.12483931e-01,
          -4.25479561e-02, -1.20083487e+00 ]
      - [ -1.46167231e+00, -1.46624780e+00, -6.93545759e-01,
          5.27728975e-01, 8.50270808e-01, 7.76575565e-01, 8.30909312e-01,
          8.42879653e-01, 1.08778501e+00, 6.57085180e-01,
          -3.11391521e-02, -1.43310130e+00, -9.91421103e-01,
          -5.98813593e-01, 1.10270655e+00 ]
      - [ -1.53756297e+00, -1.20102918e+00, -8.16420197e-01,
          4.02525127e-01, 5.86287618e-01, 3.76339346e-01, 5.41165471e-01,
          8.77699316e-01, 8.65242124e-01, 5.11311114e-01,
          -6.92967400e-02, -1.19405055e+00, -8.52147758e-01,
          -5.69706261e-01, 2.07964349e+00 ]
      - [ 4.90859836e-01, 4.90859836e-01, 4.95594352e-01, 9.54814136e-01,
          1.40929735e+00, 7.37116456e-01, 4.90859836e-01, 4.90859836e-01,
          2.63695180e-01, -6.44967556e-01, -1.57120192e+00,
          -1.75467348e+00, -1.75467348e+00, -3.90310884e-01,
          2.91870445e-01 ]
      - [ 5.17562628e-01, 5.17562628e-01, 5.23741245e-01, 1.21446192e+00,
          9.92658436e-01, 7.51971245e-01, 5.17562628e-01, 4.87432927e-02,
          -1.85663238e-01, -1.58638823e+00, -1.58638823e+00,
          -1.80948496e+00, -8.71252835e-01, 6.69792816e-02,
          8.87934208e-01 ]
      - [ -1.99837461e-01, -3.05329710e-01, 6.68043673e-01,
          -1.64480627e-01, -6.62071288e-01, -1.14673960e+00,
          -1.35913265e+00, -5.72022200e-01, -1.00388134e+00,
          -5.94875515e-01, 8.33879784e-02, 4.52132642e-01,
          1.25212109e+00, 1.86023808e+00, 1.69244695e+00 ]
      - [ 4.87262398e-01, 5.82820773e-01, 1.09126294e+00,
          -4.37065125e-01, -1.67286426e-01, -5.03477991e-01,
          -1.26059866e+00, -8.58591080e-01, -1.28600931e+00,
          -1.08127487e+00, -5.17679811e-01, 2.07536936e-01,
          2.43077651e-01, 1.98985159e+00, 1.51017106e+00 ]
      - [ -1.35174811e+00, -1.22354734e+00, 8.29126358e-01,
          3.90615761e-01, -5.77118099e-01, -9.16542411e-01,
          -1.05683291e+00, -1.44962049e+00, 5.84016860e-01,
          2.43628830e-01, 4.61444765e-01, 4.35409695e-01, 1.52064931e+00,
          1.28087616e+00, 8.29641640e-01 ]
      - [ -1.35086370e+00, -1.27565455e+00, 8.08972716e-01,
          4.27645087e-01, -6.18604481e-01, -6.66124165e-01,
          -1.11180961e+00, -1.47149765e+00, 5.10925889e-01,
          3.08770031e-01, 3.14660728e-01, 3.43406558e-01, 1.56810009e+00,
          1.14986408e+00, 1.06220889e+00 ]
      - [ -1.26386988e+00, -9.27361250e-01, 1.36511517e+00,
          -4.14704114e-01, -1.07393670e+00, -6.48097396e-01,
          -1.00706530e+00, -1.01445925e+00, -3.94519746e-01,
          5.49758732e-01, 3.96177948e-01, 7.42454886e-01, 1.44119751e+00,
          1.36715496e+00, 8.82154584e-01 ]
      - [ -4.00528572e-02, -6.16818130e-01, -6.36199862e-02,
          1.83088982e+00, 1.50186336e+00, 3.33134234e-01,
          -3.80697966e-01, -8.29386532e-01, -5.95656872e-01,
          -1.02749693e+00, -1.50047028e+00, -1.01477718e+00,
          2.76526302e-01, 1.19173038e+00, 9.34832633e-01 ]
      - [ -8.63827765e-01, -1.02997530e+00, 8.08156490e-01,
          -4.98418719e-01, -9.76965725e-01, -1.29132402e+00,
          -8.40833426e-01, -8.87113333e-01, -3.04608345e-01,
          3.98276210e-01, 4.91477579e-01, 7.37610459e-01, 1.66829526e+00,
          1.33409357e+00, 1.25515711e+00 ]
      - [ 9.77482080e-01, 2.98223108e-01, 1.65223289e+00, 6.20282531e-01,
          -5.25843561e-01, -9.67213035e-01, -1.77153671e+00,
          -1.71921933e+00, -2.05454051e-01, -3.89443278e-01,
          -1.54078886e-01, 8.21869373e-01, 8.72870505e-01,
          8.61332059e-01, -3.71503562e-01 ]
      - [ 1.43036902e+00, 9.74996746e-01, 7.53089249e-01, 1.46315849e+00,
          1.05127001e+00, 2.13730127e-01, -1.68199793e-01,
          -4.84282166e-01, -9.58401322e-01, -1.16912138e+00,
          -1.48519933e+00, -1.34034884e+00, -6.07770562e-01,
          -1.29301488e-01, 4.56011355e-01 ]
      - [ 1.31219292e+00, 1.39898491e+00, 1.87795055e+00, 5.88353992e-01,
          -2.81485803e-02, -6.26994312e-01, -1.27439511e+00,
          -1.70648456e+00, -6.39854968e-01, -2.81259924e-01,
          -3.58656198e-01, 2.52577454e-01, 1.97956204e-01,
          1.65558055e-01, -8.77780378e-01 ]
      - [ 1.57659495e+00, 1.02394843e+00, 1.95100749e+00, 9.28140163e-01,
          2.54847258e-01, -5.50615907e-01, -1.05772746e+00,
          -1.42846179e+00, -8.10231984e-01, -5.10285735e-01,
          -7.04602718e-01, 7.95697123e-02, 6.10192046e-02,
          1.01608030e-01, -9.14809585e-01 ]
      - [ 9.18261707e-01, 1.21276450e+00, 1.20208204e+00,
          -6.20331943e-01, -1.38963151e+00, -1.45833004e+00,
          -7.90058732e-01, -9.85893965e-01, -8.15917671e-01,
          -4.62069094e-01, -2.42892012e-01, 6.01993740e-01,
          1.15073156e+00, 1.12894440e+00, 5.50347149e-01 ]
      - [ 1.27248311e+00, 1.11605752e+00, 1.31520021e+00,
          -5.57326674e-01, -1.26508379e+00, -1.26956737e+00,
          -7.92518556e-01, -9.72751260e-01, -1.18383443e+00,
          -3.55912149e-01, -3.94625247e-01, 7.81046391e-01,
          9.78267848e-01, 9.59933519e-01, 3.68630886e-01 ]
      - [ 8.25906396e-01, 4.48018342e-01, 1.49989855e+00,
          -5.33205085e-02, -1.35422015e+00, -1.32871306e+00,
          -1.04560673e+00, -9.75273252e-01, -1.00268102e+00,
          -8.11698139e-01, 2.73449540e-01, 5.10389209e-01,
          7.48671532e-01, 1.35082710e+00, 9.14352059e-01 ]
      - [ 1.27395213e-01, 6.17988780e-02, 1.33545268e+00, 3.86671051e-02,
          -1.19882560e+00, -1.23070145e+00, -1.18883049e+00,
          -7.06967235e-01, -1.02963626e+00, -1.00969160e+00,
          4.56427097e-01, 9.26934421e-01, 1.16416979e+00, 1.50625610e+00,
          7.47551322e-01 ]
      - [ 5.18130422e-01, -3.86144668e-01, 1.42374253e+00,
          2.03649759e+00, 1.06112003e+00, -5.41073978e-01,
          -9.85969305e-01, -8.68045330e-01, -1.20916402e+00,
          -6.72856688e-01, -4.14787889e-01, -6.72759593e-01,
          -6.30249023e-01, 2.08654687e-01, 1.13290524e+00 ]
      - [ 1.97675675e-01, -3.00046876e-02, 1.95694923e+00,
          1.37413549e+00, -2.70488888e-01, -1.07969093e+00,
          -1.65464962e+00, -8.40274990e-01, 2.32269570e-01,
          -5.84983885e-01, -9.12683368e-01, -4.99897361e-01,
          7.50574097e-02, 9.98515904e-01, 1.03807032e+00 ]
      - [ -1.22800924e-01, -3.63344476e-02, 2.26910329e+00,
          1.80570853e+00, 2.10819304e-01, -5.38687944e-01,
          -5.73053837e-01, 2.05530569e-01, 5.99665284e-01,
          -7.96626806e-01, -1.55132806e+00, -6.84842110e-01,
          -8.68796945e-01, -3.06267649e-01, 3.87911856e-01 ]
      - [ 5.06257713e-01, 2.33155236e-01, 7.69475162e-01, 1.32789409e+00,
          1.05245543e+00, 3.45269591e-01, 3.43562841e-01, 3.99717063e-01,
          6.95502520e-01, 5.14064193e-01, -6.86355591e-01,
          -7.17160583e-01, -1.05094802e+00, -1.75655591e+00,
          -1.97633362e+00 ]
      - [ 3.97917867e-01, 1.18418701e-01, 7.84771025e-01, 1.51562917e+00,
          8.12370956e-01, 4.04762298e-01, 9.51863229e-02, 4.83296096e-01,
          8.61787617e-01, 7.17608213e-01, -7.46843576e-01,
          -8.29681695e-01, -1.18016911e+00, -1.55652475e+00,
          -1.87852907e+00 ]
      - [ -1.10446823e+00, -4.14791226e-01, 8.42323601e-01,
          -3.16088766e-01, -5.61411977e-01, -8.21718097e-01,
          -1.45802331e+00, -1.48628962e+00, 1.24641672e-01,
          1.52599406e+00, -3.17080915e-01, 1.19380045e+00,
          8.86789441e-01, 9.58717167e-01, 9.47605729e-01 ]
      - [ -8.61394763e-01, -7.79220879e-01, 1.26518857e+00,
          -2.28604674e-02, -2.58991778e-01, -6.11545503e-01,
          -1.28139699e+00, -1.76677096e+00, 4.10242826e-01,
          -4.55744445e-01, -2.45386928e-01, 1.39317000e+00,
          1.14602125e+00, 1.12043583e+00, 9.48254168e-01 ]
      - [ -1.03803742e+00, -7.11018980e-01, 6.39844477e-01,
          9.36806127e-02, -6.93198085e-01, -1.09437227e+00,
          -1.46345901e+00, -1.39174855e+00, 1.89101696e-01,
          9.98936743e-02, 5.85317671e-01, 9.14422274e-01, 1.41982770e+00,
          1.24561620e+00, 1.20413005e+00 ]
      - [ -1.04649568e+00, -9.15869713e-01, 5.84829390e-01,
          6.36695474e-02, -6.83926940e-01, -1.17491293e+00,
          -1.37349653e+00, -9.22097027e-01, -4.64088656e-02,
          1.43249655e+00, 3.63384426e-01, 1.17124803e-02, 9.04612303e-01,
          1.08242774e+00, 1.72007537e+00 ]
      - [ -8.50706339e-01, -2.00941920e-01, 6.62351489e-01,
          2.40594417e-01, -3.64248693e-01, -2.82941550e-01,
          -8.52386951e-01, -4.29582655e-01, -6.50611222e-01,
          -6.65295005e-01, -9.43493605e-01, -7.37588048e-01,
          1.26191056e+00, 2.38275075e+00, 1.43018889e+00 ]
      - [ -1.00654507e+00, -8.57875168e-01, 3.89515817e-01,
          -2.27464497e-01, -5.62864721e-01, -6.50323749e-01,
          -1.15898192e+00, -1.01235735e+00, -2.05676574e-02,
          1.04709692e-01, 1.54933274e-01, -2.29702473e-01,
          1.74799800e+00, 2.02049279e+00, 1.30903316e+00 ]
      - [ -1.07212865e+00, -8.75104368e-01, 6.94681227e-01,
          -1.87713131e-01, -3.05925369e-01, -6.64113045e-01,
          -9.75582123e-01, -1.58800769e+00, 1.29945323e-01,
          -2.56925225e-01, 4.85263556e-01, 3.35121661e-01,
          6.72345638e-01, 2.09274983e+00, 1.51539242e+00 ]
      - [ -4.68338802e-02, -7.16652945e-02, 1.06722522e+00,
          6.62825286e-01, 1.94677897e-02, -5.68750203e-01,
          -7.38135099e-01, -2.76417851e+00, -1.03809679e+00,
          3.91476423e-01, 4.49245274e-01, 7.13911712e-01, 1.28617144e+00,
          5.48075497e-01, 8.92613754e-02 ]
      - [ 1.07489383e+00, 4.22049761e-01, 1.59291136e+00, 9.22987044e-01,
          1.27160698e-01, -2.60365665e-01, -1.04806805e+00,
          -1.30333579e+00, -1.81126761e+00, -1.06544785e-01,
          -4.66009676e-01, -3.01429480e-01, 1.59536040e+00,
          5.90380505e-02, -4.97380197e-01 ]
      - [ -3.95443797e-01, -5.58893919e-01, 1.16887045e+00,
          5.69918513e-01, -1.75682038e-01, -1.00674081e+00,
          -1.18462622e+00, -1.76383364e+00, -1.00738049e+00,
          4.62809294e-01, 4.82633352e-01, 1.14144623e+00, 1.79907596e+00,
          5.25813997e-01, -5.79668581e-02 ]
      - [ -7.93910980e-01, -5.97590744e-01, 6.35057211e-01,
          -2.23960429e-01, -4.28973079e-01, -9.49613214e-01,
          -1.05585468e+00, -1.65886009e+00, -4.90315944e-01,
          1.98202878e-01, 2.23086819e-01, 1.13160682e+00, 8.92912269e-01,
          1.97007561e+00, 1.14813745e+00 ]
      - [ -9.37124550e-01, -6.77307367e-01, 5.44546306e-01,
          -1.71155021e-01, -5.55610657e-01, -6.85943007e-01,
          -9.33205605e-01, -1.43352771e+00, -1.04275000e+00,
          7.15743423e-01, 5.52749813e-01, 6.39751077e-01, 2.06969118e+00,
          1.27496278e+00, 6.39179349e-01 ]
      - [ -6.21807039e-01, -3.01698536e-01, 2.84251034e-01,
          -9.69519392e-02, -5.54703295e-01, -6.74781263e-01,
          -1.40412807e+00, -1.64660323e+00, -8.54219019e-01,
          6.85229182e-01, 4.69070107e-01, 6.12010360e-01, 1.94795859e+00,
          1.26911139e+00, 8.87261748e-01 ]
      - [ -6.62107587e-01, -3.26254517e-01, 4.85333987e-02,
          -3.27435024e-02, -2.31716603e-01, -6.16711557e-01,
          -1.30066836e+00, -1.66732776e+00, -1.93207264e-01,
          -5.33671737e-01, 3.41902584e-01, 3.38677794e-01,
          1.77280962e+00, 1.81408644e+00, 1.24839902e+00 ]
      - [ 1.90169120e+00, 2.05934072e+00, 2.32882127e-01,
          -4.66406763e-01, -7.66068220e-01, -1.06572545e+00,
          -1.36538696e+00, -1.19107795e+00, -4.37382460e-01,
          -2.91595280e-01, 3.81830275e-01, 5.89647353e-01,
          2.88298011e-01, 2.04309635e-02, 1.09522417e-01 ]
      - [ 2.00364542e+00, 2.09856749e+00, 2.22759992e-01,
          -1.08041354e-01, -8.86149481e-02, -1.00585389e+00,
          -1.30081284e+00, -1.46261311e+00, -6.00154400e-01,
          -3.17680418e-01, -1.69791311e-01, 1.06949456e-01,
          2.34327897e-01, 5.60138673e-02, 3.31298321e-01 ]
      - [ 9.17668164e-01, 1.86354935e+00, 1.40391767e+00, 1.65898293e-01,
          2.66668797e-01, 4.70676720e-01, -1.43767938e-01,
          -6.18564546e-01, -1.26066446e+00, -1.12132180e+00,
          -9.19337034e-01, -1.45358786e-01, 6.43205047e-01,
          1.61984593e-01, -1.68455410e+00 ]
      - [ -1.17180550e+00, -8.11524510e-01, 2.03787470e+00,
          6.88658953e-01, 7.11842179e-01, 2.34417826e-01,
          -5.13964057e-01, -1.38261437e-03, -3.45203996e-01,
          -8.91594827e-01, -4.24972534e-01, 1.13660383e+00,
          1.15724254e+00, -1.42066300e-01, -1.66412556e+00 ]
      - [ -1.19492340e+00, -9.64591146e-01, 2.00311708e+00,
          1.15737712e+00, 8.76247644e-01, 9.74038020e-02,
          -3.58685404e-01, -4.93323430e-02, 7.09129810e-01,
          -9.80594277e-01, -1.35302353e+00, -1.01369655e+00,
          7.86293864e-01, 5.89686275e-01, -3.04408818e-01 ]
      - [ -4.44997758e-01, 4.13471274e-02, 2.22695184e+00,
          8.11625242e-01, 1.13228068e-01, -3.21704626e-01,
          -1.34078360e+00, -1.09213817e+00, 7.40622580e-02,
          1.16300547e+00, -6.21413469e-01, -7.24567711e-01,
          9.04658139e-01, 5.20878494e-01, -1.31015110e+00 ]
      - [ -6.27368033e-01, -7.69889712e-01, 8.99640441e-01,
          -1.06856741e-01, -5.01818299e-01, -8.52889895e-01,
          -1.08167410e+00, -1.46526814e+00, -8.49177659e-01,
          -2.68341284e-02, 1.07507133e+00, 6.40903592e-01,
          1.85201359e+00, 1.42319226e+00, 3.90955478e-01 ]
      - [ -5.22632778e-01, -3.92446488e-01, -4.57958817e-01,
          1.98518014e+00, 6.55813217e-01, 2.69138008e-01,
          -8.64020944e-01, -5.88276744e-01, -9.91764843e-01,
          -9.48307037e-01, -1.18569660e+00, -1.21749930e-01,
          4.65664625e-01, 7.69928038e-01, 1.92713010e+00 ]
      - [ -4.53191102e-01, -7.88125455e-01, 1.06193650e+00,
          1.78131104e-01, -8.12886357e-01, -9.77646708e-01,
          -1.00847530e+00, -1.13018548e+00, -1.02830374e+00,
          4.59555060e-01, 1.03111044e-01, -2.29485705e-02,
          1.31870139e+00, 1.92323899e+00, 1.17708862e+00 ]
      - [ -1.07360399e+00, -6.54994428e-01, -1.40490979e-01,
          1.54973269e+00, 9.62660551e-01, -1.32385209e-01,
          -6.08587682e-01, -4.96116966e-01, -7.09596455e-01,
          -5.92641234e-01, -1.18475664e+00, -5.95578313e-01,
          5.73605001e-01, 9.68058467e-01, 2.13469505e+00 ]
      - [ -1.26158547e+00, -3.21955740e-01, -4.10601586e-01,
          7.93700576e-01, 8.07704151e-01, -4.51343596e-01,
          -1.38796538e-01, -6.30249381e-01, -5.14079869e-01,
          -7.52759039e-01, -6.68846548e-01, -5.76463521e-01,
          2.16328442e-01, 1.27026272e+00, 2.63868546e+00 ]
      - [ -1.71664870e+00, -7.71516204e-01, -3.76352966e-01,
          1.64320385e+00, 1.06633031e+00, 2.01013207e-01,
          -6.64303899e-01, -1.73204228e-01, -8.52127910e-01,
          -3.19109619e-01, -9.71331418e-01, -3.28671545e-01,
          4.98964667e-01, 1.28248918e+00, 1.48126519e+00 ]
      - [ -1.06950307e+00, -1.07900155e+00, -4.13182616e-01,
          -5.56891561e-01, -7.15468824e-01, -9.03778017e-01,
          -7.62157559e-01, -6.30271256e-01, -4.00634795e-01,
          1.45443216e-01, 7.07025290e-01, 1.18160057e+00, 1.67008448e+00,
          1.55846906e+00, 1.26826656e+00 ]
      - [ -2.37896964e-01, -3.88227522e-01, 7.22449183e-01,
          4.67219144e-01, 6.61084533e-01, 4.21775728e-01, 3.18080664e-01,
          5.55742383e-01, 1.04375052e+00, 9.00951326e-01, 1.12095618e+00,
          -1.01024556e+00, -8.72815847e-01, -1.51083958e+00,
          -2.19198418e+00 ]
      - [ -7.39158332e-01, -9.30768028e-02, 7.09606826e-01,
          9.34254766e-01, 7.15088427e-01, 4.85783607e-01, 4.75143105e-01,
          8.71598899e-01, 7.15909064e-01, 1.36874056e+00,
          -2.19675571e-01, -9.52028632e-01, -7.79893756e-01,
          -1.36604989e+00, -2.12624240e+00 ]
      - [ -1.17839932e+00, -9.66273725e-01, 1.10639966e+00,
          1.15443707e+00, 6.28751338e-01, 1.16894491e-01,
          -2.70455390e-01, 8.63655686e-01, 7.08547235e-01,
          1.10636985e+00, 4.94324625e-01, -3.23182195e-02,
          -5.44728041e-01, -1.07137513e+00, -2.11583018e+00 ]
      - [ -1.29739690e+00, -7.79182017e-01, 9.45325613e-01,
          2.30393720e+00, 4.57003891e-01, 4.70046401e-01, 3.62124443e-02,
          6.35419905e-01, -2.16515493e-02, 6.16543531e-01,
          -1.47368252e-01, -6.29856169e-01, 2.91266618e-03,
          -7.88592815e-01, -1.80335402e+00 ]
      - [ -1.18867683e+00, -1.07594085e+00, 2.02964163e+00,
          1.64891183e+00, 9.06478822e-01, 1.45008236e-01,
          -8.06827247e-01, -1.07334244e+00, -9.24754381e-01,
          -3.31770092e-01, 1.34883169e-02, -4.76612449e-01,
          6.07879341e-01, 6.12949073e-01, -8.64328369e-02 ]
      - [ 7.72340119e-01, 1.26899135e+00, 1.30753636e+00, 7.40980864e-01,
          -2.31500101e+00, -9.44955766e-01, -8.73000503e-01,
          -7.31756330e-01, -4.95873988e-01, -6.71584964e-01,
          1.88410476e-01, 1.53948456e-01, 4.46424842e-01, 1.00335014e+00,
          1.50189832e-01 ]
      - [ -6.13454022e-02, -2.04383396e-02, 1.46791875e+00,
          8.23444307e-01, -2.47602177e+00, -7.84165025e-01,
          -8.55458379e-01, -6.08060777e-01, -4.94900048e-01,
          -2.71774858e-01, 1.27043560e-01, 5.16600609e-01,
          6.81701899e-01, 1.38846064e+00, 5.66994905e-01 ]
      - [ -3.83751124e-01, 2.51321420e-02, 1.20029950e+00,
          5.46353579e-01, -4.34615493e-01, -2.47735786e+00,
          -1.17574680e+00, -7.28494585e-01, -2.97124535e-01,
          3.15378219e-01, 1.71451345e-01, 5.85534394e-01, 7.91719556e-01,
          1.62152314e+00, 2.39698529e-01 ]
      - [ -1.06453037e+00, -6.04601502e-01, -1.67582929e-01,
          2.01888776e+00, 1.68036735e+00, 1.17258346e+00, 6.87931627e-02,
          -3.97423863e-01, -8.63640904e-01, -1.23661458e+00,
          -1.00899959e+00, -1.37666255e-01, -4.62752432e-01,
          4.44464028e-01, 5.58716714e-01 ]
      - [ 1.59933889e+00, 7.31452048e-01, -4.77749974e-01,
          -1.00853097e+00, -1.52415192e+00, -1.10528708e+00,
          -1.07511628e+00, -5.96657634e-01, -4.22485262e-01,
          -5.33256710e-01, 1.22005105e+00, 6.96802497e-01,
          1.07552469e+00, 7.49886334e-01, 6.70180380e-01 ]
      - [ -1.35124123e+00, -5.65651715e-01, 1.07049191e+00,
          3.49919349e-01, -4.41020548e-01, -1.06974161e+00,
          -1.27886653e+00, -9.84799087e-01, -7.95137227e-01,
          1.80455640e-01, 2.22126946e-01, 1.06846523e+00, 6.75312459e-01,
          1.64357781e+00, 1.27610862e+00 ]
      - [ -1.23311591e+00, -8.84095609e-01, 7.84848213e-01,
          2.06210569e-01, -6.19325697e-01, -9.47966397e-01,
          -1.33635509e+00, -6.66647494e-01, 4.19175141e-02,
          -3.21591645e-01, -4.72644418e-02, 6.10063493e-01,
          1.80943394e+00, 1.73958778e+00, 8.64300787e-01 ]
      - [ -1.30016935e+00, -1.46709847e+00, 1.29868329e+00,
          4.37766552e-01, -9.25068781e-02, -6.79636717e-01,
          -9.60260868e-01, -1.57406271e+00, 7.97520399e-01,
          8.23894620e-01, -1.50643541e-02, 6.90559074e-02,
          1.38871574e+00, 1.05484343e+00, 2.18319476e-01 ]
      - [ -6.05075538e-01, -6.23426914e-01, 8.63127530e-01,
          1.46374971e-01, -6.77176476e-01, -1.41291893e+00,
          -8.52547407e-01, -1.70837331e+00, -4.33106452e-01,
          8.97289991e-01, 4.73300666e-01, 7.02874303e-01, 1.81125593e+00,
          1.14577115e+00, 2.72630513e-01 ]
      - [ -5.85066557e-01, -7.94705749e-01, 1.70598567e+00,
          1.17701125e+00, -3.28857720e-01, -3.05409968e-01,
          -1.03302550e+00, -1.78049815e+00, -4.01149541e-01,
          -3.32567781e-01, -7.96670496e-01, 7.32149422e-01,
          7.36769259e-01, 1.38674402e+00, 6.19291842e-01 ]
      - [ -6.23533607e-01, -7.74558187e-01, 1.79222238e+00,
          -1.33684084e-01, -1.07674527e+00, -3.55123937e-01,
          -1.14206362e+00, -1.61422801e+00, 4.07614827e-01,
          -1.35271633e-02, 3.34647745e-01, 1.28508186e+00,
          1.43395853e+00, 7.32226014e-01, -2.52287596e-01 ]
      - [ -3.20222676e-01, -6.80582106e-01, 7.76211679e-01,
          -7.51573145e-02, -6.12604797e-01, -1.28441405e+00,
          -1.26313925e+00, -1.24739921e+00, -4.08934474e-01,
          -4.96956855e-02, -1.50583699e-01, 1.04734445e+00,
          1.21010602e+00, 1.85890269e+00, 1.20016825e+00 ]
      - [ 7.63759375e-01, -1.91148281e-01, -7.29709804e-01,
          -1.20689499e+00, -1.22436965e+00, -1.66551459e+00,
          -7.39387572e-01, -5.74753463e-01, 1.80957571e-01,
          -1.19110808e-01, 1.04845142e+00, 1.23932707e+00,
          1.33236969e+00, 8.92320931e-01, 9.93703246e-01 ]
      - [ 1.68067741e+00, -2.47015402e-01, -8.37071836e-01,
          -1.26221478e+00, -1.61405814e+00, -1.18269789e+00,
          -6.10425413e-01, -4.62816507e-01, 2.03506157e-01,
          4.39306289e-01, 4.98060852e-01, 1.42448270e+00, 1.05404329e+00,
          7.64130592e-01, 1.52092710e-01 ]
      - [ 3.37432057e-01, -8.65280107e-02, 2.07871899e-01,
          1.59722805e+00, 1.79975975e+00, 1.40531874e+00, 4.86049324e-01,
          1.88691333e-01, -2.49523282e-01, -6.25131905e-01,
          -9.85090911e-01, -1.29809856e+00, -1.16644204e+00,
          -9.29808557e-01, -6.81727946e-01 ]
      - [ 1.71256769e+00, -8.64156485e-02, -5.89103401e-01,
          -1.00244665e+00, -1.40678847e+00, -1.66392231e+00,
          -9.14718986e-01, -3.19787115e-01, 1.83020309e-01,
          3.62475604e-01, 1.29538774e-01, 1.36501861e+00, 1.11076975e+00,
          8.00020039e-01, 3.19771856e-01 ]
      - [ 5.38012922e-01, 2.40547925e-01, 4.42902893e-01, 1.40676677e+00,
          2.28507876e+00, 7.05252826e-01, 3.39246243e-01,
          -2.67603509e-02, -8.89113605e-01, -7.28279650e-01,
          -1.07903659e+00, -1.44504321e+00, -6.29249513e-01,
          -5.91022491e-01, -5.69302738e-01 ]
      - [ 4.25806731e-01, 1.41455516e-01, 2.94439286e-01, 2.05055022e+00,
          1.86225498e+00, 3.72178584e-01, 2.11625770e-01,
          -5.99795818e-01, -8.81515026e-01, -1.19997728e+00,
          -1.06043243e+00, -1.24568188e+00, -5.22838593e-01,
          -3.22796434e-01, 4.74726498e-01 ]
      - [ 3.35038096e-01, 2.68832641e-03, 4.05780166e-01, 1.53800666e+00,
          1.73987782e+00, 9.81185734e-01, 6.51638091e-01,
          -5.00539243e-01, -7.57653534e-01, -1.05948579e+00,
          -1.37249362e+00, -1.61843014e+00, -5.28429270e-01,
          -2.22435370e-01, 4.05252039e-01 ]
      - [ 7.28973091e-01, 1.61236897e-01, 6.47730112e-01, 1.63363338e+00,
          1.90448415e+00, 6.04076505e-01, 2.60326713e-01,
          -5.42452753e-01, -7.12912023e-01, -1.03110290e+00,
          -1.25838041e+00, -1.54247856e+00, -3.90023410e-01,
          -5.53085387e-01, 8.99745896e-02 ]
      - [ 4.35373515e-01, 1.67668760e-01, 5.02605498e-01, 1.66348982e+00,
          1.87235117e+00, 1.08702099e+00, 3.29338968e-01,
          -5.48978508e-01, -6.73739076e-01, -9.91315961e-01,
          -1.27486265e+00, -1.47901642e+00, -3.82535845e-01,
          -4.52274621e-01, -2.55125642e-01 ]
      - [ 1.17137718e+00, 6.42401516e-01, 9.36336875e-01, 2.23321393e-01,
          -5.90748608e-01, -1.32039022e+00, -2.10919499e+00,
          -1.68377292e+00, 2.01561406e-01, -1.47882774e-01,
          2.83169657e-01, 6.67809129e-01, 6.62724972e-01, 1.32117435e-01,
          9.31169927e-01 ]
      - [ 5.57226598e-01, 1.06970057e-01, 6.48268819e-01, 1.75222903e-01,
          -8.45986068e-01, -1.50199735e+00, -1.67499745e+00,
          -1.16974664e+00, -9.28889871e-01, 4.28297639e-01,
          3.03463042e-01, 3.84238362e-01, 1.15804851e+00, 6.01197183e-01,
          1.75868416e+00 ]
      - [ 8.44074309e-01, 7.17261493e-01, 1.21122634e+00, 1.17552686e+00,
          1.03326154e+00, 4.30559695e-01, 2.81596214e-01,
          -3.55112664e-02, 4.12866801e-01, 1.80063039e-01,
          -8.02015901e-01, -1.01682711e+00, -1.21885145e+00,
          -1.42983735e+00, -1.78339326e+00 ]
      - [ -6.31038904e-01, -5.33419847e-01, 1.12421528e-01,
          4.13225919e-01, -6.53160870e-01, -7.21494496e-01,
          -1.35767746e+00, -1.56826866e+00, -3.83536398e-01,
          1.45149156e-01, 2.78137386e-01, 1.32405710e+00, 1.41424203e+00,
          1.96086586e+00, 2.00497732e-01 ]
      - [ -1.86152056e-01, -2.99990207e-01, -2.13625818e-01,
          2.79475272e-01, -7.59997725e-01, -1.10086298e+00,
          -1.63057482e+00, -1.02675080e+00, -6.30848706e-01,
          -1.77836969e-01, 5.27212620e-01, 1.18536174e+00,
          1.84751952e+00, 1.50067413e+00, 6.86396658e-01 ]
      - [ -8.38280618e-02, 2.13707555e-02, 1.08301520e+00,
          8.14377546e-01, -1.26510575e-01, -5.48155308e-01,
          -8.18459690e-01, -1.53331542e+00, -8.21484327e-01,
          -9.44888771e-01, -8.82806838e-01, 2.65447825e-01,
          1.30565926e-01, 1.24716187e+00, 2.19751000e+00 ]
      - [ -1.19197404e+00, -9.40093577e-01, -1.09256558e-01,
          7.32095301e-01, 5.70062026e-02, -5.79509735e-01,
          -1.25572276e+00, -1.21616197e+00, -6.53274953e-01,
          -3.31580132e-01, 5.78338325e-01, 1.06548154e+00,
          1.85203588e+00, 1.40301073e+00, 5.89605629e-01 ]
      - [ -6.43838584e-01, -9.89491343e-01, 7.83932954e-02,
          6.29749358e-01, -1.12034428e+00, -5.78284562e-01,
          -1.13619483e+00, -9.85122919e-01, -7.48773038e-01,
          -2.17205495e-01, 6.64088070e-01, 1.01674688e+00,
          1.97614336e+00, 1.38424790e+00, 6.69885993e-01 ]
      - [ -3.13489228e-01, -1.04242377e-01, 2.13753939e+00,
          1.03815985e+00, -2.48500392e-01, 7.76277006e-01,
          -4.42157686e-01, -8.11506689e-01, -1.06072152e+00,
          -1.62957084e+00, -9.63474631e-01, 4.54933196e-01,
          7.75392056e-01, 9.47980404e-01, -5.56618512e-01 ]
      - [ -6.81284666e-01, -5.26165724e-01, 1.42496020e-01,
          -2.71782726e-01, -8.09155107e-01, -1.07871306e+00,
          -1.48071170e+00, -7.38060176e-01, -4.55225587e-01,
          -2.12830398e-02, 6.47199512e-01, 1.03662491e+00,
          1.80766559e+00, 1.80236733e+00, 6.26028538e-01 ]
      - [ -1.04461372e+00, -7.17621803e-01, 2.69955128e-01,
          -2.12756619e-01, -8.26836050e-01, -1.09609771e+00,
          -1.40568101e+00, -6.95535779e-01, -9.75139812e-02,
          6.60783891e-03, 6.00011706e-01, 1.21092272e+00, 1.83539951e+00,
          1.51329267e+00, 6.60467029e-01 ]
      - [ -7.98984766e-01, -5.09672880e-01, -3.57553184e-01,
          -4.33715582e-01, -1.02187920e+00, -1.12854409e+00,
          -1.34144890e+00, -7.38063753e-01, -4.37888391e-02,
          4.39286560e-01, 4.43349600e-01, 1.03863096e+00, 1.44664121e+00,
          1.35520279e+00, 1.65054011e+00 ]
      - [ -7.02388644e-01, -3.03301543e-01, 9.33122218e-01,
          2.00115442e+00, 6.05729342e-01, 2.60020960e-02,
          -7.33083308e-01, 1.88024580e-01, -3.67622226e-01,
          -9.21162307e-01, -1.55714262e+00, -7.52476633e-01,
          1.67403913e+00, 5.94019830e-01, -6.84914231e-01 ]
      - [ 1.86950453e-02, -2.20116913e-01, 1.97106433e+00,
          1.51215339e+00, 7.21788168e-01, -1.25979424e+00,
          -8.19404721e-01, -1.44425392e+00, -7.76725352e-01,
          -8.43104601e-01, 5.24840057e-01, 3.28311116e-01,
          6.86866939e-01, 3.76406163e-01, -7.76725352e-01 ]
      - [ 1.78096190e-01, 4.23437506e-01, 1.45598459e+00, 1.39212358e+00,
          2.47376069e-01, -2.70150185e-01, -9.88274720e-03,
          9.50996101e-01, -4.86961275e-01, -1.01519728e+00,
          -1.72619188e+00, -1.82328117e+00, -5.09049892e-01,
          3.22335869e-01, 8.70364547e-01 ]
      - [ 8.47855330e-01, 4.12792087e-01, 1.69737566e+00, 1.61539018e+00,
          4.86543596e-01, -1.06145613e-01, -3.14032026e-02,
          5.38165987e-01, 2.68743128e-01, -3.24886292e-01,
          -8.68858218e-01, -7.28150725e-01, -6.97790444e-01,
          -1.16954505e+00, -1.94008636e+00 ]
      - [ 2.61089891e-01, 1.55715510e-01, 3.42264444e-01,
          -3.07732105e-01, -7.86176920e-01, -1.26158476e+00,
          -1.73395550e+00, -1.43730259e+00, -5.87532640e-01,
          -3.37902866e-02, 7.01091170e-01, 1.09197593e+00,
          1.30670083e+00, 1.31132734e+00, 9.77909684e-01 ]
      - [ -1.97168171e-01, -1.06964052e-01, 4.02177125e-01,
          -2.43854865e-01, -7.43087947e-01, -1.25362778e+00,
          -1.70897603e+00, -1.27245498e+00, -2.95392007e-01,
          -2.08079323e-01, 5.77617168e-01, 1.12057483e+00,
          1.15336013e+00, 1.10324275e+00, 1.67263305e+00 ]
      - [ -1.39641576e-02, -1.29971966e-01, 7.25973248e-01,
          -2.25853398e-01, -7.45417356e-01, -1.26497638e+00,
          -1.73826957e+00, -1.56561160e+00, -2.26599187e-01,
          -1.07485175e-01, 9.47400212e-01, 1.19044256e+00,
          1.27276456e+00, 1.00648212e+00, 8.75086069e-01 ]
      - [ -3.29681188e-01, -3.20305564e-02, 6.41852140e-01,
          -2.96575320e-03, -6.31027222e-01, -1.13389397e+00,
          -1.68364143e+00, -1.42019343e+00, -8.07899714e-01,
          7.30165914e-02, 5.41066885e-01, 8.13581526e-01, 1.52383590e+00,
          1.30051267e+00, 1.14746749e+00 ]
      - [ -1.79907326e-02, 2.52205700e-01, 9.28323507e-01,
          3.87260951e-02, -9.18792605e-01, -9.26492751e-01,
          -1.58845782e+00, -1.31401563e+00, -3.78311485e-01,
          -5.30060470e-01, -1.54315904e-01, 1.59386173e-01,
          1.39247406e+00, 1.65997529e+00, 1.39734662e+00 ]
      - [ 1.37446785e+00, 1.06466305e+00, 2.33583760e+00, 4.21796113e-01,
          -1.86146751e-01, -7.76713967e-01, -1.33254743e+00,
          -6.88547552e-01, -5.80546200e-01, -8.66063178e-01,
          -7.34096050e-01, -2.21966654e-01, 1.44467831e-01,
          6.38489664e-01, -5.93094170e-01 ]
      - [ -2.32228503e-01, 5.57224192e-02, 1.67700410e+00,
          2.47288883e-01, -8.76787484e-01, -1.70994735e+00,
          -2.26538968e+00, 2.15210095e-01, -1.16276585e-01,
          8.70783180e-02, 2.35119611e-01, 5.77086449e-01, 8.72915149e-01,
          9.81772184e-01, 2.51432300e-01 ]
      - [ 4.05187309e-02, -2.90306136e-02, 1.63328624e+00,
          2.00695932e-01, -8.94906700e-01, -1.63667691e+00,
          -2.08517981e+00, -3.86076987e-01, 1.44784041e-02,
          -1.58175468e-01, 5.94880462e-01, 7.22203612e-01,
          1.04934824e+00, 1.12853611e+00, -1.93901241e-01 ]
      - [ -3.45681608e-01, 1.02006890e-01, 1.42655206e+00,
          2.42408350e-01, -8.81271660e-01, -1.56423187e+00,
          -2.12461209e+00, -2.81265229e-01, -3.35855097e-01,
          8.33592266e-02, 6.14404440e-01, 8.30711782e-01, 1.14955723e+00,
          1.19903409e+00, -1.15116484e-01 ]
      - [ -2.39767954e-01, 1.38004469e-02, 1.53580999e+00,
          -5.81396818e-01, -1.08625269e+00, -1.23961997e+00,
          -2.01208735e+00, -1.75547212e-01, -2.53765553e-01,
          -9.14579444e-03, 3.26179773e-01, 4.76246566e-01,
          7.56412148e-01, 1.68156362e+00, 8.07570815e-01 ]
      - [ 3.45449179e-01, 3.56868990e-02, 1.64144397e+00, 3.13113779e-01,
          -8.40861678e-01, -1.47606945e+00, -1.94684017e+00,
          -4.38819051e-01, -6.18746042e-01, -4.42732185e-01,
          -6.77348375e-02, 5.02940059e-01, 7.08731651e-01,
          1.50992203e+00, 7.74515688e-01 ]
      - [ 3.42508197e-01, 3.24258804e-02, 1.81715262e+00, 9.49200034e-01,
          -7.72778630e-01, -1.34273541e+00, -1.91269207e+00,
          -3.96819502e-01, -7.04696238e-01, -4.29310501e-01,
          -1.94327369e-01, 6.71889126e-01, 9.52294111e-01,
          1.16390777e+00, -1.76018104e-01 ]
      - [ -2.87251294e-01, -5.59595115e-02, 1.76670647e+00,
          1.59056652e+00, 4.33889389e-01, -5.24464488e-01,
          -5.42060852e-01, 1.10494696e-01, -1.37230909e+00,
          -1.04670274e+00, -3.56776476e-01, 2.36522987e-01,
          1.68299258e+00, -1.10212314e+00, -5.33524930e-01 ]
      - [ -4.13128406e-01, -2.41881937e-01, 2.39867616e+00,
          1.63419414e+00, 3.42483371e-01, -2.17234194e-01,
          -6.69911921e-01, 3.19410533e-01, -1.25405228e+00,
          -1.07724345e+00, 1.29121780e-01, 3.06452394e-01,
          3.64321202e-01, -1.22334909e+00, -3.97858202e-01 ]
      - [ 1.88185364e-01, -3.20457518e-02, 2.06018138e+00,
          1.47074151e+00, 2.55610228e-01, -2.21743584e-01,
          -1.37399089e+00, 6.26971945e-02, -1.53087366e+00,
          -1.00307751e+00, -5.95033467e-01, 8.82987976e-01,
          7.84605980e-01, -4.98414636e-01, -4.49830115e-01 ]
      - [ 1.50606602e-01, -3.40000600e-01, 2.03785157e+00,
          1.46075296e+00, 2.04657406e-01, -5.06950557e-01,
          -1.33333230e+00, 1.86367221e-02, -1.54593110e+00,
          -9.92189288e-01, -2.06309408e-01, 1.25070214e+00,
          4.56522435e-01, -1.10742666e-01, -5.44273973e-01 ]
      - [ 1.31434068e-01, 3.97041261e-01, 2.22393417e+00, 1.76178634e+00,
          7.49798596e-01, -9.72355083e-02, -9.44269598e-01,
          -2.10499331e-01, -1.10129893e+00, -7.15015888e-01,
          6.34308998e-03, 6.13685586e-02, -1.61095351e-01,
          -6.61260307e-01, -1.44103122e+00 ]
      - [ -6.61034510e-02, -1.09896317e-01, 2.34969521e+00,
          1.91175389e+00, 5.52835166e-01, 9.16869566e-02,
          -8.06906879e-01, -2.73399204e-01, -1.30274582e+00,
          -1.26098585e+00, -6.20121419e-01, -4.45237274e-05,
          -2.59559035e-01, -4.23210636e-02, -1.63887635e-01 ]
      - [ 5.10368459e-02, -5.56251407e-02, 2.28281283e+00,
          1.75032854e+00, 5.56973398e-01, 7.01419562e-02,
          -7.59313643e-01, -5.96965849e-01, -1.38157988e+00,
          -1.30947077e+00, -2.71280169e-01, 3.58169138e-01,
          3.12622339e-01, -3.61825764e-01, -6.46023870e-01 ]
      - [ -4.73494112e-01, -4.80521411e-01, 9.74732399e-01,
          -2.82761782e-01, -1.66491544e+00, -1.20763421e+00,
          -9.09840822e-01, -2.81060219e-01, -2.43545488e-01,
          -1.18386924e-01, 4.04756159e-01, 1.58835971e+00,
          1.62859428e+00, 1.36876440e+00, -3.03046554e-01 ]
      - [ -4.51449066e-01, -2.74044663e-01, 1.02889848e+00,
          -4.25369799e-01, -1.70236301e+00, -1.25359261e+00,
          -9.49125707e-01, -2.01654777e-01, -1.40379027e-01,
          -1.31867379e-01, 3.21492225e-01, 1.62592888e+00,
          1.37888670e+00, 1.50796318e+00, -3.33323479e-01 ]
      - [ -7.04774797e-01, -2.92769194e-01, 9.37782705e-01,
          4.82201856e-03, -1.64147794e+00, -7.33776689e-01,
          -9.41233814e-01, -1.14013314e+00, -2.41956040e-01,
          -1.22538857e-01, 1.69443935e-02, 6.67907178e-01,
          1.75359166e+00, 1.74483359e+00, 6.92778885e-01 ]
      - [ -3.93349260e-01, -5.45354962e-01, 7.13909328e-01,
          6.87966794e-02, -1.71067655e+00, -9.48221624e-01,
          -8.00109565e-01, -1.05335939e+00, -2.92964131e-01,
          -8.04063380e-02, 3.05185951e-02, 7.73053885e-01,
          1.81118309e+00, 1.73399365e+00, 6.92986488e-01 ]
      - [ -5.79872541e-02, -9.92241204e-02, 1.41036713e+00,
          5.81599355e-01, -1.58826745e+00, -3.80690783e-01,
          -6.59384310e-01, -9.59467888e-01, -8.03031802e-01,
          -8.80194247e-01, -5.34020782e-01, -1.23265900e-01,
          1.64836037e+00, 1.54658425e+00, 8.98623407e-01 ]
      - [ -5.14981329e-01, -4.63075161e-01, 6.05902672e-01,
          -4.38356660e-02, -1.86596513e+00, -7.81470656e-01,
          -9.40808058e-01, -6.08897328e-01, -3.21829706e-01,
          -1.77493200e-01, 2.88114361e-02, 1.11097920e+00,
          1.74358332e+00, 1.78842938e+00, 4.40650254e-01 ]
      - [ -6.23777449e-01, -6.45332336e-01, 3.79114747e-01,
          -2.13551924e-01, -1.64752555e+00, -1.10429943e+00,
          -9.61234510e-01, -5.04085958e-01, -2.41164729e-01,
          1.20688640e-01, 3.04507881e-01, 1.43120873e+00, 1.59372032e+00,
          1.73031533e+00, 3.81416291e-01 ]
      - [ -5.81188262e-01, -6.58513784e-01, 2.44835287e-01,
          -2.06947595e-01, -1.66957641e+00, -1.31593704e+00,
          -9.82944369e-01, -2.47429609e-01, -2.57574052e-01,
          1.23152398e-01, 4.18618679e-01, 1.42479050e+00, 1.57386279e+00,
          1.58540821e+00, 5.49443185e-01 ]
      - [ -3.83998543e-01, -7.40725636e-01, 4.42036420e-01,
          -1.82810977e-01, -1.87574005e+00, -1.55153871e+00,
          -9.14615750e-01, 1.66561693e-01, -1.99052598e-02,
          1.45819545e-01, 4.25667405e-01, 8.11263621e-01, 1.76672029e+00,
          1.44366300e+00, 4.67602879e-01 ]
      - [ -5.39258718e-01, -8.34359169e-01, 1.12651694e+00,
          3.13112289e-02, -1.51283669e+00, -1.47117221e+00,
          -1.02772009e+00, -1.05785497e-01, 5.92729785e-02,
          4.79345955e-02, 3.70645612e-01, 8.72399449e-01, 1.60224569e+00,
          1.63851392e+00, -2.57708013e-01 ]
      - [ -3.25336933e-01, -5.26204646e-01, 1.49156034e+00,
          2.40598172e-01, -1.30775237e+00, -1.29117215e+00,
          -1.44032037e+00, 1.07343398e-01, -1.59049764e-01,
          2.76435185e-02, 9.82597843e-02, 1.56049645e+00, 1.10708797e+00,
          1.23014939e+00, -8.13302696e-01 ]
      - [ 4.76319224e-01, 3.07119526e-02, 1.08132350e+00,
          -5.68446238e-03, -6.76665187e-01, -1.37512827e+00,
          -1.49385941e+00, -7.13735342e-01, -9.07438695e-01,
          -7.37198293e-01, -2.26359740e-01, 3.85024488e-01,
          1.12386513e+00, 1.70149159e+00, 1.33733356e+00 ]
      - [ 5.95185459e-01, 5.35741985e-01, 1.21375501e+00,
          -1.44869927e-02, -6.62374496e-01, -1.40463269e+00,
          -1.69726765e+00, -7.66260505e-01, -8.21257889e-01,
          -7.15431511e-01, -2.49989778e-01, 4.45486814e-01,
          7.48744726e-01, 1.61776245e+00, 1.17502511e+00 ]
      - [ 2.69251049e-01, 1.72993034e-01, 1.79645371e+00, 8.47584844e-01,
          3.91888112e-01, -3.77463162e-01, -7.91728795e-01,
          -3.97411257e-01, -1.17882061e+00, -9.54453111e-01,
          -1.55404544e+00, -8.44641566e-01, -2.43243715e-03,
          1.34618390e+00, 1.27664161e+00 ]
      - [ 5.05259275e-01, 3.20100129e-01, 1.93417144e+00, 9.26191211e-01,
          3.78274828e-01, 9.45579186e-02, -3.13328266e-01,
          -2.43666410e-01, -6.12903416e-01, -1.52514100e+00,
          -1.99714780e+00, -7.56862462e-01, -2.22660527e-02,
          1.04788512e-01, 1.20797205e+00 ]
      - [ 2.13698864e-01, -3.22304308e-01, 3.56181473e-01,
          -3.04594398e-01, -9.15815771e-01, -1.41177523e+00,
          -1.44566739e+00, -1.33934069e+00, -3.85160923e-01,
          7.50719681e-02, 4.79934722e-01, 1.22649980e+00, 1.65119600e+00,
          1.21679342e+00, 9.05282319e-01 ]
      - [ 6.07970715e-01, -1.46926254e-01, 5.84984362e-01,
          -1.58726081e-01, -9.20635521e-01, -1.32967710e+00,
          -1.36648929e+00, -1.23344827e+00, -6.10134602e-01,
          -9.45125222e-02, 1.96391996e-02, 4.89192188e-01,
          2.09493566e+00, 1.25298643e+00, 8.10841143e-01 ]
      - [ 2.79653966e-01, -1.21438205e-01, 6.71370268e-01,
          -2.10859120e-01, -1.11736476e+00, -8.21980596e-01,
          -1.41149020e+00, -1.28487873e+00, -8.61737490e-01,
          -2.93176562e-01, 2.01741800e-01, 1.18055212e+00,
          1.95149624e+00, 1.12382603e+00, 7.14285076e-01 ]
      - [ -3.53553146e-01, -4.23411250e-01, 6.26888394e-01,
          -3.22188348e-01, -1.15296113e+00, -1.21582043e+00,
          -1.09149551e+00, -1.14505756e+00, -6.08187079e-01,
          -2.33206689e-01, 9.15378630e-01, 1.21578074e+00,
          1.70586514e+00, 1.22977161e+00, 8.52196634e-01 ]
      - [ -2.83848375e-01, -3.17709684e-01, 4.81094748e-01,
          -2.82263398e-01, -1.04342937e+00, -1.07448113e+00,
          -1.44244111e+00, -1.13942420e+00, -7.35110343e-01,
          -7.30191991e-02, 8.78835261e-01, 1.28331268e+00,
          1.61020398e+00, 1.21292400e+00, 9.25356209e-01 ]
      - [ 2.90748060e-01, -3.80098552e-01, 7.14021087e-01,
          -4.31628060e-03, -1.17909670e+00, -1.38022316e+00,
          -1.57134402e+00, -1.17147171e+00, -5.19672453e-01,
          6.58172518e-02, 7.32028663e-01, 8.84472191e-01, 1.43270123e+00,
          6.54239655e-01, 1.43219471e+00 ]
      - [ 1.00982118e+00, 1.81357145e+00, 2.12871552e+00, 7.37489402e-01,
          -5.66746056e-01, -8.05463672e-01, -8.50190520e-01,
          -9.15228307e-01, -4.27014589e-01, -1.03530276e+00,
          -3.64298195e-01, -1.63339734e-01, 1.79660633e-01,
          -7.97776699e-01, 5.61023206e-02 ]
      - [ 3.11833441e-01, -1.55674472e-01, 1.65144992e+00,
          4.42162573e-01, -1.08541882e+00, -1.46995819e+00,
          -1.07610202e+00, -1.09068704e+00, -1.03528535e+00,
          -2.57973939e-01, -1.62416652e-01, 1.05365920e+00,
          6.84260011e-01, 1.34775078e+00, 8.42400670e-01 ]
      - [ -4.67527717e-01, 8.10569644e-01, 2.28597927e+00,
          1.25557363e+00, -3.17243695e-01, -1.21211255e+00,
          -1.00892365e+00, -6.42370284e-01, -9.49498236e-01,
          -7.29559004e-01, -7.97940850e-01, 7.79855430e-01,
          6.73809648e-01, 4.22458738e-01, -1.03070363e-01 ]
      - [ 2.07645163e-01, -6.57952875e-02, 4.91260141e-01,
          1.08683251e-01, -6.13960207e-01, -9.24120784e-01,
          -1.27678764e+00, -9.39943314e-01, -9.19433773e-01,
          -8.76665354e-01, -3.60661566e-01, 4.14392471e-01,
          1.43498015e+00, 1.17679739e+00, 2.14360929e+00 ]
      - [ 1.49352169e+00, -2.41076499e-02, 9.32557702e-01,
          4.09994721e-01, 4.42624032e-01, -6.41273379e-01,
          -1.02357888e+00, -1.66621077e+00, -1.06467223e+00,
          -5.58168709e-01, -1.05170453e+00, 2.46288300e-01,
          -1.25935301e-01, 9.89714563e-01, 1.64095044e+00 ]
      - [ 5.43794572e-01, 7.75779858e-02, 1.62926328e+00, 1.18441844e+00,
          4.40101534e-01, -2.93897927e-01, -7.38742769e-01,
          -9.11944091e-01, -1.10789061e+00, -5.37930727e-01,
          -1.05699039e+00, -6.94944143e-01, -4.34262842e-01,
          -2.47226849e-01, 2.14867473e+00 ]
      - [ 9.59560990e-01, -1.33837033e-02, 1.57025886e+00,
          1.78421366e+00, 9.63975668e-01, 1.04563169e-01,
          -5.13455927e-01, -1.35200953e+00, -7.45860755e-01,
          -1.08597958e+00, -8.19088519e-01, -2.10242197e-01,
          -9.08387303e-01, -6.04277730e-01, 8.70112896e-01 ]
      - [ 9.01054144e-01, 9.62322019e-03, 8.43797028e-01, 1.96563137e+00,
          1.12067032e+00, 6.13863289e-01, 6.97313547e-01,
          -1.17517933e-01, -5.79951525e-01, -1.03715611e+00,
          -1.57234979e+00, -1.19516754e+00, -8.79880726e-01,
          -6.04271054e-01, -1.65658250e-01 ]
      - [ 6.37786806e-01, 8.43716621e-01, 1.80045450e+00, 1.37089860e+00,
          9.03293490e-01, 4.41325039e-01, -1.90312527e-02,
          -2.72027045e-01, -1.44677067e+00, -9.68620360e-01,
          -1.21143389e+00, -1.09608364e+00, -9.29812849e-01,
          -2.60265201e-01, 2.06569880e-01 ]
      - [ -2.45845631e-01, -2.31455430e-01, 9.05256391e-01,
          1.60479128e-01, -5.77159643e-01, -1.33255661e+00,
          -1.76129365e+00, -1.29488921e+00, 4.77006704e-01,
          4.24393229e-02, -9.95034277e-02, -1.60969913e-01,
          1.25480652e+00, 1.75818336e+00, 1.10550201e+00 ]
      - [ 1.75674688e-02, 1.08800642e-01, 1.38511145e+00, 6.51798546e-01,
          3.12691450e-01, -4.88444030e-01, -7.52202049e-02,
          -3.01260561e-01, -5.52508652e-01, -1.09480691e+00,
          -1.44624841e+00, -1.44015455e+00, -1.11515425e-01,
          8.36442888e-01, 2.19774628e+00 ]
      - [ -4.83924061e-01, -2.13991001e-01, 1.50447464e+00,
          -3.52833897e-01, -1.04595709e+00, -1.69426298e+00,
          -1.50952792e+00, -7.01626837e-01, -1.44723117e-01,
          2.32627109e-01, 1.10610092e+00, 1.08381641e+00, 1.30600822e+00,
          4.67253208e-01, 4.46566284e-01 ]
      - [ -5.44823766e-01, -9.07552093e-02, 9.68612671e-01,
          1.04596041e-01, -1.22223437e+00, -1.74967980e+00,
          -1.56645262e+00, -7.86778748e-01, -3.91458839e-01,
          8.77754211e-01, 7.89749146e-01, 9.73388255e-01, 1.27717519e+00,
          4.99268264e-01, 8.61639619e-01 ]
      - [ -7.41155624e-01, -1.41370147e-01, 5.51462710e-01,
          -9.06347558e-02, -1.18618059e+00, -1.56435061e+00,
          -1.36803329e+00, -5.08727193e-01, -3.21162611e-01,
          -1.16922082e-02, 5.31514227e-01, 7.89876759e-01,
          1.52362275e+00, 1.80923200e+00, 7.27598488e-01 ]
      - [ -1.04629648e+00, 9.47105214e-02, 9.29516613e-01,
          -1.79204252e-02, -1.02100348e+00, -1.55130053e+00,
          -1.36067009e+00, -5.68179727e-01, -4.18500841e-01,
          5.35730831e-02, 2.43031502e-01, 1.08825350e+00, 1.82578790e+00,
          1.12386477e+00, 6.25133634e-01 ]
      - [ -7.00027347e-01, 1.32477731e-01, 1.09611928e+00,
          -2.60249317e-01, -1.19027865e+00, -1.66949153e+00,
          -1.67400086e+00, -6.74158037e-01, -4.39746007e-02,
          7.31576204e-01, 1.08436763e+00, 1.24135637e+00, 1.06722546e+00,
          4.46177214e-01, 4.12880450e-01 ]
      - [ -6.10499203e-01, -1.15359873e-01, 7.01634347e-01,
          -3.31094354e-01, -1.18634641e+00, -1.66972411e+00,
          -1.56992435e+00, -3.05251628e-01, -2.78972208e-01,
          8.93601552e-02, 1.01088655e+00, 1.08472383e+00, 1.69384086e+00,
          7.32675374e-01, 7.54050851e-01 ]
      - [ -3.52265954e-01, -4.04736280e-01, 4.87652212e-01,
          -2.73422450e-01, -1.16744697e+00, -1.48552978e+00,
          -1.43937886e+00, -7.51573801e-01, -3.74470741e-01,
          9.55970734e-02, 6.87899351e-01, 9.92614865e-01, 1.46845293e+00,
          1.62042093e+00, 8.96187365e-01 ]
      - [ -5.00685811e-01, 4.17130589e-02, 1.16006768e+00,
          -2.16585875e-01, -1.13437116e+00, -1.61600757e+00,
          -1.91925228e+00, -3.96605909e-01, -2.59601623e-01,
          6.46677971e-01, 1.05112541e+00, 1.14738774e+00, 1.16552377e+00,
          4.67501312e-01, 3.63113225e-01 ]
      - [ -5.24393201e-01, -1.57551959e-01, 9.22842681e-01,
          -3.18225533e-01, -1.08217645e+00, -1.69938183e+00,
          -1.59215748e+00, -4.28433090e-01, -4.23438311e-01,
          3.61088336e-01, 1.12283540e+00, 1.48667705e+00, 1.25578344e+00,
          6.66042745e-01, 4.10488218e-01 ]
      - [ -5.32358885e-01, -1.30676344e-01, 5.01800239e-01,
          -2.26380080e-01, -1.30421674e+00, -1.46098459e+00,
          -1.27963746e+00, -7.00070381e-01, -3.08207005e-01,
          5.60862795e-02, 1.05307736e-01, 1.00680113e+00, 1.58148742e+00,
          1.65259874e+00, 1.03844988e+00 ]
      - [ 2.26328582e-01, 4.93447810e-01, 6.81300879e-01, 1.25346780e+00,
          2.04389763e+00, 1.25486284e-01, -3.57930779e-01,
          -8.23450923e-01, -1.14572692e+00, -1.57543445e+00,
          -1.35618877e+00, -3.35949719e-01, -1.73427314e-01,
          -1.12929475e-03, 9.45309103e-01 ]
      - [ -1.56490374e+00, -7.58984387e-01, 9.96358037e-01,
          3.46389890e-01, -1.05866086e+00, 4.58334118e-01,
          -5.37175275e-02, -6.12156987e-01, -1.08887792e+00,
          -7.00978994e-01, 2.32282028e-01, -1.50650993e-01,
          4.67153728e-01, 1.52349865e+00, 1.96491492e+00 ]
      - [ -8.23844254e-01, -9.48087871e-01, 3.65954131e-01,
          -4.43863064e-01, -8.43370557e-01, -1.19244492e+00,
          -1.57475984e+00, -3.27844441e-01, 1.80777565e-01,
          2.55166382e-01, 2.79398084e-01, 5.33075035e-01, 1.64365005e+00,
          1.53569496e+00, 1.36049879e+00 ]
      - [ -3.30872415e-03, -7.40636706e-01, -4.33745295e-01,
          -7.50500187e-02, 2.32200527e+00, 1.62310171e+00,
          9.24209297e-01, -3.83487165e-01, -4.40303355e-01,
          -1.10591805e+00, -1.57185006e+00, 8.46345648e-02,
          -4.90443856e-01, -1.68897267e-02, 3.07682216e-01 ]
      - [ -1.41762018e+00, -1.52569509e+00, -3.29230651e-02,
          6.77093208e-01, -3.18244956e-02, -4.01970148e-01,
          -4.65392202e-01, -9.09609616e-01, -6.82132244e-01,
          -9.46446881e-03, 1.75627336e-01, 2.03158841e-01,
          1.06370282e+00, 1.09003937e+00, 2.26700997e+00 ]
      - [ -1.53603172e+00, -1.35758352e+00, 4.13573325e-01,
          1.29849958e+00, 5.63213408e-01, -1.95061639e-01,
          -7.58360326e-01, -7.85373986e-01, -6.90806270e-01,
          -8.23954165e-01, 1.29477377e-03, 4.11757305e-02,
          1.69920802e+00, 1.26414967e+00, 8.66057158e-01 ]
      - [ -1.50815344e+00, -1.63425756e+00, 1.69203162e-01,
          8.29949319e-01, 1.75538048e-01, -4.96693522e-01,
          -5.56970239e-01, -8.02798450e-01, -7.89512277e-01,
          -5.68651892e-02, -2.85953507e-02, 3.94167811e-01,
          1.74388802e+00, 1.30793548e+00, 1.25316429e+00 ]
      - [ -6.18879795e-01, -6.62122011e-01, -7.09161818e-01,
          4.94348025e-03, 2.16321707e+00, 1.35683179e+00, 5.50459683e-01,
          -2.94324964e-01, -1.10071027e+00, -1.71509922e+00,
          3.15141559e-01, -6.60620153e-01, -7.64730945e-02,
          6.13417625e-01, 8.33379984e-01 ]
      - [ -1.48312294e+00, -1.49709547e+00, -6.61993474e-02,
          5.20845473e-01, 1.65971220e-01, -4.25481945e-01,
          -5.51022112e-01, -9.09840822e-01, -1.85803622e-01,
          -5.14685810e-01, -4.17590082e-01, 9.98928666e-01,
          1.29258549e+00, 1.73721325e+00, 1.33529794e+00 ]
      - [ -1.11950088e+00, -1.29535675e+00, 1.65366352e-01,
          2.40458429e-01, -2.55807161e-01, -8.71859789e-01,
          -1.36812532e+00, -6.78451359e-01, 1.02187723e-01,
          -2.33607605e-01, -9.95313972e-02, 1.03649759e+00,
          1.21787083e+00, 1.89706433e+00, 1.26279497e+00 ]
      - [ -1.09670329e+00, -1.06362224e+00, 2.05637485e-01,
          2.84426987e-01, -3.78758967e-01, -7.75161743e-01,
          -1.21912730e+00, -7.43246496e-01, -4.33981031e-01,
          -5.79934061e-01, 4.62931693e-01, 5.77183485e-01,
          1.88477218e+00, 1.41807306e+00, 1.45751035e+00 ]
      - [ 1.93320215e-01, 2.53313541e-01, 1.27698183e+00, 3.86041142e-02,
          -5.44511080e-01, -6.42424226e-01, -9.45635557e-01,
          -1.05991280e+00, -1.62445807e+00, -5.01770616e-01,
          -5.96506178e-01, 1.48955777e-01, 5.55562675e-01,
          1.81407356e+00, 1.63440681e+00 ]
      - [ 1.35943115e-01, -2.44648140e-02, 5.98633826e-01,
          -7.08693206e-01, -6.92299962e-01, -1.11262727e+00,
          -1.01181996e+00, -1.04894567e+00, -1.25264537e+00,
          -2.79946830e-02, -6.13521822e-02, 6.10094726e-01,
          1.23683000e+00, 1.39611590e+00, 1.96322572e+00 ]
      - [ -8.56364191e-01, -4.12657291e-01, 5.48652709e-01,
          -3.74264158e-02, -8.20206344e-01, -8.54652107e-01,
          -9.55830574e-01, -6.96148992e-01, -3.74115109e-01,
          -3.99881572e-01, -3.66425455e-01, 1.69183463e-01,
          1.10713220e+00, 1.47050607e+00, 2.47823358e+00 ]
      - [ -8.82266402e-01, -6.92892075e-01, 6.40330970e-01,
          7.18549639e-02, -2.76190162e-01, -8.21462035e-01,
          -9.36012626e-01, -7.98907936e-01, -3.26464415e-01,
          -5.21245897e-01, -3.95405293e-01, 7.35683739e-02,
          7.65870214e-01, 1.53363502e+00, 2.56558728e+00 ]
      - [ -6.55672908e-01, -9.58331451e-02, 3.89746308e-01,
          -1.24926887e-01, -7.35733211e-01, -9.75265145e-01,
          -7.73429215e-01, -8.68846714e-01, -3.82722199e-01,
          -3.72187287e-01, -2.66788274e-01, 1.47797048e-01,
          4.03035611e-01, 1.55716574e+00, 2.75366020e+00 ]
      - [ -1.35175884e+00, -5.85349977e-01, 1.20143890e+00,
          5.05369186e-01, -1.59422740e-01, -7.34581947e-01,
          -1.16481245e+00, -8.02495778e-01, -2.46736288e-01,
          -3.61379266e-01, -1.05301358e-01, -3.12888324e-01,
          3.53287160e-01, 1.71808052e+00, 2.04655147e+00 ]
      - [ -1.60594428e+00, -3.04167837e-01, 2.92809993e-01,
          -2.40015551e-01, -5.69051981e-01, -3.38523746e-01,
          -1.84705958e-01, -4.96461451e-01, -3.26633841e-01,
          -5.73593915e-01, -4.79705542e-01, -6.79169744e-02,
          9.52103794e-01, 1.22249949e+00, 2.71930766e+00 ]
      - [ -1.20092559e+00, -9.85731363e-01, 1.56011641e+00,
          8.41322362e-01, 6.91768944e-01, -6.71938002e-01,
          -1.39073503e+00, -1.38666797e+00, -7.12239563e-01,
          -1.75402611e-01, 1.21282712e-01, 9.91015196e-01,
          1.12656391e+00, 8.63506734e-01, 3.28063846e-01 ]
      - [ -1.89835441e+00, -1.50294077e+00, 1.16448677e+00,
          9.52771723e-01, 2.70771593e-01, -1.81986064e-01,
          -7.94023335e-01, -6.89295888e-01, -4.16906834e-01,
          -5.12880325e-01, -3.88163060e-01, 7.69014418e-01,
          1.01613975e+00, 1.15596437e+00, 1.05540192e+00 ]
      - [ -1.54507220e+00, -8.52383673e-01, 1.63924909e+00,
          1.06007540e+00, 2.68555939e-01, -1.72992572e-01,
          -8.00996721e-01, -1.29345691e+00, -9.80516791e-01,
          -3.15999687e-01, -2.40151599e-01, 5.11134081e-02,
          1.21618986e+00, 7.33582199e-01, 1.23280418e+00 ]
      - [ -9.69858646e-01, -1.29124773e+00, 5.63587368e-01,
          1.74173057e-01, -4.77887720e-01, -8.40749204e-01,
          -1.32020152e+00, -1.02144206e+00, 2.27595821e-01,
          2.11902931e-01, 1.74988106e-01, -3.53061892e-02,
          1.38016343e+00, 1.82563066e+00, 1.39865172e+00 ]
      - [ 3.27541232e-01, -5.42443991e-01, 1.51866949e+00,
          3.47586095e-01, -9.08337116e-01, 4.67184409e-02,
          -9.10713434e-01, -9.38573420e-01, 2.03483772e+00,
          -7.78142810e-01, -1.45884895e+00, 9.69806671e-01,
          6.49580419e-01, -5.86861253e-01, 2.29181036e-01 ]
      - [ -1.35170579e-01, 3.44039410e-01, 2.09504795e+00,
          1.55735373e+00, 6.33731902e-01, 1.36731654e-01,
          -1.63737166e+00, -5.08438163e-02, -7.40048707e-01,
          -1.60659730e+00, -2.44822845e-01, 2.38844007e-01,
          -5.27944088e-01, 4.25902545e-01, -4.88852113e-01 ]
      - [ -9.05478835e-01, 9.77916494e-02, 1.77906370e+00,
          1.18765211e+00, 4.58044350e-01, 1.96396455e-01,
          -1.83306122e+00, -5.16910493e-01, 1.07722378e+00,
          1.18822587e+00, -7.89103925e-01, -4.66625690e-01,
          -7.39775419e-01, 1.28415480e-01, -8.61857772e-01 ]
      - [ 5.11403233e-02, -3.83343458e-01, 1.26200545e+00,
          -8.06156620e-02, -8.08516979e-01, -1.26466942e+00,
          -2.19771409e+00, -1.14237142e+00, 1.92221984e-01,
          4.62820500e-01, 6.90263093e-01, 7.74018943e-01, 1.32088149e+00,
          8.44982684e-01, 2.78896689e-01 ]
      - [ 3.53465766e-01, -3.89895320e-01, 2.18391299e+00,
          1.32619572e+00, 4.23784047e-01, 1.21032856e-01,
          -1.60612333e+00, -1.61042070e+00, -3.20284106e-02,
          -9.20146585e-01, -4.12286729e-01, -2.17776090e-01,
          2.21188113e-01, 8.07337940e-01, -2.48240188e-01 ]
      - [ 1.03704250e+00, -5.50514221e-01, 2.46884394e+00,
          1.17430973e+00, 2.01970309e-01, -2.11111858e-01,
          -1.65397418e+00, -8.25448811e-01, -2.77780592e-01,
          -8.88467968e-01, 1.58983767e-01, 2.15960339e-01,
          -2.31267754e-02, -8.40095103e-01, 1.34089831e-02 ]
      - [ 7.97043800e-01, -3.47933888e-01, 2.17361927e+00,
          1.67628419e+00, 3.04618657e-01, 1.70428734e-02,
          -1.13869870e+00, -9.70800936e-01, -7.64462888e-01,
          -1.00473070e+00, -1.25779581e+00, 3.17101270e-01,
          2.65968591e-01, -1.50782287e-01, 8.35266188e-02 ]
      - [ 1.42473054e+00, -4.77643132e-01, 1.81906617e+00,
          5.30257165e-01, -6.50970638e-01, -1.25668681e+00,
          -7.90088177e-01, -8.03619683e-01, -1.08818123e-02,
          -1.06794691e+00, -5.78544974e-01, 1.57671869e+00,
          8.64590466e-01, -2.55979300e-01, -3.23001504e-01 ]
      - [ 5.84759489e-02, -4.24476117e-01, 1.48332798e+00,
          4.84793156e-01, -5.61869323e-01, -1.51403642e+00,
          -1.25786257e+00, -1.63545513e+00, -4.00737673e-01,
          1.70617253e-01, -1.46832108e-01, 5.20720422e-01,
          1.62287784e+00, 1.04446757e+00, 5.55989146e-01 ]
      - [ 1.13553452e+00, 9.95175779e-01, 1.87237167e+00, 1.25081468e+00,
          7.41378143e-02, -7.46865034e-01, -1.49987102e+00,
          -1.31819928e+00, -2.56183863e-01, -7.60961056e-01,
          -1.10629690e+00, 3.46843630e-01, 1.04046270e-01,
          -2.63787836e-01, 1.73240587e-01 ]
      - [ 6.68092132e-01, 1.12692058e+00, 2.16230273e+00, 1.63506496e+00,
          -2.08058525e-02, -6.70495749e-01, -1.30119109e+00,
          -7.24123120e-01, -5.24889231e-01, -1.12056613e+00,
          -7.43223250e-01, -2.30168328e-01, 1.40351698e-01,
          -7.19125420e-02, -3.25356901e-01 ]
      - [ 6.84705153e-02, 1.70423195e-01, 7.77983427e-01, 2.32908130e-01,
          -1.03649032e+00, -1.19595444e+00, -1.60048449e+00,
          -1.51626635e+00, -1.70149282e-01, 3.65729593e-02,
          1.11071312e+00, 1.43624222e+00, 1.36593294e+00, 7.50710785e-01,
          -4.30612326e-01 ]
      - [ -2.97023743e-01, -2.47507781e-01, 1.05088329e+00,
          1.71063751e-01, -8.87188256e-01, -1.10494435e+00,
          -1.41168582e+00, -1.50115108e+00, -4.19568479e-01,
          -7.88607001e-02, 1.38486707e+00, 1.54315782e+00,
          1.16705632e+00, 7.73759127e-01, -1.42857298e-01 ]
      - [ -1.06214762e+00, -6.60606802e-01, 9.99228537e-01,
          -1.06568737e-02, -3.24468985e-02, -1.35072362e+00,
          -1.25701225e+00, -7.42401659e-01, -3.89059961e-01,
          5.01096606e-01, -1.08700640e-01, -1.18866481e-01,
          5.92285633e-01, 2.01502681e+00, 1.62498534e+00 ]
      - [ -9.77263808e-01, -4.87152129e-01, 7.56091475e-01,
          3.02538842e-01, -6.54007733e-01, -1.39126468e+00,
          -8.28047812e-01, -1.34127712e+00, -1.22376077e-01,
          1.74407646e-01, 7.06242919e-01, 3.35171163e-01, 2.11939955e+00,
          1.46451032e+00, -5.69724776e-02 ]
      - [ -5.82581699e-01, -7.11877719e-02, 1.69045019e+00,
          -3.51253688e-01, -7.24421859e-01, -1.11455262e+00,
          -1.43200648e+00, -1.36955142e+00, -6.37981594e-01,
          9.72324610e-02, 9.27579582e-01, 6.91281497e-01, 1.31182659e+00,
          1.15721023e+00, 4.07956481e-01 ]
      - [ 1.66442156e+00, 6.62392676e-01, -3.26691978e-02,
          -8.28702033e-01, -1.20902240e+00, -6.44851565e-01,
          -9.18491542e-01, -1.22189939e+00, -5.28947413e-01,
          -5.87363124e-01, -3.12307566e-01, 4.10622746e-01,
          6.02986932e-01, 1.08377874e+00, 1.86005151e+00 ]
      - [ 6.64758563e-01, 6.04367137e-01, 1.27190220e+00, 1.68499577e+00,
          -2.38461405e-01, 3.77128601e-01, -6.22895181e-01,
          -1.28501117e+00, -1.77686822e+00, -1.10076797e+00,
          -8.25231194e-01, -5.56531787e-01, 4.41600889e-01,
          7.71811485e-01, 5.89202225e-01 ]
      - [ 2.09811401e+00, 9.22132611e-01, -2.27951899e-01,
          -4.81978863e-01, -8.12214494e-01, -5.73108077e-01,
          -1.40917754e+00, -1.14963436e+00, -7.17361152e-01,
          -6.34408236e-01, -2.82389820e-01, 2.41348639e-01,
          8.54436278e-01, 9.77950633e-01, 1.19424224e+00 ]
      - [ 1.87209833e+00, 2.56713003e-01, -3.80488157e-01,
          -6.24867141e-01, -1.10293555e+00, -1.32522726e+00,
          -1.54751909e+00, -6.90014780e-01, -4.22715515e-01,
          -9.28639695e-02, 2.13866219e-01, 6.92320406e-01,
          1.05229354e+00, 1.16627204e+00, 9.33067977e-01 ]
      - [ -1.39697701e-01, -4.57379445e-02, 7.26835728e-01,
          -2.54722178e-01, -5.50485663e-02, -1.33987570e+00,
          -1.16533136e+00, -1.56513917e+00, -9.81872022e-01,
          -3.08668107e-01, 9.07207355e-02, 7.49209285e-01,
          1.42867148e+00, 1.52411711e+00, 1.33653843e+00 ]
      - [ -7.20204413e-01, -5.08068681e-01, 6.50859892e-01,
          -4.90071177e-02, -3.19408357e-01, -4.24885482e-01,
          -9.54344034e-01, -1.59611583e+00, -1.12482429e+00,
          -2.18808845e-01, 1.91495001e-01, 2.95580417e-01,
          1.61765552e+00, 1.64803898e+00, 1.51203740e+00 ]
      - [ -6.57463610e-01, -3.84233087e-01, 4.01090950e-01,
          6.89252317e-02, -4.01642859e-01, -6.78447604e-01,
          -1.12133527e+00, -1.73030102e+00, -9.14334476e-01,
          3.69829610e-02, 2.45869786e-01, 5.15938103e-01, 1.34917319e+00,
          1.79540193e+00, 1.47437572e+00 ]
      - [ -6.87945604e-01, -4.76841033e-02, 9.78919685e-01,
          -1.29187375e-01, -1.08816040e+00, -1.03140509e+00,
          -1.72951674e+00, -1.05890501e+00, -6.45751417e-01,
          3.03669810e-01, 7.23863602e-01, 9.37049925e-01, 1.42538333e+00,
          1.29459894e+00, 7.55070448e-01 ]
      - [ -8.85302782e-01, -1.11234212e+00, 2.03649938e-01,
          1.68191516e+00, 8.93630087e-01, -9.01483536e-01,
          3.71611387e-01, -7.62691395e-03, -6.00194871e-01,
          -4.57668900e-01, -1.11413091e-01, -4.97042626e-01,
          -2.60783076e-01, -7.46826351e-01, 2.42987776e+00 ]
      - [ -1.14945507e+00, -9.43587959e-01, 8.84475529e-01,
          3.60896319e-01, -9.41995323e-01, -5.61711848e-01,
          -8.30820203e-01, -5.99679172e-01, -4.33208257e-01,
          -1.02686656e+00, 3.16198230e-01, 6.26203120e-01,
          9.14449930e-01, 1.29056275e+00, 2.09453869e+00 ]
      - [ -7.03424931e-01, -9.16139185e-01, 5.94051600e-01,
          2.98635691e-01, -8.99954855e-01, -2.86702394e-01,
          -5.52620292e-01, -8.46008539e-01, -1.08966124e+00,
          -4.49576735e-01, -1.05462655e-01, -1.65500119e-01,
          1.43098307e+00, 1.94988775e+00, 1.74149275e+00 ]
      - [ -5.11297762e-01, -5.39960921e-01, 7.36440063e-01,
          4.31025654e-01, -7.91003942e-01, -2.82331228e-01,
          -3.82346123e-01, -1.04083717e+00, -9.06294942e-01,
          -4.32768822e-01, -8.30370426e-01, -5.45995533e-01,
          1.46971536e+00, 1.97669101e+00, 1.64933467e+00 ]
      - [ -5.93023479e-01, -7.54106104e-01, 4.24128681e-01,
          5.84530234e-01, 1.57767341e-01, -6.16940737e-01,
          -2.69667387e-01, -6.15300536e-01, -5.04832506e-01,
          -3.67699564e-01, -5.74309409e-01, -1.01182854e+00,
          -3.00059795e-01, 2.26957345e+00, 2.17176843e+00 ]
      - [ -5.60584068e-01, -4.34068531e-01, 7.87499666e-01,
          5.84457099e-01, -4.09859806e-01, -2.06791341e-01,
          -3.63426238e-01, -8.37620795e-01, -7.70090520e-01,
          -4.88593280e-01, -8.48486841e-01, -9.93272364e-01,
          3.36124241e-01, 2.10877919e+00, 2.09593344e+00 ]
      - [ -4.03764576e-01, -8.80928516e-01, -3.38083714e-01,
          2.39900327e+00, 1.97606146e+00, -1.09975338e-01,
          1.45287603e-01, 6.98106170e-01, -1.15763843e+00,
          -7.18848646e-01, -2.44560227e-01, 1.55790165e-01,
          -4.61546749e-01, -6.89818084e-01, -3.69084388e-01 ]
      - [ -1.78107262e-01, -4.80974853e-01, 5.72338939e-01,
          2.56003594e+00, 1.90409923e+00, 2.15210795e-01,
          -8.30140650e-01, 1.84248209e-01, -8.57478082e-01,
          -5.21369278e-01, -7.87936866e-01, -5.39634168e-01,
          -4.90273982e-01, -4.74553168e-01, -2.75464952e-01 ]
      - [ -1.05731750e+00, -2.01862186e-01, 1.15410507e+00,
          9.88887608e-01, 1.19508013e-01, -6.41104639e-01,
          1.13963649e-01, -7.50906408e-01, -7.48818994e-01,
          -1.22054648e+00, -5.54479659e-01, -7.21081972e-01,
          5.82627237e-01, 4.68777567e-01, 2.46824861e+00 ]
      - [ -1.69023320e-01, 1.12291396e-01, 7.17014790e-01,
          2.79979296e-02, -5.67902207e-01, -8.42875123e-01,
          -1.06742668e+00, -1.53495204e+00, -1.38412952e+00,
          -8.11021924e-01, 8.78049970e-01, 1.35410142e+00,
          8.83837759e-01, 1.38436127e+00, 1.01967633e+00 ]
      - [ 1.49853360e-02, 2.29141951e-01, 7.68630087e-01,
          -1.91244841e-01, -6.38601303e-01, -9.04184818e-01,
          -1.13269603e+00, -1.56289315e+00, -1.32099569e+00,
          -7.33166814e-01, 1.15512764e+00, 1.22540772e+00,
          1.08558571e+00, 1.17863655e+00, 8.26267719e-01 ]
      - [ 1.82397082e-01, 2.81823635e-01, 8.44481766e-01,
          -2.66755074e-01, -4.75517392e-01, -7.21139193e-01,
          -9.44919825e-01, -1.14224339e+00, -1.74749827e+00,
          -1.25785935e+00, 9.93292153e-01, 1.10198092e+00,
          1.05257666e+00, 1.12276208e+00, 9.76618052e-01 ]
      - [ 4.42356914e-01, 4.44328338e-01, 1.37614763e+00, 9.09549534e-01,
          -9.71015822e-03, -2.51887411e-01, -7.91645885e-01,
          -3.19833040e-01, -1.08482814e+00, -1.43823349e+00,
          -1.27939570e+00, -1.04988301e+00, 2.05702811e-01,
          1.34349585e+00, 1.50383568e+00 ]
      - [ 3.51090968e-01, 3.84573966e-01, 1.12046146e+00, 8.48328054e-01,
          -3.78813624e-04, -1.88576967e-01, -1.03293264e+00,
          -3.06899458e-01, -1.15710986e+00, -1.12443161e+00,
          -1.31541336e+00, -1.09466529e+00, 4.92575645e-01,
          1.18599474e+00, 1.83738315e+00 ]
      - [ 5.86380474e-02, 2.42050439e-01, 1.50397348e+00, 1.72076988e+00,
          2.72698730e-01, 4.65014987e-02, -2.83367962e-01,
          -6.19444549e-01, -7.48727262e-01, -1.17921162e+00,
          -1.03306639e+00, -1.18346500e+00, -1.02215767e+00,
          7.69030333e-01, 1.45577812e+00 ]
      - [ 8.13419878e-01, 5.18560112e-01, 7.30673552e-01, 1.93550301e+00,
          1.58516777e+00, -4.29737240e-01, -3.39430928e-01,
          -5.76988041e-01, -9.27076519e-01, -1.10487962e+00,
          -8.00765812e-01, -6.45480692e-01, -9.98736918e-01,
          -7.40203440e-01, 9.79974866e-01 ]
      - [ 7.52987802e-01, 5.30286491e-01, 6.58439040e-01, 1.84827590e+00,
          1.15762043e+00, -3.18563849e-01, -1.07575327e-01,
          -4.58835483e-01, -1.10879815e+00, -8.71047378e-01,
          -6.37543559e-01, -4.50296074e-01, -1.28107786e+00,
          -1.15288901e+00, 1.43901718e+00 ]
      - [ -2.58231554e-02, -2.09452733e-02, 7.81444013e-01,
          -6.45141602e-01, -1.14224446e+00, -1.08015537e+00,
          -1.07199144e+00, -1.51098180e+00, -1.02050197e+00,
          9.51760769e-01, 6.44172847e-01, 7.35836148e-01, 1.15211189e+00,
          7.38604307e-01, 1.51385522e+00 ]
      - [ -1.16019778e-01, 3.51957232e-02, 9.17096972e-01,
          -8.13214719e-01, -1.17768705e+00, -1.16078842e+00,
          -1.39147604e+00, -9.11622822e-01, -7.93968856e-01,
          7.26770163e-01, 4.56287593e-01, 7.09706485e-01, 1.24538445e+00,
          4.39483255e-01, 1.83485317e+00 ]
      - [ 4.63433117e-02, 2.18512520e-01, 8.01462173e-01,
          -8.18342447e-01, -1.25489247e+00, -1.11246610e+00,
          -1.65348971e+00, -9.17007267e-01, -6.49124742e-01,
          7.38313556e-01, 4.77733135e-01, 8.79745603e-01, 1.08635807e+00,
          4.55539942e-01, 1.70131433e+00 ]
      - [ -3.14763963e-01, 2.32057348e-02, 7.47002840e-01,
          -3.03464266e-03, -1.47118676e+00, -1.08330131e+00,
          -1.50973022e+00, -1.26012886e+00, -4.98317987e-01,
          4.95521188e-01, 3.13438833e-01, 8.09929013e-01, 1.61149013e+00,
          1.10664272e+00, 1.03323328e+00 ]
      - [ -1.80282354e-01, 7.68229961e-02, -3.26504037e-02,
          -1.93109795e-01, -1.43307924e+00, -1.04957485e+00,
          -1.35453534e+00, -1.28493798e+00, -4.24027294e-01,
          4.72953409e-01, 3.47900748e-01, 8.78231585e-01, 1.49820054e+00,
          1.06012535e+00, 1.61796272e+00 ]
      - [ 2.47070566e-01, 7.64056921e-01, 3.90656322e-01,
          -2.46679351e-01, -1.26958430e+00, -1.36202574e+00,
          -1.49778605e+00, -9.41727936e-01, -1.12279224e+00,
          7.01460600e-01, 6.20315075e-01, 8.00810993e-01, 1.13796997e+00,
          2.22168908e-01, 1.55608618e+00 ]
      - [ -2.27660388e-01, 3.82113487e-01, -5.75942248e-02,
          -2.50094801e-01, -1.40431094e+00, -8.77711713e-01,
          -1.60685480e+00, -1.15295494e+00, -5.31953335e-01,
          3.70196074e-01, 3.24316978e-01, 1.19199264e+00, 1.48299217e+00,
          8.97453785e-01, 1.46007001e+00 ]
      - [ -1.98856294e-01, 1.74376681e-01, -1.26772458e-02,
          -1.72574282e-01, -1.03202081e+00, -1.17681730e+00,
          -1.61371744e+00, -1.24475217e+00, 7.08205849e-02,
          6.77869543e-02, 1.76484212e-02, 7.25086093e-01, 1.91206908e+00,
          1.34370911e+00, 1.13991857e+00 ]
      - [ -4.08177167e-01, 1.52548313e-01, 1.02047360e+00,
          -3.82268876e-01, -1.07826984e+00, -1.04126978e+00,
          -1.52059960e+00, -1.44173241e+00, 2.09383830e-01,
          9.50545669e-02, 1.93709135e-02, 3.07162464e-01, 1.80902529e+00,
          1.20874286e+00, 1.05055594e+00 ]
      - [ -8.67033899e-02, 6.36678338e-02, -1.91119742e-02,
          -5.23477733e-01, -1.19047213e+00, -1.12793589e+00,
          -1.49243116e+00, -1.08721447e+00, 3.61612678e-01,
          8.36414248e-02, 3.09586357e-02, 3.50861430e-01, 1.83924222e+00,
          1.56887650e+00, 1.22848618e+00 ]
      - [ -1.31590867e+00, -1.47168827e+00, 1.73654258e+00,
          -5.02053984e-02, -6.15139306e-01, -5.83533168e-01,
          -1.21852851e+00, -5.19293785e-01, -3.35762501e-01,
          3.31236064e-01, 1.23584509e+00, 1.35570121e+00, 9.20497119e-01,
          3.98252100e-01, 1.31985307e-01 ]
      - [ -1.42521560e+00, -1.18510640e+00, 1.76674533e+00,
          -1.79228485e-02, -5.18670261e-01, -3.41972113e-01,
          -1.33467793e+00, -9.43825722e-01, -4.64172363e-02,
          4.06292379e-01, 7.68440425e-01, 1.26690888e+00, 1.13522601e+00,
          7.92937398e-01, -3.22742134e-01 ]
      - [ -1.20700669e+00, -5.07906437e-01, 1.80727756e+00,
          -3.05854499e-01, -7.58710682e-01, -7.29577243e-01,
          -1.77420378e+00, -5.72576284e-01, -2.01129779e-01,
          2.43610993e-01, 1.46142757e+00, 1.04702353e+00, 7.36221790e-01,
          6.79098308e-01, 8.23056698e-02 ]
      - [ -1.24808943e+00, -5.10914028e-01, 1.83078039e+00,
          -3.10630828e-01, -6.54354811e-01, -1.04165542e+00,
          -1.05665350e+00, -7.03723609e-01, -4.33978319e-01,
          5.83169997e-01, 5.41636884e-01, 1.38465476e+00, 1.30988097e+00,
          8.98295164e-01, -5.88418126e-01 ]
      - [ -1.56161237e+00, -1.03587341e+00, 1.94077480e+00,
          -2.08123669e-01, -6.97335005e-01, -6.40482187e-01,
          -1.19203126e+00, -6.43310189e-01, -3.17313164e-01,
          5.77493966e-01, 5.89202166e-01, 1.21745420e+00, 8.29420626e-01,
          9.85518813e-01, 1.56216696e-01 ]
      - [ -9.79366004e-01, -1.41576254e+00, 8.55387330e-01,
          2.22347125e-01, -6.78420901e-01, -4.94787544e-01,
          -1.09276903e+00, -8.72916222e-01, -1.08305149e-01,
          5.40493548e-01, 1.81379175e+00, 1.38265860e+00, 9.70271945e-01,
          6.82707608e-01, -8.25330436e-01 ]
      - [ -7.32432008e-01, -1.07089627e+00, 1.58205175e+00,
          -4.29646403e-01, -7.40568578e-01, -8.30985904e-01,
          -1.76340318e+00, -7.89332211e-01, -9.05884355e-02,
          4.10691321e-01, 1.18876505e+00, 1.30021179e+00, 8.57393146e-01,
          6.71124756e-01, 4.37615365e-01 ]
      - [ -4.35539693e-01, -6.73165798e-01, 3.43238801e-01,
          -8.84371519e-01, -8.37312222e-01, -1.48325765e+00,
          -1.25932908e+00, -1.11356366e+00, 1.11109503e-01,
          1.09480083e+00, 1.28207028e+00, 1.21502411e+00, 6.56372488e-01,
          1.00653601e+00, 9.77387726e-01 ]
      - [ -1.30069450e-01, -9.74197328e-01, 8.67818594e-01,
          -2.77669251e-01, -9.30684745e-01, -1.45073080e+00,
          -1.52164364e+00, -4.88094240e-01, 9.89666358e-02,
          1.16600260e-01, 2.94726640e-02, 1.47671854e+00, 1.57933557e+00,
          1.39091516e+00, 2.13261992e-01 ]
      - [ -1.71521038e-01, -9.47642446e-01, 3.25896323e-01,
          -4.51091200e-01, -8.69470239e-01, -1.52691674e+00,
          -1.50057304e+00, -7.10578859e-01, -1.39907181e-01,
          5.29855967e-01, 1.49015176e+00, 1.41548455e+00, 1.15769982e+00,
          8.94204438e-01, 5.04407823e-01 ]
      - [ -3.09116751e-01, -8.30232918e-01, 5.43876052e-01,
          -8.46576333e-01, -8.65144968e-01, -1.43588853e+00,
          -1.49012291e+00, -6.49440706e-01, 4.33198303e-01,
          7.45592654e-01, 1.81864560e+00, 9.04967785e-01, 1.11890364e+00,
          7.89327323e-01, 7.20119253e-02 ]
      - [ 4.40278322e-01, -7.56033897e-01, 4.99980807e-01,
          -6.92589402e-01, -9.47010934e-01, -1.30429590e+00,
          -1.76876199e+00, -5.46151936e-01, 2.13510349e-01,
          5.19864261e-01, 1.86394370e+00, 9.03762519e-01, 1.13594997e+00,
          7.12265253e-01, -2.74711132e-01 ]
      - [ -1.00445139e+00, -2.10674375e-01, -6.39575183e-01,
          9.21882212e-01, 2.46856138e-01, -5.26953578e-01,
          -1.21844447e+00, -1.58065474e+00, -1.62721068e-01,
          1.12096937e-02, -6.07536852e-01, 3.00962269e-01,
          1.46276093e+00, 1.83387864e+00, 1.17346179e+00 ]
      - [ -1.13034701e+00, -7.17510283e-02, -8.28340054e-01,
          1.35074866e+00, 3.75339448e-01, -3.13187659e-01,
          -1.11646509e+00, -1.41825938e+00, 1.42294899e-01,
          -6.10028684e-01, -4.21461254e-01, 1.96403936e-01,
          1.88994229e+00, 1.53337908e+00, 4.21731830e-01 ]
      - [ -1.31505013e+00, -9.17934924e-02, -9.65093136e-01,
          1.43349290e+00, 9.47553992e-01, -2.18707919e-01,
          -1.03509188e+00, -1.46271980e+00, -1.05210818e-01,
          -2.66176194e-01, -4.38546628e-01, 2.48643085e-01,
          1.67222035e+00, 1.39510429e+00, 2.01375425e-01 ]
      - [ -1.12657356e+00, -3.29375118e-01, 1.26424909e+00,
          1.21767604e+00, 1.57659149e+00, 9.86854792e-01,
          -2.90853202e-01, -6.11416996e-01, -9.15522695e-01,
          -1.33404744e+00, -1.19830668e+00, -3.29089224e-01,
          -2.34775156e-01, 1.48074627e-01, 1.17651403e+00 ]
      - [ -6.38004124e-01, -3.28604966e-01, -1.28194571e+00,
          1.49813807e+00, 1.53341308e-01, -3.88314515e-01,
          -1.15410209e+00, -1.36669266e+00, 1.47718951e-01,
          -4.70982552e-01, -3.79209220e-01, 3.40721995e-01,
          1.78090811e+00, 1.47366047e+00, 6.13367021e-01 ]
      - [ -1.86735094e-01, -7.04689085e-01, 1.05034724e-01,
          6.47969544e-01, 1.70055354e+00, 1.21033561e+00, 1.31736830e-01,
          -4.28929061e-01, -9.70902264e-01, -1.51287544e+00,
          -1.81189811e+00, -3.83753106e-02, -1.15780681e-01,
          1.00712466e+00, 9.67430234e-01 ]
      - [ -1.24148560e+00, -1.06906509e+00, 2.01842159e-01,
          7.00437784e-01, 1.34025311e+00, 1.07677639e+00, 1.94208518e-01,
          -3.28250974e-01, -8.33862543e-01, -1.33946872e+00,
          -1.18462443e+00, 2.03934275e-02, 7.78075978e-02,
          5.07042229e-01, 1.87799609e+00 ]
      - [ -1.41592956e+00, 1.93383992e-02, -4.40254122e-01,
          1.22213590e+00, 3.60489637e-01, -4.26230013e-01,
          -1.21294963e+00, -1.33337879e+00, -4.99647498e-01,
          -5.92852652e-01, -2.80126575e-02, 1.46091715e-01,
          1.71174932e+00, 1.46214569e+00, 1.02730441e+00 ]
      - [ -1.06673789e+00, -9.24030781e-01, 1.08371757e-01,
          1.81933415e+00, 1.40815866e+00, 9.61225748e-01,
          -2.50254482e-01, -8.17304850e-01, -8.80133152e-01,
          -1.21980250e+00, -7.52994418e-01, -2.43070439e-01,
          -1.06649376e-01, 6.49830461e-01, 1.31405711e+00 ]
      - [ -1.39109612e+00, -7.89813876e-01, 3.31145704e-01,
          1.49387464e-01, -3.47697288e-01, -8.08231235e-01,
          -1.34185803e+00, -1.18006325e+00, -1.78554296e-01,
          2.42692679e-01, 2.58961260e-01, 5.64199090e-01, 1.79082358e+00,
          1.43164396e+00, 1.26846027e+00 ]
      - [ -1.23193967e+00, -6.48632765e-01, 2.18752205e-01,
          -2.05094293e-02, -4.86030370e-01, -1.02185798e+00,
          -1.57075441e+00, -1.07525086e+00, -5.33611737e-02,
          2.36530647e-01, 5.97367704e-01, 8.75077546e-01, 1.36733484e+00,
          1.63159454e+00, 1.18167913e+00 ]
      - [ -1.81726086e+00, -1.22908676e+00, 6.12011731e-01,
          5.46935081e-01, 3.45187597e-02, -5.51822960e-01,
          -9.26070154e-01, -1.04344773e+00, -3.28421127e-03,
          1.69070978e-02, -1.18589275e-01, 4.06183869e-01,
          1.68158031e+00, 1.63990176e+00, 7.51523376e-01 ]
      - [ -5.36559403e-01, -4.58807617e-01, 1.21533072e+00,
          9.49875787e-02, -4.64802861e-01, -1.49536014e+00,
          -1.44736385e+00, -9.04961765e-01, -4.19709265e-01,
          -2.30385792e-02, -4.73140866e-01, 1.56427264e+00,
          1.25994205e+00, 1.17155623e+00, 9.17655051e-01 ]
      - [ -2.90980041e-01, -2.16901630e-01, 1.43370259e+00,
          1.25792235e-01, -1.19510865e+00, -1.21543455e+00,
          -1.62108028e+00, -8.82323503e-01, -3.43698829e-01,
          -2.62034863e-01, -4.07132767e-02, 1.03410208e+00,
          1.28776646e+00, 1.39140356e+00, 7.95508683e-01 ]
      - [ -5.71071506e-01, -7.54976988e-01, 1.16717839e+00,
          2.95656741e-01, -1.01209331e+00, -1.52271378e+00,
          -1.51074934e+00, -6.39136791e-01, -2.29832381e-01,
          -3.12741287e-02, 1.56451672e-01, 1.02620888e+00,
          1.33191025e+00, 1.35059166e+00, 9.43850517e-01 ]
      - [ -4.53211486e-01, -5.15521824e-01, 1.50292814e+00,
          -4.92589206e-01, -1.09897578e+00, -1.24772179e+00,
          -1.35968518e+00, -7.96758890e-01, -2.10732877e-01,
          -2.41786167e-02, 7.85304233e-03, 9.78321195e-01,
          1.29177999e+00, 1.51244318e+00, 9.06050086e-01 ]
      - [ -6.19447947e-01, -5.81705928e-01, 1.16452920e+00,
          5.37777781e-01, -1.10210061e+00, -1.35284650e+00,
          -1.64784908e+00, -9.51207995e-01, -5.04150867e-01,
          5.78122735e-01, 6.49325192e-01, 1.06014538e+00, 1.27351511e+00,
          9.63506281e-01, 5.32387137e-01 ]
      - [ -5.95717371e-01, -6.45553648e-01, 3.09314758e-01,
          -7.45146796e-02, -7.27486849e-01, -1.00942445e+00,
          -1.34207463e+00, -1.17558408e+00, -8.47750187e-01,
          3.84903610e-01, 2.62751818e-01, 1.36189079e+00, 1.32449877e+00,
          1.36192536e+00, 1.41282070e+00 ]
      - [ -6.93956792e-01, -4.58170563e-01, 1.46726757e-01,
          -2.12695673e-01, -6.76473320e-01, -1.04749298e+00,
          -1.42424333e+00, -9.26459193e-01, -1.08275127e+00,
          5.15709400e-01, 9.10422266e-01, 8.79998386e-01, 1.25116611e+00,
          1.07601035e+00, 1.74220979e+00 ]
      - [ -6.14624500e-01, -1.04824461e-01, 1.65626317e-01,
          -2.68835515e-01, -7.59640872e-01, -1.06683552e+00,
          -1.34311926e+00, -9.84086454e-01, -1.05808616e+00,
          -1.20973587e-01, 9.54050303e-01, 1.18028212e+00,
          1.01884627e+00, 1.64565051e+00, 1.35657072e+00 ]
      - [ -6.34768844e-01, -3.76123071e-01, 2.21921921e-01,
          -2.18737230e-01, -8.06696892e-01, -1.13169026e+00,
          -1.50730228e+00, -6.32443249e-01, -7.63906181e-01,
          6.14554249e-02, 4.33562547e-01, 6.48728251e-01, 1.22853422e+00,
          1.77900338e+00, 1.69846213e+00 ]
      - [ -5.96332252e-01, -1.35483623e-01, 2.30327696e-01,
          -2.14738652e-01, -6.48388624e-01, -1.03567183e+00,
          -1.37730813e+00, -1.12001026e+00, -1.05231798e+00,
          5.62258251e-02, 3.90742004e-01, 1.26163459e+00, 1.31047690e+00,
          1.37814605e+00, 1.55269837e+00 ]
      - [ -2.92109460e-01, -4.22129184e-01, 8.63950253e-02,
          -3.30292881e-01, -7.97486365e-01, -1.30466282e+00,
          -9.85936403e-01, -6.90283239e-01, -1.33310914e+00,
          2.55812377e-01, 1.92147702e-01, 1.28941357e+00, 1.56157756e+00,
          1.30080140e+00, 1.46986187e+00 ]
      - [ -6.43315375e-01, -2.26907358e-01, 2.80245781e-01,
          -1.21616222e-01, -6.68576360e-01, -1.04702568e+00,
          -1.41715908e+00, -1.00184035e+00, -1.08176768e+00,
          4.39441979e-01, 7.69071653e-02, 1.24744999e+00, 1.43229878e+00,
          1.66396821e+00, 1.06789625e+00 ]
      - [ -2.77611941e-01, 1.98350221e-01, 5.21972179e-01,
          9.44842458e-01, 1.21380055e+00, -2.02942595e-01,
          -6.40824258e-01, -1.18321526e+00, -1.63934386e+00,
          -5.58254421e-01, -1.04087770e+00, -6.41698062e-01,
          4.42242980e-01, 8.82512033e-01, 1.98104763e+00 ]
      - [ -7.67146826e-01, -3.16320509e-01, 2.18345344e-01,
          -3.28229755e-01, -7.96723425e-01, -1.28584135e+00,
          -9.10247743e-01, -6.98455691e-01, -1.33994603e+00,
          2.42377490e-01, 5.96363068e-01, 1.34384179e+00, 1.56834221e+00,
          1.32781506e+00, 1.14582646e+00 ]
      - [ -7.99913168e-01, -1.08648121e-01, 5.54946303e-01,
          -2.61166096e-01, -7.28983283e-01, -1.24596369e+00,
          -1.39691448e+00, -9.50406134e-01, -8.97409379e-01,
          -2.42049210e-02, 1.15233493e+00, 1.37651730e+00,
          1.48591948e+00, 1.14234090e+00, 7.01550305e-01 ]
      - [ -6.63886309e-01, -1.41362369e-01, 1.46091476e-01,
          -3.10411066e-01, -8.05314839e-01, -1.35092533e+00,
          -1.35079634e+00, -3.98081541e-01, -7.96100199e-01,
          -5.45815468e-01, 1.04791260e+00, 1.39321852e+00,
          1.42995059e+00, 1.48784995e+00, 8.57670367e-01 ]
      - [ -6.89896226e-01, -3.55690897e-01, -2.08863884e-01,
          -2.89241403e-01, -8.37910295e-01, -1.23668516e+00,
          -7.41324604e-01, -8.10473204e-01, -1.36527085e+00,
          3.51340055e-01, 1.10679948e+00, 1.24879754e+00, 1.22313309e+00,
          1.59471524e+00, 1.01057100e+00 ]
      - [ -5.44487908e-02, -3.27800453e-01, 1.19499005e-01,
          -4.02952701e-01, -1.01541138e+00, -1.11403131e+00,
          -1.33751190e+00, -8.47495794e-01, -6.62416875e-01,
          -1.62395611e-01, 8.18945765e-01, 1.24994338e+00,
          2.04979515e+00, 1.39630699e+00, 2.89974451e-01 ]
      - [ -4.98585850e-01, -8.04199725e-02, -6.96886107e-02,
          -3.19838226e-01, -1.11748862e+00, -1.23201537e+00,
          -1.45214844e+00, -6.85492456e-01, -7.61074603e-01,
          4.32548970e-02, 1.08011103e+00, 1.14843297e+00, 1.46834302e+00,
          1.27729583e+00, 1.19931436e+00 ]
      - [ -3.73403519e-01, -2.97499388e-01, 1.55264422e-01,
          -1.59381375e-01, -9.28224146e-01, -1.31833816e+00,
          -1.63293672e+00, -5.33623576e-01, -6.55762613e-01,
          1.02876620e-02, 1.26527989e+00, 1.52388215e+00, 1.66002572e+00,
          9.87074852e-01, 2.97354907e-01 ]
      - [ -3.33026856e-01, -3.16157699e-01, 1.11261964e-01,
          -1.84669018e-01, -9.79723573e-01, -1.33605468e+00,
          -1.64684498e+00, -5.40565014e-01, -6.30314112e-01,
          8.76240432e-02, 5.68148911e-01, 1.58000827e+00, 1.58061445e+00,
          1.32865870e+00, 7.11039662e-01 ]
      - [ -1.87900409e-01, 1.71949312e-01, 1.86741519e+00,
          1.45896006e+00, -1.39534488e-01, -7.90306330e-01,
          -1.32657146e+00, 3.14156443e-01, 1.83360055e-01,
          -8.02323937e-01, -1.56465995e+00, -1.05554831e+00,
          1.67313948e-01, 1.07300293e+00, 6.30686820e-01 ]
      - [ 1.44673467e-01, 6.00100815e-01, 1.45582628e+00, 1.15375662e+00,
          6.49065137e-01, -3.98819983e-01, -4.85554785e-01,
          1.12508190e+00, 1.07745588e+00, -3.41174513e-01,
          -9.06003177e-01, -1.18905175e+00, -1.96616530e-01,
          -6.65719092e-01, -2.02302027e+00 ]
      - [ 2.00198311e-02, 2.57213652e-01, 1.53149402e+00, 1.35213614e+00,
          4.94281828e-01, -3.96212906e-01, -1.78296939e-01,
          1.89927265e-01, 4.76422399e-01, 7.66575933e-01, 1.62356421e-01,
          -5.75130999e-01, -3.55429322e-01, -1.17317915e+00,
          -2.57217836e+00 ]
      - [ 4.35714573e-01, 6.69511437e-01, 1.64213908e+00, 1.35010874e+00,
          3.60561818e-01, -5.79465866e-01, -4.49109554e-01,
          9.73447040e-02, 3.85318726e-01, 4.62469697e-01, 4.50105406e-02,
          -3.27110857e-01, -6.08469605e-01, -9.49953854e-01,
          -2.53406954e+00 ]
      - [ 5.02252698e-01, 2.83523858e-01, 1.01588130e+00, 7.50658453e-01,
          3.47370982e-01, -9.35511570e-03, -4.15199369e-01,
          -5.62545359e-01, 1.19745255e-01, 9.55247700e-01,
          8.43211412e-01, 4.49202538e-01, -1.81786448e-01,
          -1.27711749e+00, -2.82109046e+00 ]
      - [ 8.70654345e-01, 4.19031173e-01, 1.27780843e+00, 4.35234159e-01,
          2.45577674e-02, -9.06302333e-01, -8.05532813e-01,
          -4.57650334e-01, -1.90623090e-01, 1.14490187e+00,
          1.55231416e+00, 4.16781485e-01, -7.09731221e-01,
          -1.08145761e+00, -1.98998594e+00 ]
      - [ 1.24654281e+00, 6.88606501e-01, 2.24149275e+00, 5.83381236e-01,
          -1.43301517e-01, -6.59695148e-01, -1.24112833e+00,
          -4.56365466e-01, 8.20154548e-01, 7.23631084e-01,
          -4.42252219e-01, -5.68905890e-01, -8.88267279e-01,
          -7.44621694e-01, -1.15927148e+00 ]
      - [ 1.49520802e+00, 8.89658093e-01, 2.01488185e+00, 6.23591781e-01,
          -3.85881543e-01, -1.10307395e+00, -1.84850121e+00,
          -4.79240775e-01, 8.52876604e-02, -1.09870565e+00,
          1.39843225e-01, -3.61735344e-01, -1.64983317e-01,
          3.21696728e-01, -1.28045604e-01 ]
      - [ 7.15379238e-01, 9.52389896e-01, 2.42327452e+00, 1.00945413e+00,
          1.28231689e-01, -1.27027977e+00, -1.55824649e+00,
          -8.35390806e-01, -1.65111855e-01, -4.61182177e-01,
          -3.33532572e-01, -5.81400812e-01, -4.00248975e-01,
          1.06155410e-01, 2.70508528e-01 ]
      - [ -6.99436247e-01, -6.61140561e-01, 4.23820823e-01,
          3.95338126e-02, -7.50434458e-01, -1.10625422e+00,
          -1.51900840e+00, -6.55523896e-01, -2.96376437e-01,
          -5.79966128e-01, 4.22898024e-01, 1.21006441e+00,
          1.49959040e+00, 1.82701504e+00, 8.45217824e-01 ]
      - [ -9.87740576e-01, -9.13057983e-01, 5.73323071e-01,
          1.98684946e-01, -5.18235207e-01, -1.08694565e+00,
          -1.18533301e+00, -7.47296274e-01, -2.73630083e-01,
          -5.99443138e-01, 4.75823104e-01, 5.54095447e-01,
          1.76370561e+00, 1.90233910e+00, 8.43710661e-01 ]
      - [ -9.75408852e-01, -4.74492580e-01, 9.29404199e-01,
          4.53066081e-01, -4.84795451e-01, -1.04979455e+00,
          -1.18376112e+00, -7.54547179e-01, -5.71325541e-01,
          -5.97304642e-01, -3.11817467e-01, 1.24916399e+00,
          1.94674528e+00, 1.48292983e+00, 3.41938078e-01 ]
      - [ -8.80546749e-01, -7.77211666e-01, 7.47428894e-01,
          3.22338521e-01, -4.62842673e-01, -8.73275638e-01,
          -1.22507393e+00, -1.16163802e+00, -5.76924562e-01,
          -4.82125670e-01, 4.98643607e-01, 4.58058149e-01,
          1.66271663e+00, 1.90442991e+00, 8.46023142e-01 ]
      - [ -7.61009514e-01, -3.81245345e-01, 1.22548747e+00,
          6.57344043e-01, -6.63822889e-01, -1.11016762e+00,
          -1.46076441e+00, -7.99458146e-01, -6.21527672e-01,
          -5.40759444e-01, 2.44447649e-01, 1.46836543e+00,
          1.61536670e+00, 1.17853248e+00, -5.07885776e-02 ]
      - [ -3.32000285e-01, -2.34990522e-01, 6.43790007e-01,
          6.55195653e-01, 7.22247139e-02, -1.11521149e+00,
          -1.01839113e+00, -1.56370187e+00, -9.73755538e-01,
          -1.64126262e-01, -4.73074585e-01, 6.88330889e-01,
          4.95198011e-01, 1.01653540e+00, 2.30397701e+00 ]
      - [ 7.82894433e-01, -3.33317697e-01, -3.27989087e-02,
          1.19856155e+00, 2.14305806e+00, 9.92070138e-01, 5.05353689e-01,
          -5.96550882e-01, -4.87549275e-01, -8.18519235e-01,
          -1.26629555e+00, -1.65566874e+00, -5.60877860e-01,
          -1.28550529e-01, 2.58190781e-01 ]
      - [ -5.44515662e-02, -6.28743321e-02, -1.38675824e-01,
          1.52238894e+00, 1.84681690e+00, 6.08527362e-01, 1.41875461e-01,
          -3.44218552e-01, -8.88645768e-01, -1.27752233e+00,
          -1.66639543e+00, -8.81111205e-01, -4.96879905e-01,
          6.39873624e-01, 1.05129254e+00 ]
      - [ 1.76024169e-01, -2.64649186e-02, 2.21813768e-01,
          1.16449296e+00, 2.26134276e+00, 1.12379396e+00, 6.85504019e-01,
          2.28158876e-01, -8.19400311e-01, -6.48427665e-01,
          -1.08671761e+00, -1.48689711e+00, -5.28461397e-01,
          -8.57922256e-01, -4.06839222e-01 ]
      - [ 3.13173503e-01, -1.21358141e-01, 1.33768857e-01,
          1.90148616e+00, 1.66681600e+00, 1.21703160e+00, 7.67247260e-01,
          -3.13531637e-01, -8.95232260e-01, -7.38545716e-01,
          -1.01232755e+00, -1.46211183e+00, -4.94776040e-01,
          -6.93647444e-01, -2.67992705e-01 ]
      - [ 2.71685064e-01, 1.74719710e-02, 1.78587481e-01, 1.76433873e+00,
          1.80612695e+00, 1.04504132e+00, 6.41533852e-01, 2.38026321e-01,
          -8.31530154e-01, -5.68988740e-01, -9.72502351e-01,
          -1.34092283e+00, -1.03872192e+00, -1.64349571e-01,
          -1.04579616e+00 ]
      - [ 3.08189273e-01, -1.13605499e-01, 2.94014245e-01,
          1.41791129e+00, 1.72398114e+00, 1.24575293e+00, 7.67524660e-01,
          2.68504232e-01, -1.03537583e+00, -7.91920543e-01,
          -1.14539540e+00, -1.60283148e+00, -5.65181196e-01,
          -8.40078890e-01, 6.85111210e-02 ]
      - [ 8.02086517e-02, -1.46198705e-01, 1.10122025e-01,
          1.65871334e+00, 2.12531042e+00, 9.73544061e-01, 5.40806949e-01,
          -4.74756122e-01, -4.14826274e-01, -7.03318775e-01,
          -1.11802733e+00, -1.56879628e+00, -4.74872082e-01,
          -7.68280864e-01, 1.80370927e-01 ]
      - [ 5.02636611e-01, -1.09368652e-01, 1.75345555e-01,
          1.21957469e+00, 2.01715136e+00, 9.50040221e-01, 5.20722210e-01,
          -4.29954141e-01, -2.84259886e-01, -7.13584125e-01,
          -1.12501955e+00, -1.46489990e+00, -1.19398427e+00,
          -8.56978595e-01, 7.92578399e-01 ]
      - [ 5.96369863e-01, -1.28944024e-01, 2.40483031e-01,
          1.46454251e+00, 1.79248619e+00, 1.33940983e+00, 8.65737975e-01,
          -4.54832286e-01, -8.63207221e-01, -5.34682155e-01,
          -1.00835395e+00, -1.46143043e+00, -6.42310143e-01,
          -8.66387844e-01, -3.38881403e-01 ]
      - [ 1.07208885e-01, -1.63008451e-01, 1.52180687e-01,
          1.29498041e+00, 2.31156611e+00, 1.14332354e+00, 7.33016074e-01,
          -4.43225920e-01, -2.74118841e-01, -5.35227895e-01,
          -9.64185953e-01, -1.46775341e+00, -9.04859960e-01,
          -7.43172407e-01, -2.46722728e-01 ]
      - [ 3.62281680e-01, 1.53097138e-02, 2.27769494e-01, 1.37568712e+00,
          1.73251367e+00, 1.24666250e+00, 7.18566000e-01,
          -5.09421229e-01, -2.32017174e-01, -7.17871904e-01,
          -1.20372307e+00, -1.79519498e+00, -6.48069024e-01,
          -9.05839741e-01, 3.33346874e-01 ]
      - [ 2.04616398e-01, -2.12881893e-01, 8.82258564e-02,
          1.28129256e+00, 2.31184459e+00, 1.11262679e+00, 6.61598325e-01,
          1.35395184e-01, -8.42838109e-01, -6.53902829e-01,
          -1.02976322e+00, -1.44320762e+00, -4.37702566e-01,
          -7.62627840e-01, -4.12675589e-01 ]
      - [ 2.40437984e-01, 1.59141362e-01, 2.76397139e-01, 1.41186118e+00,
          1.72660244e+00, 1.10847926e+00, 6.13984942e-01,
          -4.88119721e-01, -4.16208535e-01, -7.87081063e-01,
          -1.26097286e+00, -1.63184536e+00, -6.22169018e-01,
          -1.04120636e+00, 7.10698724e-01 ]
      - [ 7.43399203e-01, -2.48522133e-01, -2.57201362e-02,
          1.48842120e+00, 1.91992700e+00, 7.53047049e-01, 2.86710382e-01,
          -7.97169149e-01, -5.56280673e-01, -9.86745059e-01,
          -1.41720939e+00, -8.36383998e-01, -8.63380790e-01,
          -5.41324615e-01, 1.08123124e+00 ]
      - [ 2.37647086e-01, 2.58110315e-01, 1.28643751e+00,
          -6.67949021e-01, -1.21667719e+00, -1.55946660e+00,
          -1.26242852e+00, -9.74334896e-01, -4.05899286e-01,
          6.45330101e-02, -1.07991837e-01, 1.29598331e+00,
          1.42529726e+00, 1.04333210e+00, 5.83406746e-01 ]
      - [ 5.81598878e-01, 4.67520654e-01, 1.55633795e+00,
          -7.30869591e-01, -1.42016804e+00, -1.74941373e+00,
          -1.13887835e+00, -5.83710194e-01, -4.43450570e-01,
          -3.83941531e-01, 4.31015849e-01, 9.55799222e-01,
          5.79645157e-01, 1.27685094e+00, 6.01663291e-01 ]
      - [ 5.51217794e-01, 5.13092816e-01, 1.68453085e+00,
          -6.33173108e-01, -1.30568624e+00, -1.81211090e+00,
          -1.22133958e+00, -5.87120771e-01, -5.27628422e-01,
          1.46075770e-01, 1.44162983e-01, 4.29960936e-01, 1.36756706e+00,
          9.50775981e-01, 2.99674749e-01 ]
      - [ 9.10844803e-01, 3.76070142e-01, 1.53841054e+00,
