%YAML:1.0
svm: !!opencv-ml-svm
   svm_type: C_SVC
   kernel: { type:RBF, gamma:1.0000000000000001e-01 }
   C: 10.
   term_criteria: { epsilon:9.9999999747524271e-07, iterations:1000 }
   var_all: 3
   var_count: 3
   class_count: 2
   class_labels: !!opencv-matrix
      rows: 1
      cols: 2
      dt: i
      data: [ 0, 1 ]
   sv_total: 461
   support_vectors:
      - [ -8.42920039e-03, 7.51179978e-02, 1.21599998e+01 ]
      - [ -7.42649985e-03, 7.81750008e-02, 1.13669996e+01 ]
      - [ 1.22619998e-02, 8.57919976e-02, 1.50304060e+01 ]
      - [ 1.82729997e-02, 9.29630026e-02, 1.22255459e+01 ]
      - [ -4.73379996e-03, 6.66109994e-02, 1.55150003e+01 ]
      - [ 1.20150000e-02, 7.74670020e-02, 1.42874641e+01 ]
      - [ 1.14350002e-02, 7.73610026e-02, 1.45145807e+01 ]
      - [ 1.04400003e-02, 9.25149992e-02, 1.56306210e+01 ]
      - [ 2.02360004e-02, 1.09552003e-01, 1.25104055e+01 ]
      - [ 1.95739996e-02, 1.03836000e-01, 1.23993378e+01 ]
      - [ 1.58539992e-02, 9.64789987e-02, 1.82741852e+01 ]
      - [ 1.53569998e-02, 1.00483000e-01, 1.13016768e+01 ]
      - [ -1.55670000e-02, 1.01994999e-01, 1.38849936e+01 ]
      - [ -2.04400003e-01, 2.16159999e-01, 5.00955009e+00 ]
      - [ -4.14320007e-02, 9.98390019e-02, 1.28820677e+01 ]
      - [ 1.77040007e-02, 8.64889994e-02, 1.56204386e+01 ]
      - [ -1.62729993e-01, 1.48780003e-01, 4.99921989e+00 ]
      - [ -1.48420006e-01, 1.87419996e-01, 7.98161983e+00 ]
      - [ -4.73399997e-01, 4.07849997e-01, 5.00485992e+00 ]
      - [ -4.66320008e-01, 4.32179987e-01, 5.00333023e+00 ]
      - [ -4.03590016e-02, 5.85630015e-02, 5.00532389e+00 ]
      - [ 1.66800003e-02, 6.32089972e-02, 1.34400253e+01 ]
      - [ 1.06679998e-01, 8.97950027e-04, 5.00500011e+00 ]
      - [ 9.56560019e-03, 3.37514989e-02, 5.00495243e+00 ]
      - [ -1.14519997e-02, 1.28817007e-01, 1.57424154e+01 ]
      - [ -1.70029998e-02, 1.45271003e-01, 1.58193636e+01 ]
      - [ -2.20489994e-01, 2.21399993e-01, 6.27369022e+00 ]
      - [ -5.67479990e-02, 1.37507007e-01, 1.13592844e+01 ]
      - [ -1.88669994e-01, 2.41410002e-01, 6.69050980e+00 ]
      - [ -2.38949992e-02, 7.98799992e-02, 1.32854671e+01 ]
      - [ 1.63570009e-02, 1.07947998e-01, 1.74523220e+01 ]
      - [ 6.86969981e-03, 5.41730002e-02, 1.53100004e+01 ]
      - [ -2.91949987e-01, 2.71140009e-01, 4.99701023e+00 ]
      - [ -2.86969990e-01, 2.63309985e-01, 4.99763012e+00 ]
      - [ -1.58109993e-01, 1.58240005e-01, 4.99724007e+00 ]
      - [ 1.33490004e-02, 5.24200015e-02, 1.67998753e+01 ]
      - [ -1.81630000e-01, 1.94360003e-01, 5.00382996e+00 ]
      - [ -2.02319995e-01, 2.30220005e-01, 5.00577021e+00 ]
      - [ 5.54080009e-02, 1.88950002e-01, 6.23333788e+00 ]
      - [ 7.38860015e-03, 5.65880015e-02, 1.58490000e+01 ]
      - [ 1.56410001e-02, 3.34420018e-02, 5.00294590e+00 ]
      - [ 2.02610008e-02, 9.08590034e-02, 8.89187717e+00 ]
      - [ 6.70660008e-03, 7.50449970e-02, 1.30930004e+01 ]
      - [ 7.46259978e-03, 6.33810014e-02, 1.37819996e+01 ]
      - [ 2.12820005e-02, 9.17840004e-02, 9.27792072e+00 ]
      - [ 7.00580003e-03, 5.01050018e-02, 1.61170006e+01 ]
      - [ 8.82180035e-03, 5.14760017e-02, 17. ]
      - [ 9.39960033e-03, 4.30600010e-02, 1.14169998e+01 ]
      - [ -4.14119996e-02, 8.11349973e-02, 5.00287724e+00 ]
      - [ 1.05200000e-02, 6.77850023e-02, 1.21892862e+01 ]
      - [ 1.36949997e-02, 5.27620018e-02, 8.01826668e+00 ]
      - [ 1.52979996e-02, 8.39890018e-02, 1.14168015e+01 ]
      - [ 1.33870002e-02, 7.37759992e-02, 1.43696709e+01 ]
      - [ -3.11060011e-01, 2.86339998e-01, 4.99710989e+00 ]
      - [ -2.51839995e-01, 2.49210000e-01, 6.12295008e+00 ]
      - [ -2.83809993e-02, 8.65290016e-02, 1.73195515e+01 ]
      - [ -8.48819986e-02, 1.10623002e-01, 5.00172806e+00 ]
      - [ -1.43150002e-01, 1.64489999e-01, 5.00295019e+00 ]
      - [ -9.18530002e-02, 9.98150036e-02, 5.00157595e+00 ]
      - [ -3.65800001e-02, 6.45229965e-02, 5.00138712e+00 ]
      - [ -2.31759995e-01, 2.46779993e-01, 5.01120996e+00 ]
      - [ 8.30840040e-03, 3.38280015e-02, 1.43719997e+01 ]
      - [ 6.95470022e-03, 4.72869985e-02, 1.18669996e+01 ]
      - [ 6.65460015e-03, 7.71500021e-02, 1.43850002e+01 ]
      - [ -6.24520006e-03, 8.56150016e-02, 1.27270002e+01 ]
      - [ -9.30109993e-04, 8.40580016e-02, 1.49499998e+01 ]
      - [ -2.87420005e-01, 2.60859996e-01, 4.99717999e+00 ]
      - [ 2.25079998e-01, -1.30759999e-01, 5.00226021e+00 ]
      - [ -1.24030001e-01, 1.36419997e-01, 4.99743986e+00 ]
      - [ -1.51730001e-01, 1.98339999e-01, 4.99870014e+00 ]
      - [ -5.86690009e-02, 8.76609981e-02, 4.99803209e+00 ]
      - [ 1.10320002e-02, 9.69960019e-02, 1.52273607e+01 ]
      - [ 3.39340009e-02, -4.53699986e-03, 1.16800003e+01 ]
      - [ 5.24879992e-02, 1.92060005e-02, 5.00412703e+00 ]
      - [ 6.07989989e-02, 3.10859997e-02, 4.99919415e+00 ]
      - [ 1.12610003e-02, 1.21065997e-01, 1.19258051e+01 ]
      - [ -9.31719989e-02, 2.00763002e-01, 8.36135006e+00 ]
      - [ -2.65940011e-01, 3.16720009e-01, 5.02648020e+00 ]
      - [ -5.27359992e-02, 1.91499993e-01, 9.23023319e+00 ]
      - [ -2.43659993e-03, 1.89129993e-01, 1.14639997e+01 ]
      - [ -4.11529988e-02, 1.95139006e-01, 9.72663403e+00 ]
      - [ -2.53010005e-01, 2.29320005e-01, 4.99667978e+00 ]
      - [ -4.36910003e-01, 4.83460009e-01, 5.06036997e+00 ]
      - [ -1.89989999e-01, 2.09790006e-01, 5.00431013e+00 ]
      - [ -8.33379999e-02, 9.86619964e-02, 5.00569582e+00 ]
      - [ -2.63009995e-01, 2.42090002e-01, 4.99674988e+00 ]
      - [ -8.99510011e-02, 1.49678007e-01, 8.77596188e+00 ]
      - [ -2.63390005e-01, 2.55219996e-01, 5.01019001e+00 ]
      - [ -2.53360003e-01, 2.63170004e-01, 6.06553984e+00 ]
      - [ -5.97730018e-02, 1.54198006e-01, 1.08254566e+01 ]
      - [ -3.94589990e-01, 3.71710002e-01, 5.18184996e+00 ]
      - [ -3.22299987e-01, 3.87789994e-01, 5.94511986e+00 ]
      - [ -1.61650002e-01, 2.60049999e-01, 6.51376009e+00 ]
      - [ 1.44490004e-02, 7.01569989e-02, 1.64681664e+01 ]
      - [ 1.11379996e-02, 8.13700035e-02, 1.85629368e+01 ]
      - [ 1.03829997e-02, 4.97759990e-02, 1.32080841e+01 ]
      - [ -1.15999997e-01, 1.55540004e-01, 5.74772978e+00 ]
      - [ -1.55480001e-02, 1.12689003e-01, 1.17576694e+01 ]
      - [ 1.58920009e-02, 7.84709975e-02, 1.26054020e+01 ]
      - [ 2.65110005e-02, 1.05113998e-01, 1.13953505e+01 ]
      - [ 1.04879998e-02, 1.03444003e-01, 1.22620926e+01 ]
      - [ -3.22710007e-01, 3.96210015e-01, 5.03156996e+00 ]
      - [ -3.21350008e-01, 3.95429999e-01, 5.03142023e+00 ]
      - [ 4.15530019e-02, 1.28350005e-01, 6.89244413e+00 ]
      - [ 2.50049997e-02, 1.25536993e-01, 1.06589956e+01 ]
      - [ 1.84000004e-02, 1.11208998e-01, 1.23784952e+01 ]
      - [ 7.19169993e-03, 1.27900004e-01, 1.26590004e+01 ]
      - [ 2.21960004e-02, 1.66451007e-01, 1.47605419e+01 ]
      - [ 2.59210002e-02, 1.63126007e-01, 1.19677582e+01 ]
      - [ 1.43980002e-02, 1.29345000e-01, 1.29939098e+01 ]
      - [ -1.18460000e-01, 1.55239999e-01, 8.08703041e+00 ]
      - [ -4.10780013e-01, 3.51880014e-01, 4.99856997e+00 ]
      - [ -1.04670003e-01, 1.29140005e-01, 4.99861002e+00 ]
      - [ 9.64690000e-02, -3.74049991e-02, 5.00512409e+00 ]
      - [ 1.31550003e-02, 8.30539986e-02, 1.59693022e+01 ]
      - [ -2.29210004e-01, 2.52429992e-01, 5.01756001e+00 ]
      - [ -1.38789997e-01, 1.33059993e-01, 4.99827003e+00 ]
      - [ -3.60479988e-02, 1.25966996e-01, 1.10481148e+01 ]
      - [ -5.34190014e-02, 1.49445996e-01, 1.20414743e+01 ]
      - [ 2.55499996e-04, 1.23580001e-01, 1.57530003e+01 ]
      - [ -7.37119988e-02, 1.95611000e-01, 1.14337177e+01 ]
      - [ 1.06739998e-02, 7.03269988e-02, 1.65104713e+01 ]
      - [ 6.90349983e-03, 8.61509964e-02, 1.43149996e+01 ]
      - [ -5.67959994e-02, 2.17552006e-01, 1.35898323e+01 ]
      - [ -2.24990007e-02, 1.71114996e-01, 1.24478064e+01 ]
      - [ 2.20320001e-02, 1.32394999e-01, 1.33633900e+01 ]
      - [ 4.32870016e-02, 1.32882997e-01, 1.81153545e+01 ]
      - [ 1.80549994e-02, 1.13082998e-01, 1.09534674e+01 ]
      - [ -2.41839997e-02, 1.46973997e-01, 1.40584669e+01 ]
      - [ 8.74840003e-03, 1.13799997e-01, 1.77649994e+01 ]
      - [ -3.79020013e-02, 1.49196997e-01, 1.16971741e+01 ]
      - [ -3.30190003e-01, 3.57069999e-01, 5.02852011e+00 ]
      - [ -7.06340000e-02, 2.36995995e-01, 1.25289726e+01 ]
      - [ -5.09780012e-02, 1.64516002e-01, 1.68030605e+01 ]
      - [ -6.07159995e-02, 2.37929001e-01, 1.35717201e+01 ]
      - [ -6.20499998e-02, 2.41341993e-01, 1.44892998e+01 ]
      - [ -1.99699998e-01, 2.16979995e-01, 5.00951004e+00 ]
      - [ 2.88399998e-02, 1.84250008e-02, 5.00483799e+00 ]
      - [ -1.27990007e-01, 1.18749999e-01, 5.22484016e+00 ]
      - [ -1.86550006e-01, 2.11099997e-01, 5.00901985e+00 ]
      - [ -2.72679999e-02, 9.52790007e-02, 1.10329266e+01 ]
      - [ -3.94559987e-02, 1.02357000e-01, 8.62677765e+00 ]
      - [ -2.73269992e-02, 1.13256000e-01, 1.36991529e+01 ]
      - [ 5.26779983e-03, 1.19570002e-01, 1.32939997e+01 ]
      - [ 1.70440003e-02, 1.04755998e-01, 1.70028973e+01 ]
      - [ -9.55080017e-02, 1.56588003e-01, 8.13694763e+00 ]
      - [ -2.96929985e-01, 3.05949986e-01, 5.41451979e+00 ]
      - [ -1.03940003e-01, 1.53669998e-01, 5.56904984e+00 ]
      - [ -2.07479998e-01, 2.05200002e-01, 5.00415993e+00 ]
      - [ -2.52119988e-01, 2.40290001e-01, 5.00726986e+00 ]
      - [ 1.15130004e-02, 4.28019986e-02, 1.37334099e+01 ]
      - [ -3.55870016e-02, 4.13599983e-02, 5.00206518e+00 ]
      - [ 1.13129998e-02, 8.76640007e-02, 5.00546312e+00 ]
      - [ 1.29100000e-02, 4.41230014e-02, 8.24056244e+00 ]
      - [ 2.15130001e-02, 7.61289969e-02, 8.32415676e+00 ]
      - [ 2.24140007e-02, 1.04471996e-01, 8.40254116e+00 ]
      - [ 1.32729998e-02, 4.96900007e-02, 9.30635548e+00 ]
      - [ 2.36620009e-02, 4.45419997e-02, 5.00892591e+00 ]
      - [ 2.01260000e-02, 5.58540002e-02, 5.01530981e+00 ]
      - [ 2.19730008e-02, 9.93319973e-02, 1.39706812e+01 ]
      - [ -2.50530001e-02, 1.54378995e-01, 1.21762991e+01 ]
      - [ 2.54689995e-02, 1.15070000e-01, 1.42485847e+01 ]
      - [ -2.47499999e-02, 8.35049972e-02, 1.34145308e+01 ]
      - [ -4.19039994e-01, 4.88680005e-01, 5.05363989e+00 ]
      - [ 1.07150003e-02, 1.63466007e-01, 1.17952604e+01 ]
      - [ 9.40170046e-03, 8.05040002e-02, 1.37980003e+01 ]
      - [ 1.42790005e-02, 9.71110016e-02, 1.23127785e+01 ]
      - [ 5.16260006e-02, 1.26986995e-01, 1.63414288e+01 ]
      - [ -2.38000005e-01, 2.47610003e-01, 5.01143980e+00 ]
      - [ -1.42719999e-01, 2.01179996e-01, 9.11139011e+00 ]
      - [ -2.62120008e-01, 2.44790003e-01, 5.00802994e+00 ]
      - [ -9.28360038e-03, 7.21940026e-02, 1.83239994e+01 ]
      - [ 1.32269999e-02, 5.53350002e-02, 1.52344637e+01 ]
      - [ 1.31860003e-02, 7.01150000e-02, 1.47910194e+01 ]
      - [ 1.40739996e-02, 7.41280019e-02, 1.44065180e+01 ]
      - [ 1.75579991e-02, 6.46770000e-02, 1.37322245e+01 ]
      - [ 1.91719998e-02, 7.24589974e-02, 1.48104696e+01 ]
      - [ 1.05579998e-02, 5.61640002e-02, 1.87481995e+01 ]
      - [ 1.58779994e-02, 8.51790011e-02, 1.78626499e+01 ]
      - [ -1.16910003e-01, 1.52970001e-01, 5.61859989e+00 ]
      - [ 2.43970007e-02, 6.94010034e-02, 1.28053312e+01 ]
      - [ 1.96800008e-02, 1.00518003e-01, 1.58351278e+01 ]
      - [ 1.91440005e-02, 9.21970010e-02, 1.59996672e+01 ]
      - [ 2.36680005e-02, 1.14242002e-01, 1.53586388e+01 ]
      - [ 1.09329997e-02, 8.04670006e-02, 1.81682739e+01 ]
      - [ 9.05609969e-03, 5.43739982e-02, 1.58599997e+01 ]
      - [ -1.42839998e-01, 1.72839999e-01, 6.62112999e+00 ]
      - [ -1.04719996e-01, 1.32129997e-01, 6.53258991e+00 ]
      - [ -2.77770013e-01, 2.93159992e-01, 5.01862001e+00 ]
      - [ 8.82260036e-03, 6.88140020e-02, 1.68729992e+01 ]
      - [ 9.18779988e-03, 7.99309984e-02, 1.40559998e+01 ]
      - [ 1.50750000e-02, 1.00613996e-01, 1.57440929e+01 ]
      - [ -2.62860000e-01, 2.92620003e-01, 5.45536995e+00 ]
      - [ 6.32649986e-03, 8.37510005e-02, 1.56590004e+01 ]
      - [ -8.65309983e-02, 1.77369997e-01, 9.47391796e+00 ]
      - [ -3.09900008e-02, 8.89689997e-02, 1.62965679e+01 ]
      - [ -8.13819990e-02, 1.29547000e-01, 8.22352123e+00 ]
      - [ -1.82189997e-02, 1.22357003e-01, 1.53400373e+01 ]
      - [ -1.35500003e-02, 1.24149002e-01, 1.59106483e+01 ]
      - [ -1.38630001e-02, 9.13069993e-02, 1.50384789e+01 ]
      - [ -4.31349993e-01, 4.34119999e-01, 5.08589983e+00 ]
      - [ -2.61539996e-01, 3.03680003e-01, 5.38060999e+00 ]
      - [ -3.56010012e-02, 5.61549999e-02, 5.00528002e+00 ]
      - [ -3.08679998e-01, 3.57439995e-01, 5.02737999e+00 ]
      - [ -1.68500002e-02, 1.79699995e-02, 5.00214815e+00 ]
      - [ -3.10079992e-01, 3.76349986e-01, 5.02904987e+00 ]
      - [ 1.68849993e-02, 7.61710033e-02, 1.27485943e+01 ]
      - [ 1.24100000e-02, 7.00609982e-02, 1.17930136e+01 ]
      - [ -1.38240000e-02, 1.34827003e-01, 8.67670059e+00 ]
      - [ 2.49630008e-02, 1.48635998e-01, 1.34974918e+01 ]
      - [ 2.45510004e-02, 7.19690025e-02, 9.54060364e+00 ]
      - [ 2.30620001e-02, 6.77959993e-02, 1.22579432e+01 ]
      - [ 1.79260001e-02, 8.42259973e-02, 1.33116779e+01 ]
      - [ 3.26820016e-02, 1.22759998e-01, 8.28592491e+00 ]
      - [ 1.48059996e-02, 7.22599998e-02, 1.78859310e+01 ]
      - [ -2.80019990e-03, 1.22579999e-01, 1.14680004e+01 ]
      - [ 4.46709991e-03, 1.39009997e-01, 1.54949999e+01 ]
      - [ 1.31200003e-02, 1.46643996e-01, 1.52825880e+01 ]
      - [ 1.29600000e-02, 1.27936006e-01, 1.47522278e+01 ]
      - [ 3.53919994e-03, 1.44449994e-01, 1.53699999e+01 ]
      - [ 9.67510045e-03, 1.31929994e-01, 1.64899998e+01 ]
      - [ 1.42590003e-02, 1.26016006e-01, 1.46640635e+01 ]
      - [ 3.70180011e-02, 2.95759998e-02, 4.99774122e+00 ]
      - [ -2.80270010e-01, 2.49359995e-01, 4.99631023e+00 ]
      - [ -4.47490007e-01, 3.89569998e-01, 5.00261021e+00 ]
      - [ -1.49770007e-01, 1.22160003e-01, 4.99531984e+00 ]
      - [ -4.99569997e-02, 6.57150000e-02, 4.99786377e+00 ]
      - [ -1.84210002e-01, 1.98640004e-01, 7.37839985e+00 ]
      - [ -3.95880014e-01, 3.89939994e-01, 5.75951004e+00 ]
      - [ -3.00370008e-01, 2.79870003e-01, 5.29026985e+00 ]
      - [ -3.09650004e-01, 2.81489998e-01, 4.99561977e+00 ]
      - [ -1.13849998e-01, 1.32310003e-01, 4.99856997e+00 ]
      - [ -4.99240011e-02, 8.80109966e-02, 4.99819517e+00 ]
      - [ -2.49499995e-02, 4.70909998e-02, 4.99572706e+00 ]
      - [ -9.56850033e-03, 3.18824016e-02, 5.00208282e+00 ]
      - [ 1.45393005e-02, 9.13279969e-03, 4.99726295e+00 ]
      - [ -4.03960012e-02, 5.75399995e-02, 5.00204086e+00 ]
      - [ 2.83419993e-02, 2.27070004e-02, 5.00595999e+00 ]
      - [ -3.98700014e-02, 5.57800010e-02, 5.00203991e+00 ]
      - [ 4.89559993e-02, -1.18209999e-02, 5.00243092e+00 ]
      - [ -4.23689991e-01, 3.92300010e-01, 5.00112009e+00 ]
      - [ 2.09973995e-02, 7.05070002e-03, 4.99743128e+00 ]
      - [ 3.64825986e-02, 2.20400002e-03, 5.00226688e+00 ]
      - [ 3.28099988e-02, 2.89099999e-02, 5.00575304e+00 ]
      - [ 3.47069986e-02, -2.03820001e-02, 8.83809566e+00 ]
      - [ 2.70080008e-02, 1.55324996e-01, 1.32705135e+01 ]
      - [ 2.64340006e-02, 1.71960995e-01, 1.72175713e+01 ]
      - [ -1.35460002e-02, 2.17588007e-01, 1.45006447e+01 ]
      - [ 2.67009996e-02, 9.39349979e-02, 1.49193497e+01 ]
      - [ 2.35210005e-02, 1.00399002e-01, 1.61399536e+01 ]
      - [ -3.12420011e-01, 3.90619993e-01, 5.03394985e+00 ]
      - [ -6.82470016e-03, 6.85570017e-02, 1.30570002e+01 ]
      - [ -1.72680002e-02, 9.09160003e-02, 8.90713596e+00 ]
      - [ -6.70849998e-03, 7.61817992e-02, 9.44842529e+00 ]
      - [ 1.42440004e-02, 1.15454003e-01, 1.56352491e+01 ]
      - [ 3.23630013e-02, 1.17009997e-01, 1.21134968e+01 ]
      - [ -2.84439996e-02, 1.10331997e-01, 7.95479584e+00 ]
      - [ 1.59549993e-02, 7.62879997e-02, 1.22379303e+01 ]
      - [ -7.21400008e-02, 1.64959997e-01, 5.94180679e+00 ]
      - [ 3.71850003e-03, 4.87379991e-02, 1.45509996e+01 ]
      - [ 1.29739996e-02, 6.36309981e-02, 8.85909557e+00 ]
      - [ -2.02769991e-02, 1.00525998e-01, 1.03837271e+01 ]
      - [ 1.77420005e-02, 7.10910037e-02, 1.48616428e+01 ]
      - [ -7.18759978e-03, 9.12059993e-02, 1.16009998e+01 ]
      - [ 8.99299979e-04, 7.02299997e-02, 1.88080006e+01 ]
      - [ 1.52650001e-02, 6.83640018e-02, 1.24102077e+01 ]
      - [ -9.49729979e-02, 1.00663997e-01, 5.00590181e+00 ]
      - [ -2.03840006e-02, 8.12949985e-02, 1.86939125e+01 ]
      - [ -8.15370008e-02, 1.44839004e-01, 8.46910858e+00 ]
      - [ -2.74329990e-01, 3.01930010e-01, 5.41582012e+00 ]
      - [ -5.48649989e-02, 1.45411998e-01, 1.09718943e+01 ]
      - [ 7.85529986e-03, 9.22989994e-02, 1.66980000e+01 ]
      - [ -2.27850005e-01, 2.49469995e-01, 5.01122999e+00 ]
      - [ -3.12120002e-03, 6.56080022e-02, 1.82310009e+01 ]
      - [ -2.29680002e-01, 2.28180006e-01, 5.00566006e+00 ]
      - [ -2.53749996e-01, 2.46399999e-01, 5.00827980e+00 ]
      - [ 6.92210020e-03, 1.20690003e-01, 1.32469997e+01 ]
      - [ -6.45140000e-03, 1.31640002e-01, 1.10310001e+01 ]
      - [ 1.69699993e-02, 1.40226007e-01, 1.41050396e+01 ]
      - [ 4.00219997e-03, 1.15960002e-01, 1.58889999e+01 ]
      - [ 1.31679997e-02, 1.18372999e-01, 1.43803434e+01 ]
      - [ 1.14580002e-02, 1.27052993e-01, 1.35994272e+01 ]
      - [ -2.98379990e-03, 1.18380003e-01, 1.11750002e+01 ]
      - [ -9.32260044e-03, 1.29570007e-01, 1.39020004e+01 ]
      - [ -6.84029981e-03, 1.44830003e-01, 1.26700001e+01 ]
      - [ 1.36639997e-02, 9.62840021e-02, 1.31212263e+01 ]
      - [ 1.57069992e-02, 1.00897998e-01, 1.21808443e+01 ]
      - [ 3.27179991e-02, 1.28197998e-01, 9.21423817e+00 ]
      - [ 2.28659995e-03, 1.44539997e-01, 1.15790005e+01 ]
      - [ 6.93419995e-03, 9.32430029e-02, 1.37830000e+01 ]
      - [ -1.96189992e-02, 1.08418003e-01, 1.16093655e+01 ]
      - [ -1.35490000e-02, 7.92720020e-02, 1.14948921e+01 ]
      - [ -4.50390019e-02, 1.38325006e-01, 6.79574394e+00 ]
      - [ 7.01860012e-03, 1.11780003e-01, 1.16899996e+01 ]
      - [ -2.74390001e-02, 8.48319978e-02, 1.51466799e+01 ]
      - [ 1.65279992e-02, 5.44430017e-02, 5.00986719e+00 ]
      - [ -1.88260004e-02, 1.01437002e-01, 1.21791630e+01 ]
      - [ 1.09230001e-02, 1.22130001e-02, 4.99853897e+00 ]
      - [ -1.49419993e-01, 1.85890004e-01, 5.58301020e+00 ]
      - [ 1.44819999e-02, 1.01304002e-01, 1.52920618e+01 ]
      - [ 2.07480006e-02, 4.22759987e-02, 4.99875307e+00 ]
      - [ -1.30650001e-02, 6.79450035e-02, 1.83311386e+01 ]
      - [ -7.47189969e-02, 1.58224002e-01, 9.51736259e+00 ]
      - [ -3.16220000e-02, 9.26980004e-02, 7.98543501e+00 ]
      - [ -4.35339995e-02, 1.67548999e-01, 1.18925257e+01 ]
      - [ -3.47939990e-02, 1.53564006e-01, 1.25184774e+01 ]
      - [ -3.91159998e-03, 1.20949998e-01, 1.85790005e+01 ]
      - [ -1.31270001e-02, 1.32769004e-01, 1.71100044e+01 ]
      - [ 1.53160002e-02, 6.81539997e-02, 1.43851633e+01 ]
      - [ -2.40099996e-01, 2.54090011e-01, 5.01181984e+00 ]
      - [ 2.51449998e-02, 1.25689000e-01, 1.44383507e+01 ]
      - [ -1.00999996e-02, 1.07276998e-01, 1.34316778e+01 ]
      - [ -8.36379975e-02, 1.59316003e-01, 9.25826168e+00 ]
      - [ -1.10490002e-01, 1.94989994e-01, 8.46512985e+00 ]
      - [ 2.22810004e-02, 8.81970003e-02, 1.66836720e+01 ]
      - [ -1.06940001e-01, 1.59240007e-01, 5.00550985e+00 ]
      - [ -3.05739999e-01, 3.79649997e-01, 5.03373003e+00 ]
      - [ 1.97819993e-02, 2.83510005e-03, 5.00553036e+00 ]
      - [ 9.91940033e-03, 8.73550028e-03, 5.01151514e+00 ]
      - [ -1.25850007e-01, 1.70660004e-01, 5.01190996e+00 ]
      - [ 2.79609999e-03, -1.37449999e-03, 5.00591183e+00 ]
      - [ 2.36729998e-02, 8.19580033e-02, 1.64530640e+01 ]
      - [ 1.57069992e-02, 8.18070024e-02, 1.47470741e+01 ]
      - [ -1.07340002e-02, 7.18349963e-02, 9.20987225e+00 ]
      - [ 1.16710002e-02, 5.96380010e-02, 1.58882141e+01 ]
      - [ 2.05799993e-02, 6.56990036e-02, 1.26845503e+01 ]
      - [ -2.33649999e-01, 2.35550001e-01, 4.99747992e+00 ]
      - [ -4.37970012e-02, 5.54459989e-02, 4.99826384e+00 ]
      - [ 1.21505998e-01, -2.01469995e-02, 5.00215197e+00 ]
      - [ 3.34369987e-02, 4.68740016e-02, 4.99916315e+00 ]
      - [ -5.11099994e-02, 8.19889978e-02, 4.99813700e+00 ]
      - [ -1.60850003e-01, 1.77049994e-01, 5.00329018e+00 ]
      - [ -2.07359996e-02, 3.51010002e-02, 4.99815178e+00 ]
      - [ -3.61390002e-02, 3.09319999e-02, 4.99780321e+00 ]
      - [ -6.33509979e-02, 7.63010010e-02, 4.99782181e+00 ]
      - [ -3.42260003e-02, 3.11149992e-02, 4.99754810e+00 ]
      - [ -1.92939997e-01, 1.73069999e-01, 4.99682999e+00 ]
      - [ -3.02399993e-01, 2.63309985e-01, 4.99697018e+00 ]
      - [ 2.40230002e-02, 9.24040005e-02, 8.00624847e+00 ]
      - [ 2.40749996e-02, 9.53489989e-02, 8.14729977e+00 ]
      - [ 1.25190001e-02, 1.38240993e-01, 1.50781918e+01 ]
      - [ 7.01829977e-03, 1.42269999e-01, 1.58030005e+01 ]
      - [ -1.96300005e-03, 1.47469997e-01, 1.24410000e+01 ]
      - [ 1.25334993e-01, -5.18839993e-02, 5.00038004e+00 ]
      - [ -3.62249985e-02, 6.24600016e-02, 4.99812222e+00 ]
      - [ 2.96020005e-02, 2.29150001e-02, 4.99898720e+00 ]
      - [ 4.57030982e-02, -4.93799988e-03, 5.00024939e+00 ]
      - [ -9.78429988e-02, 8.83560032e-02, 4.99738503e+00 ]
      - [ -2.06129998e-01, 1.92619994e-01, 5.00848007e+00 ]
      - [ -4.80960011e-01, 3.99650007e-01, 4.99690008e+00 ]
      - [ -4.41179991e-01, 3.69549990e-01, 4.99913979e+00 ]
      - [ -1.71639994e-01, 1.81649998e-01, 6.97680998e+00 ]
      - [ -1.73570007e-01, 1.86240003e-01, 6.46096992e+00 ]
      - [ -8.25039968e-02, 1.85996994e-01, 5.01010513e+00 ]
      - [ -1.14189997e-01, 3.03039998e-01, 5.63998985e+00 ]
      - [ 2.98299994e-02, 1.70751005e-01, 7.91541576e+00 ]
      - [ 1.90779995e-02, 1.89565003e-01, 1.12935457e+01 ]
      - [ -7.76170008e-03, 1.64260000e-01, 1.49879999e+01 ]
      - [ 4.61270014e-04, 1.86340004e-01, 1.40340004e+01 ]
      - [ 1.94610003e-02, 1.82389006e-01, 1.36134176e+01 ]
      - [ 1.22980000e-02, 1.73163995e-01, 1.27211342e+01 ]
      - [ 1.97340008e-02, 1.55673996e-01, 1.34169521e+01 ]
      - [ 2.13120002e-02, 1.34075999e-01, 1.20192842e+01 ]
      - [ -1.54499998e-02, 1.63761005e-01, 1.26298552e+01 ]
      - [ -8.92930012e-03, 1.46679997e-01, 1.17410002e+01 ]
      - [ 4.09450009e-03, 1.47349998e-01, 1.27580004e+01 ]
      - [ -5.23589998e-02, 1.29906997e-01, 1.31041622e+01 ]
      - [ -2.36729994e-01, 2.73970008e-01, 6.17105007e+00 ]
      - [ -3.10900006e-02, 1.13638997e-01, 1.52300434e+01 ]
      - [ -1.80429995e-01, 2.08519995e-01, 5.00426006e+00 ]
      - [ -2.90019996e-02, 2.78270002e-02, 4.99801493e+00 ]
      - [ -1.79010004e-01, 2.08320007e-01, 5.00425005e+00 ]
      - [ -2.86480010e-01, 3.25769991e-01, 5.07474995e+00 ]
      - [ 1.66590009e-02, 5.53810000e-02, 1.09433470e+01 ]
      - [ 1.71160009e-02, 5.60620017e-02, 1.06685686e+01 ]
      - [ 2.21360009e-02, 8.65869969e-02, 1.18922558e+01 ]
      - [ -1.98200002e-01, 2.20640004e-01, 5.00489998e+00 ]
      - [ -2.55699992e-01, 2.93220013e-01, 5.03037977e+00 ]
      - [ -1.41120004e-03, 4.66432013e-02, 4.99876070e+00 ]
      - [ -2.30439994e-02, 1.03170998e-01, 1.09441547e+01 ]
      - [ -7.05310032e-02, 1.13454998e-01, 8.36560059e+00 ]
      - [ -1.21430000e-02, 9.07580033e-02, 1.16607113e+01 ]
      - [ -1.97219998e-01, 2.27339998e-01, 5.01554012e+00 ]
      - [ -4.88019995e-02, 9.14330035e-02, 5.00226688e+00 ]
      - [ -4.75059991e-04, 3.83390002e-02, 5.00190020e+00 ]
      - [ -2.31299996e-02, 8.09599981e-02, 5.00999880e+00 ]
      - [ -3.39709991e-03, 1.09970003e-01, 1.19899998e+01 ]
      - [ -1.93120003e-01, 2.12870002e-01, 5.00925016e+00 ]
      - [ 9.99370031e-03, 4.20299992e-02, 1.33050003e+01 ]
      - [ -1.15330003e-01, 1.40520006e-01, 5.22754002e+00 ]
      - [ -2.39399999e-01, 2.84289986e-01, 5.02280998e+00 ]
      - [ -9.48750041e-03, 1.08259998e-01, 1.37250004e+01 ]
      - [ -5.21529987e-02, 1.83185995e-01, 1.30294790e+01 ]
      - [ 2.01169997e-02, 1.07399002e-01, 1.52023420e+01 ]
      - [ 2.29989998e-02, 9.25339982e-02, 1.56033983e+01 ]
      - [ 3.38499993e-02, 1.28122002e-01, 1.21762218e+01 ]
      - [ 4.59770020e-03, -2.89259991e-03, 4.99843264e+00 ]
      - [ -3.00040007e-01, 2.75909990e-01, 5.33900976e+00 ]
      - [ -3.21550012e-01, 3.18030000e-01, 6.06345987e+00 ]
      - [ -5.42320013e-01, 4.76810008e-01, 5.02807999e+00 ]
      - [ -4.59190011e-01, 4.26560014e-01, 5.01379013e+00 ]
      - [ -3.30680013e-01, 3.21749985e-01, 4.99954987e+00 ]
      - [ -1.88299999e-01, 2.04630002e-01, 4.99779987e+00 ]
      - [ -4.45910007e-01, 4.00200009e-01, 5.00555992e+00 ]
      - [ -3.81410010e-02, 3.67010012e-02, 4.99504089e+00 ]
      - [ -2.02940002e-01, 1.82439998e-01, 5.00509977e+00 ]
      - [ -1.60009995e-01, 1.73920006e-01, 4.99829006e+00 ]
      - [ -5.76729998e-02, 6.69699982e-02, 4.99801016e+00 ]
      - [ -1.71650007e-01, 1.83080003e-01, 4.99806976e+00 ]
      - [ -1.11129999e-01, 1.08680002e-01, 4.99841976e+00 ]
      - [ -2.85879999e-01, 2.66189992e-01, 4.99699020e+00 ]
      - [ -1.18600003e-01, 1.07179999e-01, 4.99825001e+00 ]
      - [ -2.23069996e-01, 1.99469998e-01, 4.99684000e+00 ]
      - [ -1.42959997e-01, 1.58519998e-01, 6.60988998e+00 ]
      - [ 1.43130003e-02, 1.00468002e-01, 1.78047562e+01 ]
      - [ -1.37559995e-01, 1.54320002e-01, 6.69378996e+00 ]
      - [ -4.32900012e-01, 3.98009986e-01, 5.00129986e+00 ]
      - [ -3.30220014e-01, 3.07130009e-01, 4.99763012e+00 ]
      - [ -2.58430000e-02, 2.33849995e-02, 4.99798918e+00 ]
      - [ -1.83049999e-02, 1.53719997e-02, 4.99812603e+00 ]
      - [ 1.26620000e-02, 6.37520030e-02, 1.63505554e+01 ]
      - [ -7.52110034e-02, 1.23857997e-01, 6.36622906e+00 ]
      - [ 1.76100004e-02, 6.64189979e-02, 1.21537437e+01 ]
      - [ -1.11160000e-04, 5.75659983e-02, 1.69069996e+01 ]
      - [ 1.18600000e-02, 5.20149991e-02, 1.73020172e+01 ]
      - [ -9.40010026e-02, 1.24346003e-01, 5.64790010e+00 ]
      - [ -6.47010002e-03, 6.93489984e-02, 1.48680000e+01 ]
      - [ 1.07589997e-02, 5.12290001e-02, 1.43020573e+01 ]
      - [ -3.86589989e-02, 1.58697993e-01, 9.32648563e+00 ]
      - [ 2.31769998e-02, 9.69280005e-02, 1.19184351e+01 ]
      - [ -2.36540005e-01, 2.94169992e-01, 5.01941013e+00 ]
      - [ -3.61220002e-01, 3.96439999e-01, 5.03377008e+00 ]
      - [ -6.18739985e-02, 1.83266997e-01, 9.75925922e+00 ]
      - [ -3.26609999e-01, 3.75039995e-01, 5.02989006e+00 ]
      - [ -6.77450001e-03, 1.14340000e-01, 1.18409996e+01 ]
      - [ -2.00709999e-02, 9.74180028e-02, 1.08960629e+01 ]
      - [ -1.65289998e-01, 1.94499999e-01, 5.00820017e+00 ]
      - [ -4.48510004e-03, 1.34880006e-01, 1.12180004e+01 ]
      - [ -1.82129994e-01, 2.34109998e-01, 6.43751001e+00 ]
      - [ -2.39380002e-02, 1.17123000e-01, 1.13662767e+01 ]
      - [ 1.73589997e-02, 8.79549980e-02, 1.20887127e+01 ]
      - [ -1.34889996e-02, 1.24890998e-01, 1.55486803e+01 ]
      - [ 1.29389996e-02, 9.76769999e-02, 1.81684399e+01 ]
      - [ -4.26690001e-03, 9.27530006e-02, 1.88190002e+01 ]
      - [ -2.06259992e-02, 1.56883001e-01, 1.45229654e+01 ]
      - [ 1.83680002e-02, 9.13280025e-02, 1.70214214e+01 ]
      - [ 2.21720003e-02, 1.19667999e-01, 1.49057579e+01 ]
      - [ -8.10799971e-02, 1.71134993e-01, 1.21866903e+01 ]
      - [ -4.63939995e-01, 4.70129997e-01, 5.87260008e+00 ]
      - [ -3.88180017e-02, 1.58225000e-01, 1.23038387e+01 ]
      - [ -3.31840008e-01, 3.12249988e-01, 4.99794006e+00 ]
      - [ -5.78070013e-03, 1.43700004e-01, 1.57440004e+01 ]
      - [ -1.64049998e-01, 2.76829988e-01, 8.94108009e+00 ]
      - [ -3.43910009e-01, 3.32700014e-01, 5.21356010e+00 ]
      - [ 1.38600003e-02, 9.37599987e-02, 1.37369652e+01 ]
      - [ -4.12850007e-02, 8.04060027e-02, 9.69008827e+00 ]
      - [ -2.06489995e-01, 3.09819996e-01, 7.84320021e+00 ]
      - [ -2.61619985e-01, 3.56770009e-01, 8.51599026e+00 ]
      - [ -3.09260003e-02, 9.49309990e-02, 1.15520515e+01 ]
      - [ -3.95889997e-01, 4.25550014e-01, 5.15923023e+00 ]
      - [ -3.71950008e-02, 1.65048003e-01, 1.37497187e+01 ]
   decision_functions:
      -
         sv_count: 461
         rho: -4.0048377652235079e-01
         alpha: [ 10., 10., 10., 10., 1.9825943425302022e+00,
             3.9982384243387230e+00, 7.9870664756718037e+00,
             8.0111790874353463e+00, 10., 3.9732229630530389e+00,
             5.9839351469101754e+00, 10., 6.0009272237151094e+00, 10.,
             10., 2.0130255385490146e+00, 10., 10., 10., 10., 10.,
             5.9953241303775169e+00, 1.9219225354799601e+00, 10., 10.,
             7.9819265711469995e+00, 4.0015074818393259e+00, 10.,
             2.0036275633146392e+00, 1.9905345952065039e+00,
             2.0692768673700743e+00, 1.9987209678381763e+00, 10.,
             5.9743459672063972e+00, 10., 10., 10., 10.,
             2.0009767539640286e+00, 2.0019406936782840e+00, 10.,
             6.4088526102668961e+00, 7.9834955080570253e+00,
             5.9921341469824707e+00, 4.0005168152172672e+00,
             1.9958932853687228e+00, 8.0074336935918584e+00,
             5.5513206234242327e+00, 10., 10., 10., 10., 10., 10.,
             2.0007628986804420e+00, 8.0079033042363523e+00, 10., 10.,
             10., 10., 10., 2.0008605058984661e+00, 10.,
             7.9950890544846747e+00, 10., 10., 10.,
             4.0484414323844176e+00, 10., 10., 10., 10., 10.,
             2.0109465421254642e+00, 4.0879891345975992e+00, 10., 10.,
             6.0471921084949658e+00, 10., 10., 9.9773629134040362e+00,
             10., 4.0510243225639995e+00, 10., 10., 10., 10.,
             5.2347213745200971e+00, 2.0004362265684761e+00, 10.,
             2.0006529614307902e+00, 3.9990450238602744e+00,
             1.9887162764525126e+00, 8.0201502824523558e+00,
             2.0004394873279545e+00, 2.0023796887577712e+00,
             5.9854155537570071e+00, 10., 7.9448051313191170e+00, 10.,
             10., 6.0487439994127641e+00, 2.0071867858529151e+00,
             2.0015374814373637e+00, 9.9439947246959086e+00, 10., 10.,
             10., 10., 10., 5.9979356137846596e+00, 10., 10.,
             9.9940673263310131e+00, 1.9881495860489919e+00, 10., 10.,
             10., 10., 4.0109709261952045e+00, 10.,
             2.0009700830039616e+00, 2.0005474144289264e+00, 10., 10.,
             2.0022526142852959e+00, 1.9985391264330725e+00, 10., 10.,
             1.9657498060365199e+00, 10., 6.0533143989762230e+00, 10.,
             2.0078222395085836e+00, 10., 7.4188423476118279e+00, 10.,
             10., 4.0727086888480226e+00, 10., 10.,
             5.9988994144494008e+00, 10., 3.9710996646138694e+00,
             4.0035328509069705e+00, 2.0064661298408928e+00,
             2.0001369032042224e+00, 8.0008812821769428e+00, 10., 10.,
             3.9938877111493745e+00, 10., 3.8667439899591405e+00,
             2.0011435129709092e+00, 1.9980903276469164e+00,
             7.9861770052617587e+00, 6.0075753798164033e+00, 10.,
             2.0019318446116601e+00, 9.9904366028340821e+00, 10.,
             2.0007522792190913e+00, 2.0016202748388539e+00,
             4.1224208258665209e+00, 10., 10., 10.,
             2.0061227290726014e+00, 10., 1.8005147623638884e+00,
             2.3598192753261209e+00, 6.0010650275014115e+00,
             3.9937521115848615e+00, 3.9592515835030948e+00, 10., 10.,
             10., 10., 2.0006385462700651e+00, 3.9949637276987096e+00,
             1.9987868103945561e+00, 4.0243164525082644e+00,
             5.9471608616325735e+00, 4.0066982436669125e+00, 10.,
             1.6364627722663474e+00, 3.9956289305131580e+00,
             1.6319959465692069e+00, 2.0008472455543513e+00,
             2.0126021419518545e+00, 3.9927626417859985e+00,
             2.0169110283221094e+00, 1.9996022059424150e+00,
             4.0150500199218406e+00, 4.0022836967050850e+00,
             1.9989654940719239e+00, 1.9711744481680322e+00,
             2.0005509175965730e+00, 2.0142706557653485e+00, 10.,
             2.0006690426836902e+00, 4.0010216312699036e+00, 10.,
             4.0156077044122345e+00, 10., 10., 10., 10.,
             1.9987828467379776e+00, 10., 2.0002741485234452e+00, 10.,
             8.0076781116429743e+00, 3.9815309840975033e+00,
             2.0028446744512172e+00, 10., 8.0134120232732364e+00, 10.,
             5.9994934783890184e+00, 3.8682346879611544e+00,
             2.0011844193104933e+00, 2.0006825977231597e+00, 10., 10.,
             10., 10., 10., 1.9918742708124264e+00,
             3.9935126465920883e+00, 1.9998553375748738e+00, 10., 10.,
             10., 10., 10., 10., 10., 10., 10., 10., 10., 10., 10.,
             8.4174867687690202e+00, 2.0134613679907041e+00, 10.,
             2.0023406247037059e+00, 8.0010427040896115e+00, 10.,
             1.9862544294170592e+00, 2.0033437812282266e+00, -10.,
             -4.0742747788425255e+00, -2.0016743626941342e+00, -10.,
             -9.7410609543569393e+00, -2.0046625575483792e+00, -10.,
             -1.9993242226991415e+00, -10., -10.,
             -3.9575188377329669e+00, -10., -10.,
             -2.0004555735269052e+00, -10., -10.,
             -3.9999346687027435e+00, -10., -4.0007255585976331e+00,
             -6.1634221811650614e+00, -5.8000651275400950e+00, -10.,
             -8.0176020110503412e+00, -10., -10., -10., -10., -10., -10.,
             -10., -10., -10., -10., -10., -10., -10.,
             -6.0022644915744525e+00, -10., -10., -10., -10.,
             -1.9987538943318539e+00, -10., -10., -10., -10., -10.,
             -5.9981764874612526e+00, -10., -10.,
             -6.0029874637774387e+00, -4.0018130830293988e+00,
             -8.0069069728831774e+00, -6.0517422384680355e+00, -10.,
             -4.0010869303572161e+00, -1.9998156069176318e+00, -10.,
             -10., -10., -10., -2.0004715134918745e+00, -10.,
             -3.6811251992336014e+00, -10., -10., -10., -10., -10., -10.,
             -10., -10., -4.0060305351744461e+00, -10., -10., -10., -10.,
             -10., -10., -10., -9.9121941411317813e+00, -10., -10., -10.,
             -10., -10., -10., -8.0139605445256201e+00, -10., -10., -10.,
             -10., -10., -10., -10., -10., -10., -8.1019280925806800e+00,
             -10., -10., -2.0097821560274642e+00,
             -1.6364627722663474e+00, -10., -4.0100839015812699e+00,
             -2.0010022924893796e+00, -10., -10., -10., -10., -10., -10.,
             -2.0141238349425654e+00, -10., -2.0217438267425565e+00,
             -10., -10., -4.0023916554346055e+00, -10.,
             -9.9813716205466729e+00, -4.1042797602616847e+00,
             -6.0240689391247031e+00, -3.8422310502142309e+00, -10.,
             -6.7067604447788396e+00, -10., -10., -10., -10., -10., -10.,
             -10., -10., -10., -10., -10., -7.8630857629141406e+00, -10.,
             -10., -3.5521990100953955e+00, -1.8676068265609391e+00,
             -10., -10., -10., -10., -10., -10., -4.0013930578162000e+00,
             -4.0005140816866280e+00, -2.0279756311971644e+00, -10.,
             -10., -10., -10., -10., -8.0013062960074741e+00, -10., -10.,
             -4.0720134882750898e+00, -10., -10., -10., -10.,
             -3.9979944511511318e+00, -6.1865557007808576e+00,
             -2.0005263554827866e+00, -10., -10.,
             -9.7053764401369325e+00, -10., -10.,
             -1.9999148694134588e+00, -10., -10.,
             -7.9366959968741924e+00, -10., -10., -10.,
             -7.9992212406640970e+00, -10., -10., -10.,
             -8.0067528699216322e+00, -10., -10.,
             -8.0034858064358048e+00, -10., -10.,
             -1.9881495860489919e+00, -10., -10., -10., -10.,
             -2.0013264633079433e+00, -10., -8.0043692505703437e+00,
             -10., -5.8872231336661427e+00, -3.9980223722993751e+00,
             -10., -10., -10., -3.4070690865058202e+00,
             -2.0000015067177404e+00, -10., -3.9824378850853384e+00,
             -3.9907159721862842e+00, -2.0061227290726014e+00, -10.,
             -1.9998538017397147e+00, -10. ]
         index: [ 0, 1, 2, 3, 4, 5, 6, 7, 8, 9, 10, 11, 12, 13, 14, 15,
             16, 17, 18, 19, 20, 21, 22, 23, 24, 25, 26, 27, 28, 29, 30,
             31, 32, 33, 34, 35, 36, 37, 38, 39, 40, 41, 42, 43, 44, 45,
             46, 47, 48, 49, 50, 51, 52, 53, 54, 55, 56, 57, 58, 59, 60,
             61, 62, 63, 64, 65, 66, 67, 68, 69, 70, 71, 72, 73, 74, 75,
             76, 77, 78, 79, 80, 81, 82, 83, 84, 85, 86, 87, 88, 89, 90,
             91, 92, 93, 94, 95, 96, 97, 98, 99, 100, 101, 102, 103, 104,
             105, 106, 107, 108, 109, 110, 111, 112, 113, 114, 115, 116,
             117, 118, 119, 120, 121, 122, 123, 124, 125, 126, 127, 128,
             129, 130, 131, 132, 133, 134, 135, 136, 137, 138, 139, 140,
             141, 142, 143, 144, 145, 146, 147, 148, 149, 150, 151, 152,
             153, 154, 155, 156, 157, 158, 159, 160, 161, 162, 163, 164,
             165, 166, 167, 168, 169, 170, 171, 172, 173, 174, 175, 176,
             177, 178, 179, 180, 181, 182, 183, 184, 185, 186, 187, 188,
             189, 190, 191, 192, 193, 194, 195, 196, 197, 198, 199, 200,
             201, 202, 203, 204, 205, 206, 207, 208, 209, 210, 211, 212,
             213, 214, 215, 216, 217, 218, 219, 220, 221, 222, 223, 224,
             225, 226, 227, 228, 229, 230, 231, 232, 233, 234, 235, 236,
             237, 238, 239, 240, 241, 242, 243, 244, 245, 246, 247, 248,
             249, 250, 251, 252, 253, 254, 255, 256, 257, 258, 259, 260,
             261, 262, 263, 264, 265, 266, 267, 268, 269, 270, 271, 272,
             273, 274, 275, 276, 277, 278, 279, 280, 281, 282, 283, 284,
             285, 286, 287, 288, 289, 290, 291, 292, 293, 294, 295, 296,
             297, 298, 299, 300, 301, 302, 303, 304, 305, 306, 307, 308,
             309, 310, 311, 312, 313, 314, 315, 316, 317, 318, 319, 320,
             321, 322, 323, 324, 325, 326, 327, 328, 329, 330, 331, 332,
             333, 334, 335, 336, 337, 338, 339, 340, 341, 342, 343, 344,
             345, 346, 347, 348, 349, 350, 351, 352, 353, 354, 355, 356,
             357, 358, 359, 360, 361, 362, 363, 364, 365, 366, 367, 368,
             369, 370, 371, 372, 373, 374, 375, 376, 377, 378, 379, 380,
             381, 382, 383, 384, 385, 386, 387, 388, 389, 390, 391, 392,
             393, 394, 395, 396, 397, 398, 399, 400, 401, 402, 403, 404,
             405, 406, 407, 408, 409, 410, 411, 412, 413, 414, 415, 416,
             417, 418, 419, 420, 421, 422, 423, 424, 425, 426, 427, 428,
             429, 430, 431, 432, 433, 434, 435, 436, 437, 438, 439, 440,
             441, 442, 443, 444, 445, 446, 447, 448, 449, 450, 451, 452,
             453, 454, 455, 456, 457, 458, 459, 460 ]
...
---
training_mat: !!opencv-matrix
   rows: 1100
   cols: 3
   dt: f
   data: [ -6.82470016e-03, 6.85570017e-02, 1.30570002e+01,
       -1.72680002e-02, 9.09160003e-02, 8.90713596e+00, -6.70849998e-03,
       7.61817992e-02, 9.44842529e+00, 1.42440004e-02, 1.15454003e-01,
       1.56352491e+01, 2.76500005e-02, 1.03845999e-01, 7.25552988e+00,
       2.44820006e-02, 1.05705000e-01, 7.58964777e+00, 1.40629997e-02,
       5.17020002e-02, 7.66777277e+00, 3.23630013e-02, 1.17009997e-01,
       1.21134968e+01, -2.84439996e-02, 1.10331997e-01, 7.95479584e+00,
       1.59549993e-02, 7.62879997e-02, 1.22379303e+01, 1.24840001e-02,
       6.63520023e-02, 2.07435360e+01, -7.21400008e-02, 1.64959997e-01,
       5.94180679e+00, 3.71850003e-03, 4.87379991e-02, 1.45509996e+01,
       1.29739996e-02, 6.36309981e-02, 8.85909557e+00, -2.02769991e-02,
       1.00525998e-01, 1.03837271e+01, 1.77420005e-02, 7.10910037e-02,
       1.48616428e+01, -1.36810001e-02, 9.35809985e-02, 1.07495432e+01,
       -7.18759978e-03, 9.12059993e-02, 1.16009998e+01, 8.99299979e-04,
       7.02299997e-02, 1.88080006e+01, 1.52650001e-02, 6.83640018e-02,
       1.24102077e+01, -1.28522797e+01, 9.54570007e+00, 9.39530015e-01,
       -4.11179990e-01, 3.85589987e-01, 5.11885023e+00, -3.28428307e+01,
       2.42717609e+01, 6.63940012e-01, -7.30168304e+01, 5.38153381e+01,
       3.82829994e-01, -3.83029997e-01, 3.73070002e-01, 5.11640978e+00,
       -1.16260000e-01, 1.60699993e-01, 8.83232021e+00, -9.49729979e-02,
       1.00663997e-01, 5.00590181e+00, -2.03840006e-02, 8.12949985e-02,
       1.86939125e+01, -8.15370008e-02, 1.44839004e-01, 8.46910858e+00,
       -2.74329990e-01, 3.01930010e-01, 5.41582012e+00, -5.85809983e-02,
       1.78516001e-01, 1.03765583e+01, -5.48649989e-02, 1.45411998e-01,
       1.09718943e+01, -4.65790004e-01, 4.32790011e-01, 5.17996979e+00,
       7.85529986e-03, 9.22989994e-02, 1.66980000e+01, -4.72840015e-03,
       4.61370014e-02, 1.96170006e+01, -2.27850005e-01, 2.49469995e-01,
       5.01122999e+00, -3.12120002e-03, 6.56080022e-02, 1.82310009e+01,
       -2.29680002e-01, 2.28180006e-01, 5.00566006e+00, -2.53749996e-01,
       2.46399999e-01, 5.00827980e+00, 1.00659998e-02, 9.11630020e-02,
       1.91928749e+01, -8.42920039e-03, 7.51179978e-02, 1.21599998e+01,
       -7.42649985e-03, 7.81750008e-02, 1.13669996e+01, 2.02750005e-02,
       1.08398996e-01, 1.05270720e+01, -3.91889997e-02, 1.38872996e-01,
       6.96646118e+00, 1.22619998e-02, 8.57919976e-02, 1.50304060e+01,
       -8.81339982e-03, 1.00890003e-01, 1.42740002e+01, 1.82729997e-02,
       9.29630026e-02, 1.22255459e+01, -4.73379996e-03, 6.66109994e-02,
       1.55150003e+01, 1.20150000e-02, 7.74670020e-02, 1.42874641e+01,
       1.14350002e-02, 7.73610026e-02, 1.45145807e+01, 1.10269999e-02,
       9.54300016e-02, 1.61780586e+01, 1.04400003e-02, 9.25149992e-02,
       1.56306210e+01, 1.23650003e-02, 7.46359974e-02, 1.41629038e+01,
       2.02360004e-02, 1.09552003e-01, 1.25104055e+01, 1.95739996e-02,
       1.03836000e-01, 1.23993378e+01, 1.58539992e-02, 9.64789987e-02,
       1.82741852e+01, 1.53569998e-02, 1.00483000e-01, 1.13016768e+01,
       -1.55670000e-02, 1.01994999e-01, 1.38849936e+01, 1.08019998e-02,
       7.40289986e-02, 1.46684942e+01, 1.02620004e-02, 7.50529990e-02,
       1.45986261e+01, 6.92210020e-03, 1.20690003e-01, 1.32469997e+01,
       -6.45140000e-03, 1.31640002e-01, 1.10310001e+01, 1.69699993e-02,
       1.40226007e-01, 1.41050396e+01, 4.00219997e-03, 1.15960002e-01,
       1.58889999e+01, 1.31679997e-02, 1.18372999e-01, 1.43803434e+01,
       1.14580002e-02, 1.27052993e-01, 1.35994272e+01, -2.98379990e-03,
       1.18380003e-01, 1.11750002e+01, -9.32260044e-03, 1.29570007e-01,
       1.39020004e+01, -6.84029981e-03, 1.44830003e-01, 1.26700001e+01,
       1.36639997e-02, 9.62840021e-02, 1.31212263e+01, 1.57069992e-02,
       1.00897998e-01, 1.21808443e+01, 3.27179991e-02, 1.28197998e-01,
       9.21423817e+00, 2.28659995e-03, 1.44539997e-01, 1.15790005e+01,
       9.09129996e-03, 1.40870005e-01, 1.06120005e+01, 6.93419995e-03,
       9.32430029e-02, 1.37830000e+01, -1.96189992e-02, 1.08418003e-01,
       1.16093655e+01, -1.35490000e-02, 7.92720020e-02, 1.14948921e+01,
       -4.50390019e-02, 1.38325006e-01, 6.79574394e+00, -5.10969991e-03,
       6.32940009e-02, 1.01309996e+01, 7.01860012e-03, 1.11780003e-01,
       1.16899996e+01, -5.73083801e+01, 4.22096214e+01, 2.52640009e-01,
       -2.04400003e-01, 2.16159999e-01, 5.00955009e+00, -3.46032219e+01,
       2.55547504e+01, 4.72750008e-01, -4.14320007e-02, 9.98390019e-02,
       1.28820677e+01, -1.20040001e-02, 6.12590015e-02, 1.56301508e+01,
       -6.44318008e+00, 4.78637981e+00, 5.57669997e-01, -2.66077099e+01,
       1.96630993e+01, 4.90069985e-01, -1.01490002e-02, 8.91859978e-02,
       2.00811710e+01, 1.77040007e-02, 8.64889994e-02, 1.56204386e+01,
       2.79560010e-03, 2.96769999e-02, 3.37760010e+01, -6.22850005e-03,
       6.30360022e-02, 2.89559994e+01, -1.62729993e-01, 1.48780003e-01,
       4.99921989e+00, -1.20674601e+01, 8.98394012e+00, 8.30770016e-01,
       -1.48420006e-01, 1.87419996e-01, 7.98161983e+00, -3.91278114e+01,
       2.89033699e+01, 5.97209990e-01, -4.73399997e-01, 4.07849997e-01,
       5.00485992e+00, -4.66320008e-01, 4.32179987e-01, 5.00333023e+00,
       -4.67222023e+00, 3.53892994e+00, 9.70979989e-01, -4.03590016e-02,
       5.85630015e-02, 5.00532389e+00, -5.16990013e-02, 1.33877993e-01,
       5.00910711e+00, 5.76880015e-03, 3.68180014e-02, 2.48040009e+01,
       -1.22020002e-02, 5.83700016e-02, 2.03473358e+01, -2.74390001e-02,
       8.48319978e-02, 1.51466799e+01, 1.65279992e-02, 5.44430017e-02,
       5.00986719e+00, -1.88260004e-02, 1.01437002e-01, 1.21791630e+01,
       1.04509897e+01, -7.65309000e+00, 4.37310010e-01, -1.85139999e-01,
       1.68870002e-01, 5.27554989e+00, 1.09230001e-02, 1.22130001e-02,
       4.99853897e+00, -4.78079987e+00, 3.58489990e+00, 1.38059998e+00,
       -1.49419993e-01, 1.85890004e-01, 5.58301020e+00, -9.30350018e+00,
       6.96560001e+00, 1.02680004e+00, -2.13159993e-01, 2.33559996e-01,
       5.15029001e+00, 1.44819999e-02, 1.01304002e-01, 1.52920618e+01,
       2.07480006e-02, 4.22759987e-02, 4.99875307e+00, -7.08137989e+00,
       5.23360014e+00, 2.25160003e-01, -1.26910896e+01, 9.40089035e+00,
       2.73669988e-01, 2.92375698e+01, -2.14696503e+01, 2.61070013e-01,
       5.17409993e-04, 7.93019980e-02, 1.90060005e+01, -1.30650001e-02,
       6.79450035e-02, 1.83311386e+01, -7.47189969e-02, 1.58224002e-01,
       9.51736259e+00, -3.16220000e-02, 9.26980004e-02, 7.98543501e+00,
       -4.35339995e-02, 1.67548999e-01, 1.18925257e+01, -3.47939990e-02,
       1.53564006e-01, 1.25184774e+01, -3.91159998e-03, 1.20949998e-01,
       1.85790005e+01, -1.31270001e-02, 1.32769004e-01, 1.71100044e+01,
       1.53160002e-02, 6.81539997e-02, 1.43851633e+01, -2.40099996e-01,
       2.54090011e-01, 5.01181984e+00, 2.51449998e-02, 1.25689000e-01,
       1.44383507e+01, -1.00999996e-02, 1.07276998e-01, 1.34316778e+01,
       -8.36379975e-02, 1.59316003e-01, 9.25826168e+00, -1.17513800e+01,
       8.77194977e+00, 9.02199984e-01, -1.37288303e+01, 1.02076502e+01,
       7.81870008e-01, -1.10490002e-01, 1.94989994e-01, 8.46512985e+00,
       -4.94420004e+00, 3.71190000e+00, 1.09899998e+00, 2.22810004e-02,
       8.81970003e-02, 1.66836720e+01, -1.06940001e-01, 1.59240007e-01,
       5.00550985e+00, 2.05760002e-02, 7.87789971e-02, 1.85590439e+01,
       -3.05739999e-01, 3.79649997e-01, 5.03373003e+00, -3.34229393e+01,
       2.47136402e+01, 5.46819985e-01, -6.53539971e-02, 1.58380002e-01,
       1.03496199e+01, -6.17052984e+00, 4.65893984e+00, 8.09499979e-01,
       1.97819993e-02, 2.83510005e-03, 5.00553036e+00, 9.91940033e-03,
       8.73550028e-03, 5.01151514e+00, -1.25850007e-01, 1.70660004e-01,
       5.01190996e+00, -7.98719978e+00, 5.91733980e+00, 6.09300017e-01,
       2.79609999e-03, -1.37449999e-03, 5.00591183e+00, -3.92843590e+01,
       2.89870205e+01, 3.17270011e-01, -3.42161217e+01, 2.52366104e+01,
       3.16810012e-01, -2.21275902e+01, 1.63851891e+01, 4.56779987e-01,
       -1.52749512e+02, 1.12534027e+02, 1.97809994e-01, -7.80579984e-01,
       6.71660006e-01, 2.52813005e+00, 2.36729998e-02, 8.19580033e-02,
       1.64530640e+01, 1.57069992e-02, 8.18070024e-02, 1.47470741e+01,
       -1.07340002e-02, 7.18349963e-02, 9.20987225e+00, 1.16710002e-02,
       5.96380010e-02, 1.58882141e+01, -1.38850899e+01, 1.03429203e+01,
       5.93299985e-01, -2.72070002e-02, 1.21535003e-01, 8.87716675e+00,
       -1.12836003e+00, 8.81179988e-01, 1.36300004e+00, -8.95479973e-03,
       7.93960020e-02, 1.01479998e+01, -3.33570018e-02, 1.15722001e-01,
       9.74208355e+00, 1.66800003e-02, 6.32089972e-02, 1.34400253e+01,
       -5.55345612e+01, 4.09316597e+01, 1.93259999e-01, 1.06679998e-01,
       8.97950027e-04, 5.00500011e+00, -1.26538401e+01, 9.37874031e+00,
       6.14210010e-01, 1.09482002e+01, -8.00065041e+00, 4.75140005e-01,
       9.56560019e-03, 3.37514989e-02, 5.00495243e+00, -1.68989506e+01,
       1.25871601e+01, 7.23240018e-01, 1.15722999e-01, -2.92290002e-02,
       4.47767496e+00, 9.05199814e+01, -6.65283890e+01, 1.08870000e-01,
       6.14168282e+01, -4.51669807e+01, 1.36529997e-01, 5.07620392e+01,
       -3.73075905e+01, 1.52970001e-01, 5.52968597e+01, -4.06301804e+01,
       1.35979995e-01, 2.57915993e+01, -1.89289398e+01, 1.73480004e-01,
       1.96950004e-01, -1.22979999e-01, 2.86443996e+00, 3.56515002e+00,
       -2.57695007e+00, 5.38349986e-01, 2.04389999e+02, -1.50330002e+02,
       8.31779987e-02, 3.08145809e+01, -2.26072292e+01, 1.90740004e-01,
       8.82304001e+00, -6.40006018e+00, 3.98669988e-01, 1.72468996e+00,
       -1.24693000e+00, 7.85780013e-01, 7.85400238e+01, -5.77449913e+01,
       1.20080002e-01, 2.05799993e-02, 6.56990036e-02, 1.26845503e+01,
       -2.33649999e-01, 2.35550001e-01, 4.99747992e+00, -4.37970012e-02,
       5.54459989e-02, 4.99826384e+00, 1.21505998e-01, -2.01469995e-02,
       5.00215197e+00, 3.34369987e-02, 4.68740016e-02, 4.99916315e+00,
       -5.11099994e-02, 8.19889978e-02, 4.99813700e+00, -1.60850003e-01,
       1.77049994e-01, 5.00329018e+00, -2.07359996e-02, 3.51010002e-02,
       4.99815178e+00, -3.61390002e-02, 3.09319999e-02, 4.99780321e+00,
       -6.33509979e-02, 7.63010010e-02, 4.99782181e+00, -3.42260003e-02,
       3.11149992e-02, 4.99754810e+00, 4.07039979e-03, 2.90130004e-02,
       2.20510006e+01, -1.92939997e-01, 1.73069999e-01, 4.99682999e+00,
       -3.97954903e+01, 2.95578804e+01, 8.98379982e-01, -1.87735195e+01,
       1.38481703e+01, 6.81110024e-01, -1.30820006e-01, 1.46259993e-01,
       6.53102016e+00, -2.12919995e-01, 1.92279994e-01, 5.16232014e+00,
       -3.41090012e+00, 2.54480004e+00, 1.55710006e+00, -3.02399993e-01,
       2.63309985e-01, 4.99697018e+00, -1.11860000e-01, 1.30239993e-01,
       7.18066978e+00, 2.40230002e-02, 9.24040005e-02, 8.00624847e+00,
       2.40749996e-02, 9.53489989e-02, 8.14729977e+00, 2.36399993e-02,
       7.46460035e-02, 6.14420223e+00, 3.10740005e-02, 7.99570009e-02,
       3.95405793e+00, 3.14910002e-02, 8.07129964e-02, 3.88625002e+00,
       1.25190001e-02, 1.38240993e-01, 1.50781918e+01, 7.01829977e-03,
       1.42269999e-01, 1.58030005e+01, -1.96300005e-03, 1.47469997e-01,
       1.24410000e+01, 1.25334993e-01, -5.18839993e-02, 5.00038004e+00,
       -6.42170012e-01, 6.09629989e-01, 5.16802979e+00, -3.62249985e-02,
       6.24600016e-02, 4.99812222e+00, 2.96020005e-02, 2.29150001e-02,
       4.99898720e+00, 4.57030982e-02, -4.93799988e-03, 5.00024939e+00,
       -9.78429988e-02, 8.83560032e-02, 4.99738503e+00, -2.06129998e-01,
       1.92619994e-01, 5.00848007e+00, -4.80960011e-01, 3.99650007e-01,
       4.99690008e+00, -4.41179991e-01, 3.69549990e-01, 4.99913979e+00,
       -1.48756399e+01, 1.09960299e+01, 8.91279995e-01, -1.71639994e-01,
       1.81649998e-01, 6.97680998e+00, -1.73570007e-01, 1.86240003e-01,
       6.46096992e+00, -1.11818004e+00, 9.72230017e-01, 3.38045001e+00,
       -1.14519997e-02, 1.28817007e-01, 1.57424154e+01, -1.70029998e-02,
       1.45271003e-01, 1.58193636e+01, -2.20489994e-01, 2.21399993e-01,
       6.27369022e+00, 2.38610003e-02, 1.07693002e-01, 1.54905272e+01,
       -5.67479990e-02, 1.37507007e-01, 1.13592844e+01, -3.58319990e-02,
       1.18674003e-01, 1.33396301e+01, -1.88669994e-01, 2.41410002e-01,
       6.69050980e+00, -4.94440012e-02, 1.02179997e-01, 1.00563869e+01,
       -2.47579999e-02, 8.22549984e-02, 1.32335939e+01, -2.38949992e-02,
       7.98799992e-02, 1.32854671e+01, -3.46510005e+00, 2.60910010e+00,
       1.16970003e+00, 1.32780001e-02, 7.45500028e-02, 1.76768799e+01,
       -1.55251198e+01, 1.15167103e+01, 8.02070022e-01, -3.78789997e+00,
       2.84699988e+00, 1.12720001e+00, -2.84929993e-05, 9.40719992e-02,
       1.54010000e+01, 1.63570009e-02, 1.07947998e-01, 1.74523220e+01,
       -6.37400001e-02, 1.40672997e-01, 1.00430746e+01, 6.86969981e-03,
       5.41730002e-02, 1.53100004e+01, 1.00330003e-02, 1.07323997e-01,
       1.97544861e+01, -1.84920002e-02, 1.10399000e-01, 1.61154041e+01,
       -1.26273712e+02, 9.30530167e+01, 3.48769993e-01, -1.21039000e+01,
       9.07839966e+00, 1.25670004e+00, -6.13000011e+00, 4.61999989e+00,
       1.44009995e+00, -9.78699970e+00, 7.27596998e+00, 9.10790026e-01,
       -2.91949987e-01, 2.71140009e-01, 4.99701023e+00, -2.09172192e+01,
       1.54408197e+01, 5.50369978e-01, -2.86969990e-01, 2.63309985e-01,
       4.99763012e+00, -1.58109993e-01, 1.58240005e-01, 4.99724007e+00,
       -3.31039995e-01, 3.48439991e-01, 5.10301018e+00, -2.99199998e-01,
       3.06980014e-01, 5.04443979e+00, 1.33490004e-02, 5.24200015e-02,
       1.67998753e+01, -2.76360005e-01, 2.86190003e-01, 5.02408981e+00,
       1.78120006e-02, 7.71000013e-02, 1.88901215e+01, 1.06290001e-02,
       4.78530005e-02, 1.96766186e+01, -1.02789998e-01, 1.35110006e-01,
       7.28732014e+00, -6.68490008e-02, 1.00381002e-01, 7.35576487e+00,
       -1.65792599e+01, 1.23517303e+01, 9.04160023e-01, -1.81630000e-01,
       1.94360003e-01, 5.00382996e+00, -2.02319995e-01, 2.30220005e-01,
       5.00577021e+00, -1.19850002e-01, 2.14379996e-01, 6.25268984e+00,
       -8.25039968e-02, 1.85996994e-01, 5.01010513e+00, -1.07784843e+02,
       7.95217896e+01, 2.58720011e-01, -5.15577888e+01, 3.81330795e+01,
       3.99340004e-01, -3.66066589e+01, 2.71335697e+01, 5.19439995e-01,
       -4.83242607e+01, 3.57079506e+01, 3.86139989e-01, -1.14189997e-01,
       3.03039998e-01, 5.63998985e+00, -5.81343117e+01, 4.29759598e+01,
       3.47629994e-01, 2.98299994e-02, 1.70751005e-01, 7.91541576e+00,
       -1.41325272e+02, 1.04172470e+02, 2.29709998e-01, 1.90779995e-02,
       1.89565003e-01, 1.12935457e+01, -7.76170008e-03, 1.64260000e-01,
       1.49879999e+01, 4.61270014e-04, 1.86340004e-01, 1.40340004e+01,
       1.94610003e-02, 1.82389006e-01, 1.36134176e+01, 1.22980000e-02,
       1.73163995e-01, 1.27211342e+01, 1.97340008e-02, 1.55673996e-01,
       1.34169521e+01, 2.13120002e-02, 1.34075999e-01, 1.20192842e+01,
       -1.54499998e-02, 1.63761005e-01, 1.26298552e+01, -8.92930012e-03,
       1.46679997e-01, 1.17410002e+01, 4.09450009e-03, 1.47349998e-01,
       1.27580004e+01, 1.33590000e-02, 8.31390023e-02, 1.42182484e+01,
       1.03780003e-02, 9.69310030e-02, 2.16131706e+01, 5.54080009e-02,
       1.88950002e-01, 6.23333788e+00, 7.38860015e-03, 5.65880015e-02,
       1.58490000e+01, 4.92300000e-03, 2.76929997e-02, 1.22110004e+01,
       2.23949999e-02, 9.99040008e-02, 9.77480316e+00, 1.56410001e-02,
       3.34420018e-02, 5.00294590e+00, 2.02610008e-02, 9.08590034e-02,
       8.89187717e+00, 6.70660008e-03, 7.50449970e-02, 1.30930004e+01,
       1.31139997e-02, 1.00079000e-01, 2.03317089e+01, 1.51490001e-02,
       9.38299969e-02, 2.13764191e+01, -1.38560003e-02, 1.08234003e-01,
       9.06756783e+00, -1.32285797e+02, 9.75139694e+01, 1.42159998e-01,
       -4.98540115e+01, 3.68814316e+01, 2.73160011e-01, 7.46259978e-03,
       6.33810014e-02, 1.37819996e+01, -3.45609989e-03, 8.58180001e-02,
       1.84750004e+01, -2.46750005e-02, 1.10105000e-01, 6.80564880e+00,
       2.12820005e-02, 9.17840004e-02, 9.27792072e+00, -3.98080014e-02,
       1.47211999e-01, 6.23431301e+00, -1.12910001e-02, 1.06325999e-01,
       9.86735725e+00, 7.00580003e-03, 5.01050018e-02, 1.61170006e+01,
       2.89520007e-02, 8.10189992e-02, 1.01445236e+01, 8.82180035e-03,
       5.14760017e-02, 17., 1.74230002e-02, 6.23559989e-02,
       1.07313128e+01, 9.39960033e-03, 4.30600010e-02, 1.14169998e+01,
       5.80180017e-03, 6.59509972e-02, 1.90259991e+01, 1.33440001e-02,
       5.63319996e-02, 1.04381819e+01, -4.14119996e-02, 8.11349973e-02,
       5.00287724e+00, -1.65317802e+01, 1.22213297e+01, 2.50319988e-01,
       1.05200000e-02, 6.77850023e-02, 1.21892862e+01, -1.36630004e-02,
       6.34730011e-02, 7.02437401e+00, 1.36949997e-02, 5.27620018e-02,
       8.01826668e+00, 1.37459999e-02, 4.63990010e-02, 7.01668978e+00,
       1.24369999e-02, 5.96470013e-02, 1.28110561e+01, 2.02300008e-02,
       8.34940001e-02, 1.02652607e+01, 1.52979996e-02, 8.39890018e-02,
       1.14168015e+01, 1.33870002e-02, 7.37759992e-02, 1.43696709e+01,
       8.96800030e-03, 7.39239976e-02, 1.94860001e+01, 1.71510000e-02,
       8.44980031e-02, 1.00021687e+01, 1.59729999e-02, 9.00470018e-02,
       1.23621531e+01, -5.95830011e+00, 4.53219986e+00, 1.65980005e+00,
       -3.11060011e-01, 2.86339998e-01, 4.99710989e+00, -1.04358702e+01,
       7.74202013e+00, 9.18290019e-01, -2.51839995e-01, 2.49210000e-01,
       6.12295008e+00, -1.92019999e-01, 2.30030000e-01, 5.95658016e+00,
       -2.83809993e-02, 8.65290016e-02, 1.73195515e+01, -5.49739981e+00,
       4.10540009e+00, 1.24670005e+00, -2.02370003e-01, 2.07650006e-01,
       5.48859978e+00, -3.24937515e+01, 2.40097809e+01, 5.52609980e-01,
       -8.48819986e-02, 1.10623002e-01, 5.00172806e+00, -2.97555199e+01,
       2.20140209e+01, 6.97340012e-01, -1.43150002e-01, 1.64489999e-01,
       5.00295019e+00, -9.18530002e-02, 9.98150036e-02, 5.00157595e+00,
       -3.65800001e-02, 6.45229965e-02, 5.00138712e+00, -2.31759995e-01,
       2.46779993e-01, 5.01120996e+00, 8.30840040e-03, 3.38280015e-02,
       1.43719997e+01, -2.38643494e+01, 1.76087303e+01, 3.75829995e-01,
       1.49992704e+01, -1.09842796e+01, 2.61099994e-01, -1.81233006e+01,
       1.33820400e+01, 4.81110007e-01, -3.87570000e+00, 2.92479992e+00,
       1.42820001e+00, 6.95470022e-03, 4.72869985e-02, 1.18669996e+01,
       9.22369957e-03, 8.72429982e-02, 1.54259996e+01, 6.65460015e-03,
       7.71500021e-02, 1.43850002e+01, 1.46399997e-02, 6.23279996e-02,
       8.62926769e+00, 1.50499996e-02, 7.50759989e-02, 9.93907833e+00,
       -6.24520006e-03, 8.56150016e-02, 1.27270002e+01, -9.30109993e-04,
       8.40580016e-02, 1.49499998e+01, 1.70830004e-02, 8.61949995e-02,
       1.02716503e+01, 1.58530008e-02, 5.59699982e-02, 7.49632597e+00,
       -2.87420005e-01, 2.60859996e-01, 4.99717999e+00, 2.25079998e-01,
       -1.30759999e-01, 5.00226021e+00, -1.64190598e+01, 1.21405897e+01,
       6.23019993e-01, -1.24030001e-01, 1.36419997e-01, 4.99743986e+00,
       -1.51730001e-01, 1.98339999e-01, 4.99870014e+00, -5.86690009e-02,
       8.76609981e-02, 4.99803209e+00, -2.06477108e+01, 1.52367802e+01,
       4.25049990e-01, -4.91512718e+01, 3.63053513e+01, 3.90320003e-01,
       -9.49135017e+00, 7.06006002e+00, 8.68539989e-01, 1.10320002e-02,
       9.69960019e-02, 1.52273607e+01, 2.30020004e+02, -1.69199997e+02,
       7.63010010e-02, -1.64550006e-01, 2.37739995e-01, 7.09956980e+00,
       -6.35320023e-02, 1.85012996e-01, 1.00500851e+01, -1.85169995e-01,
       2.71649987e-01, 7.44857979e+00, -2.12029994e-01, 3.02899987e-01,
       7.18734980e+00, -1.01910000e+01, 7.66160011e+00, 1.07009995e+00,
       -1.36230097e+01, 1.01365604e+01, 8.18499982e-01, -7.00180006e+00,
       5.22100019e+00, 1.09800005e+00, -1.01938000e+01, 7.58850002e+00,
       1.08780003e+00, -6.86524887e+01, 5.06686592e+01, 4.25440013e-01,
       -5.23589998e-02, 1.29906997e-01, 1.31041622e+01, -1.23805103e+01,
       9.23948002e+00, 9.21339989e-01, -2.36729994e-01, 2.73970008e-01,
       6.17105007e+00, -3.90569997e+00, 2.94689989e+00, 1.55050004e+00,
       -2.25445805e+01, 1.66996193e+01, 7.71860003e-01, -7.71269977e-01,
       7.00820029e-01, 3.74682999e+00, -1.82329006e+01, 1.35542097e+01,
       8.08189988e-01, -5.46480000e-01, 5.34720004e-01, 4.41099977e+00,
       -3.10900006e-02, 1.13638997e-01, 1.52300434e+01, -6.26580000e-01,
       5.92410028e-01, 4.11020994e+00, -1.94549993e-01, 2.45460004e-01,
       6.82366991e+00, -1.87775307e+01, 1.38922901e+01, 6.87650025e-01,
       -5.41067085e+01, 3.98711395e+01, 3.65559995e-01, -4.04559994e+00,
       3.04270005e+00, 1.39590001e+00, -7.94220018e+00, 5.91139984e+00,
       1.02610004e+00, -1.29645700e+01, 9.57791996e+00, 6.32570028e-01,
       -1.80429995e-01, 2.08519995e-01, 5.00426006e+00, -2.90019996e-02,
       2.78270002e-02, 4.99801493e+00, -1.79010004e-01, 2.08320007e-01,
       5.00425005e+00, -2.86480010e-01, 3.25769991e-01, 5.07474995e+00,
       1.66590009e-02, 5.53810000e-02, 1.09433470e+01, 1.71160009e-02,
       5.60620017e-02, 1.06685686e+01, -1.62816906e+01, 1.20889196e+01,
       6.92730010e-01, 2.21360009e-02, 8.65869969e-02, 1.18922558e+01,
       -1.98200002e-01, 2.20640004e-01, 5.00489998e+00, -4.32111893e+01,
       3.19256992e+01, 4.78960007e-01, -2.55699992e-01, 2.93220013e-01,
       5.03037977e+00, -2.99177303e+01, 2.21725292e+01, 5.34500003e-01,
       -1.41243576e+02, 1.04052757e+02, 2.64670014e-01, -3.94466782e+01,
       2.91564693e+01, 4.66129988e-01, -1.41120004e-03, 4.66432013e-02,
       4.99876070e+00, -5.16199017e+00, 3.83927989e+00, 4.17039990e-01,
       2.96930000e-02, 6.89610019e-02, 2.20346999e+00, 3.39340009e-02,
       -4.53699986e-03, 1.16800003e+01, -3.34385185e+01, 2.46394691e+01,
       1.75760001e-01, 1.07420003e-02, 3.67249995e-02, 6.84848118e+00,
       5.24879992e-02, 1.92060005e-02, 5.00412703e+00, 1.38181896e+01,
       -1.00827799e+01, 4.82800007e-01, 6.07989989e-02, 3.10859997e-02,
       4.99919415e+00, 1.12610003e-02, 1.21065997e-01, 1.19258051e+01,
       -1.59318800e+01, 1.18909302e+01, 8.76399994e-01, -4.94303894e+01,
       3.65558014e+01, 5.54310024e-01, -3.46549988e-01, 4.21539992e-01,
       6.34350014e+00, -9.31719989e-02, 2.00763002e-01, 8.36135006e+00,
       -5.85270002e-02, 2.00002000e-01, 9.39889812e+00, -2.65940011e-01,
       3.16720009e-01, 5.02648020e+00, -5.27359992e-02, 1.91499993e-01,
       9.23023319e+00, -2.43659993e-03, 1.89129993e-01, 1.14639997e+01,
       -4.14180011e-02, 1.90476999e-01, 1.04487495e+01, -4.57700007e-02,
       1.91136003e-01, 1.03903131e+01, -4.11529988e-02, 1.95139006e-01,
       9.72663403e+00, -2.53010005e-01, 2.29320005e-01, 4.99667978e+00,
       -2.77480006e+00, 2.10190010e+00, 1.73090005e+00, -4.33789998e-01,
       4.63679999e-01, 5.06739998e+00, 1.90239996e-02, 9.15979967e-02,
       2.12818947e+01, -4.36910003e-01, 4.83460009e-01, 5.06036997e+00,
       -1.48880005e-01, 1.82740003e-01, 6.51518011e+00, -1.13875504e+01,
       8.46372986e+00, 7.54809976e-01, -2.64364109e+01, 1.95664291e+01,
       6.01960003e-01, -2.20803604e+01, 1.63093796e+01, 4.50899988e-01,
       -1.89989999e-01, 2.09790006e-01, 5.00431013e+00, -8.33379999e-02,
       9.86619964e-02, 5.00569582e+00, -2.63009995e-01, 2.42090002e-01,
       4.99674988e+00, -2.91664696e+01, 2.15545406e+01, 4.79970008e-01,
       -8.99510011e-02, 1.49678007e-01, 8.77596188e+00, -2.63390005e-01,
       2.55219996e-01, 5.01019001e+00, -2.53360003e-01, 2.63170004e-01,
       6.06553984e+00, -5.97730018e-02, 1.54198006e-01, 1.08254566e+01,
       -3.94589990e-01, 3.71710002e-01, 5.18184996e+00, 1.55659998e-02,
       6.38180003e-02, 2.50627613e+01, -1.97740003e-01, 2.10710004e-01,
       5.05177021e+00, -2.30439994e-02, 1.03170998e-01, 1.09441547e+01,
       -7.05310032e-02, 1.13454998e-01, 8.36560059e+00, -1.21430000e-02,
       9.07580033e-02, 1.16607113e+01, -1.97219998e-01, 2.27339998e-01,
       5.01554012e+00, -5.02279997e+00, 3.77900004e+00, 1.15209997e+00,
       -3.88136711e+01, 2.86228905e+01, 4.18199986e-01, -4.88019995e-02,
       9.14330035e-02, 5.00226688e+00, -1.75352707e+01, 1.29714403e+01,
       5.11340022e-01, -4.75059991e-04, 3.83390002e-02, 5.00190020e+00,
       -2.31299996e-02, 8.09599981e-02, 5.00999880e+00, -3.39709991e-03,
       1.09970003e-01, 1.19899998e+01, -1.93120003e-01, 2.12870002e-01,
       5.00925016e+00, 9.99370031e-03, 4.20299992e-02, 1.33050003e+01,
       -1.15330003e-01, 1.40520006e-01, 5.22754002e+00, -8.83436012e+00,
       6.56748009e+00, 7.56160021e-01, -3.86910009e+00, 2.91700006e+00,
       1.10940003e+00, -1.60019994e-01, 2.00409994e-01, 5.40452003e+00,
       -2.39399999e-01, 2.84289986e-01, 5.02280998e+00, -9.48750041e-03,
       1.08259998e-01, 1.37250004e+01, 3.79389990e-03, 3.35199982e-02,
       2.73649998e+01, -1.41051224e+02, 1.03964111e+02, 3.03550005e-01,
       -1.89347992e+01, 1.40365696e+01, 6.88549995e-01, -1.74870491e+01,
       1.30171204e+01, 8.26200008e-01, -1.62756195e+01, 1.21184301e+01,
       8.13480020e-01, -4.12373009e+01, 3.04641094e+01, 4.77999985e-01,
       -2.67825108e+01, 1.98634701e+01, 6.15880013e-01, -1.47279556e+02,
       1.08520973e+02, 2.80739993e-01, -7.05340118e+01, 5.20648193e+01,
       4.09009993e-01, -2.61042194e+01, 1.93856392e+01, 7.26220012e-01,
       -1.09019463e+02, 8.03198166e+01, 2.87809998e-01, -8.72560024e+00,
       6.56790018e+00, 1.16299999e+00, -1.91060007e-01, 2.70980000e-01,
       7.17492008e+00, -8.70366821e+01, 6.42343292e+01, 4.30689991e-01,
       -6.12504387e+01, 4.52381706e+01, 4.82690006e-01, -7.15250015e+00,
       5.38439989e+00, 1.19770002e+00, -1.53489599e+01, 1.14481602e+01,
       8.98819983e-01, -3.22299987e-01, 3.87789994e-01, 5.94511986e+00,
       -3.54114609e+01, 2.61615791e+01, 4.69740003e-01, -3.29040003e+00,
       2.56850004e+00, 1.93390000e+00, -1.61650002e-01, 2.60049999e-01,
       6.51376009e+00, 1.34739997e-02, 8.06740001e-02, 2.02306881e+01,
       8.70219991e-03, 8.50140005e-02, 2.84470005e+01, 1.14000002e-02,
       8.59510005e-02, 2.53771343e+01, 1.44490004e-02, 7.01569989e-02,
       1.64681664e+01, 1.11379996e-02, 8.13700035e-02, 1.85629368e+01,
       1.50170000e-02, 9.68519971e-02, 2.02522030e+01, 1.03829997e-02,
       4.97759990e-02, 1.32080841e+01, 1.25390003e-02, 4.90970016e-02,
       1.41493988e+01, -1.15999997e-01, 1.55540004e-01, 5.74772978e+00,
       1.09449998e-02, 3.94579992e-02, 1.46576090e+01, 1.01950001e-02,
       6.34490028e-02, 1.46151962e+01, -7.46699989e-01, 6.68240011e-01,
       2.29420996e+00, -1.55480001e-02, 1.12689003e-01, 1.17576694e+01,
       1.58920009e-02, 7.84709975e-02, 1.26054020e+01, 2.65110005e-02,
       1.05113998e-01, 1.13953505e+01, 1.04879998e-02, 1.03444003e-01,
       1.22620926e+01, -6.02619982e+00, 4.56440020e+00, 1.09249997e+00,
       -3.22710007e-01, 3.96210015e-01, 5.03156996e+00, -8.71472778e+01,
       6.42609100e+01, 2.81500012e-01, -3.21350008e-01, 3.95429999e-01,
       5.03142023e+00, 5.34979999e-02, 1.38567001e-01, 4.04231787e+00,
       3.77390012e-02, 1.15789004e-01, 6.91025019e+00, 3.61200012e-02,
       9.89369974e-02, 4.99831486e+00, -1.10760003e-01, 1.71189994e-01,
       3.58599997e+00, 1.61909997e-01, -1.10730000e-01, 5.18948984e+00,
       1.16964397e+01, -8.55434990e+00, 6.45839989e-01, 1.75180003e-01,
       -1.00290000e-01, 7.58655977e+00, 2.05476001e-01, -9.89110023e-02,
       8.97174168e+00, 1.64706007e-01, -9.98879969e-02, 1.30050554e+01,
       1.92420006e-01, -3.90309989e-02, 1.05824270e+01, 1.43020004e-01,
       2.16359999e-02, 8.52232456e+00, 2.64079999e-02, 1.08381003e-01,
       4.99641180e+00, 4.15530019e-02, 1.28350005e-01, 6.89244413e+00,
       2.50049997e-02, 1.25536993e-01, 1.06589956e+01, 2.73920000e-02,
       1.60956994e-01, 1.03588409e+01, 1.84000004e-02, 1.11208998e-01,
       1.23784952e+01, 7.19169993e-03, 1.27900004e-01, 1.26590004e+01,
       2.21960004e-02, 1.66451007e-01, 1.47605419e+01, 2.59210002e-02,
       1.63126007e-01, 1.19677582e+01, 1.43980002e-02, 1.29345000e-01,
       1.29939098e+01, -4.05580014e-01, 3.67500007e-01, 5.19101000e+00,
       -1.18460000e-01, 1.55239999e-01, 8.08703041e+00, -2.61784000e+01,
       1.93555698e+01, 6.76349998e-01, -1.93419997e-02, 6.27729967e-02,
       1.76549187e+01, -3.60440903e+01, 2.66116905e+01, 4.34159994e-01,
       -3.09139997e-01, 3.02870005e-01, 5.03892994e+00, -4.10780013e-01,
       3.51880014e-01, 4.99856997e+00, -2.79421005e+01, 2.06151104e+01,
       3.91530007e-01, -1.04670003e-01, 1.29140005e-01, 4.99861002e+00,
       -2.22709503e+01, 1.64441395e+01, 3.06629986e-01, -3.01779008e+00,
       2.28987002e+00, 8.80309999e-01, 9.64690000e-02, -3.74049991e-02,
       5.00512409e+00, -1.43951597e+01, 1.06885204e+01, 6.98450029e-01,
       1.31550003e-02, 8.30539986e-02, 1.59693022e+01, -2.29210004e-01,
       2.52429992e-01, 5.01756001e+00, -7.54272308e+01, 5.55832100e+01,
       3.06300014e-01, -2.34803505e+01, 1.73233109e+01, 4.64150012e-01,
       -2.90560007e-01, 2.84029990e-01, 5.25071001e+00, -1.38789997e-01,
       1.33059993e-01, 4.99827003e+00, -2.92719990e-01, 2.89600015e-01,
       5.25488997e+00, -9.21479988e+00, 6.88789988e+00, 1.09280002e+00,
       -4.15862198e+01, 3.06776409e+01, 4.16929990e-01, -8.11159983e-02,
       1.35728002e-01, 8.18527508e+00, -3.60479988e-02, 1.25966996e-01,
       1.10481148e+01, -6.50152206e+01, 4.78924789e+01, 2.96609998e-01,
       -2.44840002e+00, 1.88919997e+00, 1.75129998e+00, -5.34190014e-02,
       1.49445996e-01, 1.20414743e+01, -2.06460003e-02, 1.01129003e-01,
       1.69013863e+01, -5.86319994e-03, 7.25769997e-02, 2.28349991e+01,
       -2.67579989e-03, 9.83740017e-02, 1.46859999e+01, 2.55499996e-04,
       1.23580001e-01, 1.57530003e+01, -7.37119988e-02, 1.95611000e-01,
       1.14337177e+01, 1.06739998e-02, 7.03269988e-02, 1.65104713e+01,
       6.90349983e-03, 8.61509964e-02, 1.43149996e+01, -5.67959994e-02,
       2.17552006e-01, 1.35898323e+01, -2.24990007e-02, 1.71114996e-01,
       1.24478064e+01, 2.20320001e-02, 1.32394999e-01, 1.33633900e+01,
       4.32870016e-02, 1.32882997e-01, 1.81153545e+01, 1.80549994e-02,
       1.13082998e-01, 1.09534674e+01, -2.41839997e-02, 1.46973997e-01,
       1.40584669e+01, 2.34599994e-03, 9.38550010e-02, 1.81739998e+01,
       8.74840003e-03, 1.13799997e-01, 1.77649994e+01, -3.79020013e-02,
       1.49196997e-01, 1.16971741e+01, -3.26640010e-01, 3.55040014e-01,
       5.10581017e+00, -2.10260004e-01, 2.56879985e-01, 6.17490005e+00,
       -3.30190003e-01, 3.57069999e-01, 5.02852011e+00, -7.06340000e-02,
       2.36995995e-01, 1.25289726e+01, -3.79779994e-01, 4.98679996e-01,
       6.63894987e+00, -8.29840004e-01, 6.97269976e-01, 5.19315004e+00,
       -6.08410016e-02, 1.94777995e-01, 1.59943876e+01, -5.09780012e-02,
       1.64516002e-01, 1.68030605e+01, -4.50089991e-01, 4.69709992e-01,
       6.67635012e+00, -1.00326004e+01, 7.54239988e+00, 1.46840000e+00,
       -6.07159995e-02, 2.37929001e-01, 1.35717201e+01, -7.40840018e-01,
       7.02130020e-01, 5.57772017e+00, -6.20499998e-02, 2.41341993e-01,
       1.44892998e+01, -2.54519992e-02, 1.81097999e-01, 1.61462498e+01,
       -1.49242401e+01, 1.10980902e+01, 9.71949995e-01, -4.11711197e+01,
       3.04717197e+01, 6.65340006e-01, -8.54591675e+01, 6.29999619e+01,
       3.86979997e-01, 1.83290001e-02, 6.24459982e-02, 2.06754036e+01,
       -1.99699998e-01, 2.16979995e-01, 5.00951004e+00, 8.94109998e-03,
       5.27309999e-02, 2.46620007e+01, -1.32560000e-01, 1.68270007e-01,
       6.56579018e+00, 2.88399998e-02, 1.84250008e-02, 5.00483799e+00,
       -1.27990007e-01, 1.18749999e-01, 5.22484016e+00, 9.86669958e-03,
       5.37309982e-02, 2.42409992e+01, 8.24739970e-03, 5.06020002e-02,
       2.63670006e+01, 9.21769999e-03, 5.26009984e-02, 2.33630009e+01,
       1.03420001e-02, 5.30660003e-02, 3.12134342e+01, 2.68810000e-02,
       6.71240017e-02, 2.48212471e+01, 8.73520039e-03, 5.08630015e-02,
       2.55419998e+01, 7.42670009e-03, 5.79140000e-02, 3.53089981e+01,
       1.45659996e-02, 7.06759989e-02, 2.10483360e+01, 6.76969998e-03,
       5.31480014e-02, 2.77070007e+01, 9.21429973e-03, 5.23740016e-02,
       2.51380005e+01, -3.96300006e+00, 2.99530005e+00, 1.19809997e+00,
       8.17899965e-03, 5.25930002e-02, 2.04890003e+01, -2.26370001e+00,
       1.76199996e+00, 1.47700000e+00, -1.86550006e-01, 2.11099997e-01,
       5.00901985e+00, -1.47356195e+01, 1.09731302e+01, 8.42379987e-01,
       -4.47060013e+00, 3.37159991e+00, 1.21800005e+00, -1.67630002e-01,
       2.50360012e-01, 7.25278997e+00, -5.21529987e-02, 1.83185995e-01,
       1.30294790e+01, -4.12299991e-01, 4.49460000e-01, 5.67107010e+00,
       4.62596989e+00, -3.32385993e+00, 4.51620013e-01, 1.19050003e+02,
       -8.75400009e+01, 9.93229970e-02, 4.73329984e-02, 8.51909965e-02,
       2.13020897e+01, -6.81406326e+01, 5.02966995e+01, 4.38479990e-01,
       -5.43719972e-04, 1.26369998e-01, 2.28369999e+01, 1.21339997e-02,
       6.90139979e-02, 1.78663960e+01, 2.01169997e-02, 1.07399002e-01,
       1.52023420e+01, 2.29989998e-02, 9.25339982e-02, 1.56033983e+01,
       3.07770004e-03, 8.32189992e-02, 2.38139992e+01, 3.38499993e-02,
       1.28122002e-01, 1.21762218e+01, 1.17410002e-02, 7.02390000e-02,
       2.61291866e+01, -4.20677910e+01, 3.10957108e+01, 5.74590027e-01,
       1.33090001e-02, 9.74090025e-02, 2.36457157e+01, -1.65150002e-01,
       2.54159987e-01, 7.50925016e+00, -1.56519994e-01, 2.61759996e-01,
       7.84519005e+00, -1.29015999e+01, 9.54010010e+00, 6.97160006e-01,
       -2.72679999e-02, 9.52790007e-02, 1.10329266e+01, -3.94559987e-02,
       1.02357000e-01, 8.62677765e+00, -6.10430017e-02, 1.48952007e-01,
       1.04236374e+01, 1.99020002e-02, 6.62930012e-02, 1.02295036e+01,
       -3.06439996e-01, 2.99479991e-01, 5.03528023e+00, -1.66859999e-01,
       2.13159993e-01, 6.65132999e+00, -2.73269992e-02, 1.13256000e-01,
       1.36991529e+01, -7.27159977e+00, 5.47100019e+00, 1.29030001e+00,
       5.26779983e-03, 1.19570002e-01, 1.32939997e+01, 1.70440003e-02,
       1.04755998e-01, 1.70028973e+01, -9.55080017e-02, 1.56588003e-01,
       8.13694763e+00, -4.36815681e+01, 3.22343483e+01, 4.79790002e-01,
       -4.05480014e-03, 9.23779979e-02, 1.69400005e+01, -2.96929985e-01,
       3.05949986e-01, 5.41451979e+00, -6.83696136e+01, 5.04148903e+01,
       2.90989995e-01, -1.03940003e-01, 1.53669998e-01, 5.56904984e+00,
       -6.51719987e-01, 5.42230010e-01, 3.05513000e+00, -2.16232204e+01,
       1.59901400e+01, 5.22069991e-01, -1.41819999e-01, 1.59410000e-01,
       5.32746983e+00, -2.28768005e+01, 1.69804497e+01, 6.92070007e-01,
       -4.93788109e+01, 3.64724693e+01, 4.31380004e-01, -1.07663698e+01,
       8.04269981e+00, 9.65669990e-01, -9.85939980e+00, 7.38220978e+00,
       9.85949993e-01, -2.07479998e-01, 2.05200002e-01, 5.00415993e+00,
       -2.84246807e+01, 2.10496101e+01, 6.15719974e-01, -2.52119988e-01,
       2.40290001e-01, 5.00726986e+00, -2.78600007e-01, 2.82339990e-01,
       5.02145004e+00, -6.44259977e+00, 4.84030008e+00, 1.28400004e+00,
       -1.71700001e-01, 1.83860004e-01, 5.03340006e+00, 1.25590002e-03,
       6.00979999e-02, 1.77390003e+01, -1.95610002e-01, 2.80640006e-01,
       7.23753977e+00, 1.16760004e-02, 5.53000011e-02, 1.75737038e+01,
       1.15130004e-02, 4.28019986e-02, 1.37334099e+01, 1.58280004e-02,
       6.40420020e-02, 1.41715269e+01, -3.55870016e-02, 4.13599983e-02,
       5.00206518e+00, -7.56635895e+01, 5.57445793e+01, 3.47510010e-01,
       -1.32953796e+01, 9.85801983e+00, 8.05890024e-01, 1.46660004e-02,
       5.26739992e-02, 1.98163052e+01, 1.25165300e+01, -9.14768982e+00,
       4.47259992e-01, -3.28099996e-01, 3.00619990e-01, 5.16335011e+00,
       4.59770020e-03, -2.89259991e-03, 4.99843264e+00, -3.00040007e-01,
       2.75909990e-01, 5.33900976e+00, -6.18719995e-01, 5.17660022e-01,
       5.03945017e+00, -2.00556297e+01, 1.47919197e+01, 6.58219993e-01,
       -5.84140003e-01, 4.87019986e-01, 5.02503014e+00, -3.21550012e-01,
       3.18030000e-01, 6.06345987e+00, -4.33447495e+01, 3.19406700e+01,
       5.34659982e-01, -7.69500017e+00, 5.75519991e+00, 1.64030004e+00,
       -3.20024910e+01, 2.36338406e+01, 7.81180024e-01, -5.42320013e-01,
       4.76810008e-01, 5.02807999e+00, -4.59190011e-01, 4.26560014e-01,
       5.01379013e+00, -3.30680013e-01, 3.21749985e-01, 4.99954987e+00,
       -1.88299999e-01, 2.04630002e-01, 4.99779987e+00, -5.28490410e+01,
       3.89505386e+01, 5.62990010e-01, -6.90795364e+01, 5.08942604e+01,
       4.37519997e-01, -4.45910007e-01, 4.00200009e-01, 5.00555992e+00,
       -5.78800011e+00, 4.30620003e+00, 1.02479994e+00, -3.35973587e+01,
       2.47867699e+01, 6.32600009e-01, -1.36654301e+01, 1.01178398e+01,
       9.57750022e-01, -3.81410010e-02, 3.67010012e-02, 4.99504089e+00,
       -2.02940002e-01, 1.82439998e-01, 5.00509977e+00, -1.60009995e-01,
       1.73920006e-01, 4.99829006e+00, -5.76729998e-02, 6.69699982e-02,
       4.99801016e+00, -1.71650007e-01, 1.83080003e-01, 4.99806976e+00,
       -1.11129999e-01, 1.08680002e-01, 4.99841976e+00, -2.85879999e-01,
       2.66189992e-01, 4.99699020e+00, -1.36130005e-01, 1.52700007e-01,
       6.61880016e+00, -3.83400993e+01, 2.82739201e+01, 4.52840000e-01,
       -1.18600003e-01, 1.07179999e-01, 4.99825001e+00, -2.23069996e-01,
       1.99469998e-01, 4.99684000e+00, -1.42959997e-01, 1.58519998e-01,
       6.60988998e+00, -1.50571003e+01, 1.11368799e+01, 6.79539979e-01,
       1.43130003e-02, 1.00468002e-01, 1.78047562e+01, -1.37559995e-01,
       1.54320002e-01, 6.69378996e+00, -4.32900012e-01, 3.98009986e-01,
       5.00129986e+00, -3.30220014e-01, 3.07130009e-01, 4.99763012e+00,
       2.55890004e-03, 3.60199995e-02, 4.94350014e+01, -2.58430000e-02,
       2.33849995e-02, 4.99798918e+00, -1.83049999e-02, 1.53719997e-02,
       4.99812603e+00, -1.14799999e-01, 1.53150007e-01, 5.44682980e+00,
       1.26620000e-02, 6.37520030e-02, 1.63505554e+01, -7.52110034e-02,
       1.23857997e-01, 6.36622906e+00, 7.94329960e-03, 5.21420017e-02,
       2.23279991e+01, 1.76100004e-02, 6.64189979e-02, 1.21537437e+01,
       -9.18779969e-02, 1.27497002e-01, 5.45974112e+00, -8.34079981e-02,
       1.41528994e-01, 6.70931005e+00, -2.83179991e-02, 1.05374999e-01,
       9.94153881e+00, 9.29480046e-03, 5.10150008e-02, 2.36660004e+01,
       1.37860002e-02, 4.38029990e-02, 2.26781578e+01, 9.78599954e-03,
       6.61960021e-02, 1.93630009e+01, -4.69899997e-02, 7.99980015e-02,
       7.15343714e+00, -1.11160000e-04, 5.75659983e-02, 1.69069996e+01,
       1.40530001e-02, 7.47400001e-02, 2.38506413e+01, 1.19759999e-02,
       7.67349973e-02, 2.24953365e+01, 1.18600000e-02, 5.20149991e-02,
       1.73020172e+01, -9.40010026e-02, 1.24346003e-01, 5.64790010e+00,
       1.17360000e-02, 7.48810023e-02, 2.15859146e+01, -6.47010002e-03,
       6.93489984e-02, 1.48680000e+01, 1.07589997e-02, 5.12290001e-02,
       1.43020573e+01, -3.86589989e-02, 1.58697993e-01, 9.32648563e+00,
       -4.07389998e-02, 1.68365002e-01, 1.02356272e+01, 2.31769998e-02,
       9.69280005e-02, 1.19184351e+01, -2.36540005e-01, 2.94169992e-01,
       5.01941013e+00, -3.86429988e-02, 1.43132001e-01, 1.04428253e+01,
       -3.61220002e-01, 3.96439999e-01, 5.03377008e+00, -6.18739985e-02,
       1.83266997e-01, 9.75925922e+00, -3.26609999e-01, 3.75039995e-01,
       5.02989006e+00, -8.92693996e+00, 6.68751001e+00, 9.93359983e-01,
       -4.15453300e+01, 3.06476707e+01, 3.93730015e-01, -1.20753298e+01,
       9.00242996e+00, 8.49669993e-01, -6.77450001e-03, 1.14340000e-01,
       1.18409996e+01, -2.00709999e-02, 9.74180028e-02, 1.08960629e+01,
       -1.17796204e+02, 8.68036499e+01, 2.68830001e-01, -4.37470512e+01,
       3.22956200e+01, 4.16449994e-01, -4.95349979e+00, 3.75279999e+00,
       1.27180004e+00, -1.19573998e+00, 9.85750020e-01, 2.59456992e+00,
       -1.65289998e-01, 1.94499999e-01, 5.00820017e+00, -4.48510004e-03,
       1.34880006e-01, 1.12180004e+01, -1.82129994e-01, 2.34109998e-01,
       6.43751001e+00, -2.59543400e+01, 1.92395496e+01, 3.58280003e-01,
       -5.30529991e-02, 1.24159999e-01, 5.01238108e+00, 1.25679998e-02,
       5.25150001e-02, 9.85632229e+00, 1.13129998e-02, 8.76640007e-02,
       5.00546312e+00, 2.96570007e-02, 1.23048000e-01, 8.69445229e+00,
       1.29100000e-02, 4.41230014e-02, 8.24056244e+00, 2.15130001e-02,
       7.61289969e-02, 8.32415676e+00, 2.10330002e-02, 6.74050003e-02,
       6.36310101e+00, 1.72150005e-02, 7.06169978e-02, 9.80992031e+00,
       2.50680000e-02, 9.58240032e-02, 8.30933952e+00, 2.24140007e-02,
       1.04471996e-01, 8.40254116e+00, -1.84093094e+01, 1.36564999e+01,
       3.78320009e-01, -1.89909995e-01, 2.07259998e-01, 3.06566000e+00,
       2.62770001e-02, 1.18449003e-01, 7.36370277e+00, 1.27579998e-02,
       5.73650002e-02, 8.63701820e+00, 1.32729998e-02, 4.96900007e-02,
       9.30635548e+00, -1.14266396e+01, 8.56474018e+00, 4.54970002e-01,
       2.36620009e-02, 4.45419997e-02, 5.00892591e+00, 2.01260000e-02,
       5.58540002e-02, 5.01530981e+00, 2.84587002e+00, -2.02305007e+00,
       2.32219994e-01, -8.37073040e+00, 6.20615005e+00, 3.99850011e-01,
       2.19730008e-02, 9.93319973e-02, 1.39706812e+01, -2.50530001e-02,
       1.54378995e-01, 1.21762991e+01, 2.54689995e-02, 1.15070000e-01,
       1.42485847e+01, -4.32414703e+01, 3.19656200e+01, 5.27649999e-01,
       -2.47499999e-02, 8.35049972e-02, 1.34145308e+01, -4.19039994e-01,
       4.88680005e-01, 5.05363989e+00, 1.07150003e-02, 1.63466007e-01,
       1.17952604e+01, 1.49510000e-02, 4.75479998e-02, 2.37571983e+01,
       -1.67784691e+01, 1.24627600e+01, 7.23309994e-01, 9.57060046e-03,
       5.45019992e-02, 2.30489998e+01, 1.50630005e+02, -1.10760002e+02,
       9.90260020e-02, 9.40170046e-03, 8.05040002e-02, 1.37980003e+01,
       7.28701096e+01, -5.35629883e+01, 1.26310006e-01, 2.16548405e+01,
       -1.59162102e+01, 2.70649999e-01, 2.38710804e+01, -1.75278893e+01,
       2.48710006e-01, 7.89195175e+01, -5.80493813e+01, 1.58250004e-01,
       1.90781708e+01, -1.40120201e+01, 3.14150006e-01, 1.48740005e+02,
       -1.09379997e+02, 9.86410007e-02, 5.22504005e+01, -3.83986893e+01,
       1.81930006e-01, 1.42790005e-02, 9.71110016e-02, 1.23127785e+01,
       -1.94323597e+01, 1.43735399e+01, 5.57079971e-01, -2.06289501e+01,
       1.52913303e+01, 6.62639976e-01, -5.37820011e-02, 2.04187006e-01,
       9.64213467e+00, -5.65442581e+01, 4.17845306e+01, 4.91329998e-01,
       -8.90415955e+00, 6.62702990e+00, 7.91859984e-01, -2.18620002e-01,
       2.99380004e-01, 6.76412010e+00, -1.27277069e+02, 9.37945023e+01,
       2.92079985e-01, -5.55201416e+01, 4.10061913e+01, 4.86680001e-01,
       -5.66508293e+01, 4.18089600e+01, 3.93020004e-01, 5.16260006e-02,
       1.26986995e-01, 1.63414288e+01, -6.95402679e+01, 5.13222618e+01,
       3.87540013e-01, -6.23589993e+00, 4.68300009e+00, 1.14830005e+00,
       -1.55075598e+01, 1.15919399e+01, 8.99529994e-01, -9.35510712e+01,
       6.89315186e+01, 2.90870011e-01, -2.22970009e+00, 1.74489999e+00,
       2.02360010e+00, -2.38000005e-01, 2.47610003e-01, 5.01143980e+00,
       -1.00633001e+01, 7.58909988e+00, 1.07990003e+00, -1.01820004e+00,
       9.04690027e-01, 3.22217011e+00, -3.71291313e+01, 2.74242992e+01,
       4.83949989e-01, -2.39380002e-02, 1.17123000e-01, 1.13662767e+01,
       1.73589997e-02, 8.79549980e-02, 1.20887127e+01, -1.34889996e-02,
       1.24890998e-01, 1.55486803e+01, 2.87490003e-02, 7.76949972e-02,
       2.23900394e+01, 1.29389996e-02, 9.76769999e-02, 1.81684399e+01,
       3.09500005e-02, 1.00901999e-01, 1.78548756e+01, 3.36869992e-02,
       1.08034000e-01, 2.39202118e+01, 1.62690002e-02, 9.17650014e-02,
       2.20007992e+01, 1.85710005e-02, 9.73469988e-02, 1.96960869e+01,
       -1.18900001e-01, 2.01649994e-01, 7.82616997e+00, 1.34239998e-02,
       1.36866003e-01, 2.04497948e+01, -4.26690001e-03, 9.27530006e-02,
       1.88190002e+01, -2.06259992e-02, 1.56883001e-01, 1.45229654e+01,
       2.32980009e-02, 1.13013998e-01, 2.23289757e+01, 3.60269994e-02,
       1.15465999e-01, 2.22345371e+01, 1.58690009e-02, 9.71610025e-02,
       2.44369698e+01, -2.71359994e-03, 1.20169997e-01, 2.16429996e+01,
       1.83680002e-02, 9.13280025e-02, 1.70214214e+01, 2.17739996e-02,
       1.12769000e-01, 2.02244263e+01, 2.21720003e-02, 1.19667999e-01,
       1.49057579e+01, 4.53591805e+01, -3.33050613e+01, 1.24049999e-01,
       2.58028507e+01, -1.89043694e+01, 2.07739994e-01, 1.70139999e+02,
       -1.25120003e+02, 8.18009973e-02, 6.00945997e+00, -4.36701012e+00,
       4.78969991e-01, 1.66074356e+02, -1.22155487e+02, 1.00220002e-01,
       1.45460007e+02, -1.06949997e+02, 9.53579992e-02, 6.09796638e+01,
       -4.48125801e+01, 7.15169981e-02, 1.92402706e+01, -1.40900898e+01,
       9.21090022e-02, -7.09289980e+00, 5.35729980e+00, 1.04690003e+00,
       1.92089994e-02, 8.06540027e-02, 2.06069999e-05, 1.08160004e+02,
       -7.94800034e+01, 6.05680011e-02, 2.19540000e-02, 6.04699999e-02,
       3.57449998e-08, 8.29990997e+01, -6.09935989e+01, 1.09209999e-01,
       1.18699997e+02, -8.72860031e+01, 7.28479996e-02, 1.67560000e-02,
       7.31720030e-02, 1.59489995e-04, 2.48910002e-02, 6.13830015e-02,
       1.96909991e-06, 9.74060036e-03, 5.51339984e-02, 8.10080019e-06,
       2.39777203e+01, -1.75610504e+01, 1.23269998e-01, 1.14610001e+02,
       -8.42450027e+01, 6.56839982e-02, 2.32170001e-02, 1.75579991e-02,
       5.19889989e-04, -4.03840017e+00, 3.02169991e+00, 1.29130006e+00,
       -2.21680908e+01, 1.63707905e+01, 5.53110003e-01, -1.42719999e-01,
       2.01179996e-01, 9.11139011e+00, -2.95610011e-01, 2.93859988e-01,
       5.03010988e+00, -9.63430014e-03, 7.89399967e-02, 2.27299995e+01,
       -2.62120008e-01, 2.44790003e-01, 5.00802994e+00, -5.44596291e+01,
       4.01704597e+01, 3.83280009e-01, -8.51805019e+00, 6.36778021e+00,
       9.62620020e-01, -3.94789994e-01, 3.55919987e-01, 5.11733007e+00,
       -5.54224701e+01, 4.09059181e+01, 4.33800012e-01, -3.88720006e-01,
       3.82220000e-01, 5.11415005e+00, -5.94019985e+00, 4.47380018e+00,
       1.20439994e+00, -1.61810005e+00, 1.29190004e+00, 2.28369999e+00,
       -3.18580002e-01, 3.05960000e-01, 5.64081001e+00, -2.14359999e+00,
       1.71580005e+00, 2.31040001e+00, -9.28360038e-03, 7.21940026e-02,
       1.83239994e+01, -8.33878040e+00, 6.21351004e+00, 8.85739982e-01,
       -4.54181900e+01, 3.34868813e+01, 4.37649995e-01, -2.09369995e-02,
       8.00729990e-02, 1.58271866e+01, 1.04680000e+02, -7.69570007e+01,
       6.02420010e-02, -4.58869982e+00, 3.48559999e+00, 1.49740005e+00,
       -1.13374004e+01, 8.43850040e+00, 1.05859995e+00, -8.10799971e-02,
       1.71134993e-01, 1.21866903e+01, -4.63939995e-01, 4.70129997e-01,
       5.87260008e+00, -4.88480002e-01, 4.36450005e-01, 5.14785004e+00,
       -3.20679992e-01, 2.99899995e-01, 5.17944002e+00, -3.88180017e-02,
       1.58225000e-01, 1.23038387e+01, -3.31840008e-01, 3.12249988e-01,
       4.99794006e+00, -4.50969994e-01, 4.43650007e-01, 5.14375019e+00,
       -5.78070013e-03, 1.43700004e-01, 1.57440004e+01, -6.14701691e+01,
       4.53325691e+01, 4.75829989e-01, -1.64049998e-01, 2.76829988e-01,
       8.94108009e+00, -4.85787201e+01, 3.58111801e+01, 4.07990009e-01,
       1.72169995e+00, -1.21689999e+00, 1.19669998e+00, 6.08972282e+01,
       -4.47706299e+01, 1.57590002e-01, 3.13243008e+00, -2.27355003e+00,
       6.27870023e-01, 2.51389999e+01, -1.84243298e+01, 2.48339996e-01,
       4.77863979e+00, -3.48006010e+00, 4.60970014e-01, 5.68660021e-01,
       -3.63000005e-01, 1.87995005e+00, 1.37194996e+01, -1.00049200e+01,
       3.22079986e-01, 9.05629992e-03, 4.94100004e-02, 2.01569996e+01,
       1.32269999e-02, 5.53350002e-02, 1.52344637e+01, 1.31860003e-02,
       7.01150000e-02, 1.47910194e+01, 1.40739996e-02, 7.41280019e-02,
       1.44065180e+01, 1.75579991e-02, 6.46770000e-02, 1.37322245e+01,
       1.91719998e-02, 7.24589974e-02, 1.48104696e+01, 1.05579998e-02,
       5.61640002e-02, 1.87481995e+01, 1.08350003e-02, 9.49990004e-02,
       2.03288155e+01, 1.58779994e-02, 8.51790011e-02, 1.78626499e+01,
       -1.16910003e-01, 1.52970001e-01, 5.61859989e+00, 2.43970007e-02,
       6.94010034e-02, 1.28053312e+01, 1.96800008e-02, 1.00518003e-01,
       1.58351278e+01, 2.10519992e-02, 1.10275999e-01, 1.61462593e+01,
       7.50759989e-03, 7.33119994e-02, 2.28040009e+01, 5.35770028e-04,
       9.13330019e-02, 2.40559998e+01, -3.31400009e-03, 8.26490000e-02,
       2.13929996e+01, 1.67629998e-02, 8.14080015e-02, 1.69848518e+01,
       1.91440005e-02, 9.21970010e-02, 1.59996672e+01, 2.36680005e-02,
       1.14242002e-01, 1.53586388e+01, 1.09329997e-02, 8.04670006e-02,
       1.81682739e+01, 9.05609969e-03, 5.43739982e-02, 1.58599997e+01,
       9.55030043e-03, 9.25339982e-02, 1.58599997e+01, -4.49610017e-02,
       7.65070021e-02, 7.06644011e+00, -2.74962902e+01, 2.03182602e+01,
       5.01290023e-01, 1.02070002e-02, 6.32010028e-02, 2.80574951e+01,
       5.91820013e-03, 6.62909970e-02, 2.15039997e+01, 6.97269989e-03,
       4.57319990e-02, 1.76669998e+01, -1.42839998e-01, 1.72839999e-01,
       6.62112999e+00, -1.41899996e-02, 7.66540021e-02, 1.46337080e+01,
       -1.02940001e-01, 1.87030002e-01, 7.24626017e+00, -6.89810026e-04,
       7.19909966e-02, 2.07980003e+01, -1.04719996e-01, 1.32129997e-01,
       6.53258991e+00, -2.77770013e-01, 2.93159992e-01, 5.01862001e+00,
       3.89769999e-03, 5.36839999e-02, 1.76959991e+01, 1.13380002e-02,
       7.98259974e-02, 1.84650707e+01, -2.49709994e-01, 2.65579998e-01,
       5.17182016e+00, 7.81389978e-03, 9.03420001e-02, 2.38570004e+01,
       9.26010031e-03, 9.63060036e-02, 2.03339996e+01, 8.82260036e-03,
       6.88140020e-02, 1.68729992e+01, 9.18779988e-03, 7.99309984e-02,
       1.40559998e+01, -3.24270010e-01, 3.13059986e-01, 5.43173981e+00,
       -3.39549989e-01, 3.33920002e-01, 5.17224979e+00, 1.50750000e-02,
       1.00613996e-01, 1.57440929e+01, -2.62860000e-01, 2.92620003e-01,
       5.45536995e+00, 4.86390013e-03, 1.01609997e-01, 1.66860008e+01,
       6.32649986e-03, 8.37510005e-02, 1.56590004e+01, -8.65309983e-02,
       1.77369997e-01, 9.47391796e+00, 4.12030006e-03, 8.37090015e-02,
       1.89540005e+01, 2.22069994e-02, 1.00171998e-01, 1.62516689e+01,
       -1.47619186e+02, 1.08817322e+02, 3.19099993e-01, -1.71432495e+01,
       1.27121201e+01, 8.80779982e-01, 2.30880005e+02, -1.69820007e+02,
       9.39790010e-02, 2.03944607e+01, -1.49106102e+01, 3.42280000e-01,
       -5.69710016e+00, 4.28410006e+00, 1.41690004e+00, -3.09900008e-02,
       8.89689997e-02, 1.62965679e+01, -1.64678898e+01, 1.22276096e+01,
       9.19049978e-01, -5.70389986e-01, 5.17409980e-01, 5.09784985e+00,
       -2.67788506e+01, 1.97708397e+01, 5.92029989e-01, -1.07129002e+01,
       7.98070002e+00, 1.11660004e+00, -8.13819990e-02, 1.29547000e-01,
       8.22352123e+00, 1.19559998e-02, 7.39429966e-02, 2.22756157e+01,
       -2.04549998e-01, 2.47950003e-01, 6.48977995e+00, -6.28989981e-03,
       6.46739975e-02, 2.03040009e+01, -3.92069995e-01, 3.59990001e-01,
       5.26853991e+00, 6.52009994e-03, 6.70939982e-02, 2.58339996e+01,
       -2.87609994e-01, 3.00520003e-01, 5.45180988e+00, -3.45899999e-01,
       3.28370005e-01, 5.70787001e+00, -4.13419992e-01, 3.75519991e-01,
       5.21186018e+00, 1.17400000e-02, 6.52009994e-02, 3.08825836e+01,
       6.54619979e-03, 1.13250002e-01, 2.26569996e+01, -1.82189997e-02,
       1.22357003e-01, 1.53400373e+01, 6.44699996e-03, 7.78239965e-02,
       2.51250000e+01, -1.35500003e-02, 1.24149002e-01, 1.59106483e+01,
       1.39629999e-02, 6.58000037e-02, 3.09628277e+01, -3.42372093e+01,
       2.52613907e+01, 3.96539986e-01, 5.62199997e-03, 7.17580020e-02,
       2.28640003e+01, -1.38630001e-02, 9.13069993e-02, 1.50384789e+01,
       -4.31349993e-01, 4.34119999e-01, 5.08589983e+00, -2.61539996e-01,
       3.03680003e-01, 5.38060999e+00, 1.62170008e-02, 8.54260027e-02,
       1.76319027e+01, -2.80290008e-01, 2.95089990e-01, 5.02798986e+00,
       -2.96787300e+01, 2.18891392e+01, 3.52470011e-01, -3.56010012e-02,
       5.61549999e-02, 5.00528002e+00, -1.81204109e+01, 1.34179201e+01,
       5.35560012e-01, -3.08679998e-01, 3.57439995e-01, 5.02737999e+00,
       1.07640000e-02, 6.90580010e-02, 2.73316879e+01, -2.99445009e+00,
       2.23657990e+00, 8.00189972e-01, -1.68500002e-02, 1.79699995e-02,
       5.00214815e+00, -3.10079992e-01, 3.76349986e-01, 5.02904987e+00,
       -2.77779996e-01, 2.72639990e-01, 5.01615000e+00, 7.50049995e-03,
       5.56299984e-02, 2.34930000e+01, -1.00240000e-01, 1.68129995e-01,
       7.04718018e+00, -4.51382294e+01, 3.32595100e+01, 2.74699986e-01,
       1.68849993e-02, 7.61710033e-02, 1.27485943e+01, -5.96255016e+00,
       4.44542980e+00, 8.50229979e-01, -4.28520012e+00, 3.24559999e+00,
       1.31789994e+00, -1.80944901e+01, 1.34278202e+01, 6.75819993e-01,
       -2.84750009e+00, 2.20720005e+00, 1.82009995e+00, -3.15180011e-02,
       6.25070035e-02, 8.71059799e+00, 1.24100000e-02, 7.00609982e-02,
       1.17930136e+01, -1.49600005e+00, 1.21410000e+00, 1.59070003e+00,
       9.05490015e-03, 1.03560001e-01, 1.83619995e+01, -1.38240000e-02,
       1.34827003e-01, 8.67670059e+00, 2.49630008e-02, 1.48635998e-01,
       1.34974918e+01, -1.65910006e-01, 2.86139995e-01, 4.26672983e+00,
       -8.65505028e+00, 6.52643013e+00, 6.34199977e-01, 2.85000005e-03,
       6.14879988e-02, 2.13509998e+01, -3.92929977e-03, 8.12560022e-02,
       1.89909992e+01, 2.45510004e-02, 7.19690025e-02, 9.54060364e+00,
       2.13659997e-03, 6.92180023e-02, 1.80119991e+01, 2.30620001e-02,
       6.77959993e-02, 1.22579432e+01, 2.04879995e-02, 6.04999997e-02,
       7.18333101e+00, -5.64699993e-03, 8.52729976e-02, 1.84470005e+01,
       1.79260001e-02, 8.42259973e-02, 1.33116779e+01, 2.00800002e-02,
       6.48029968e-02, 1.31837282e+01, 3.26820016e-02, 1.22759998e-01,
       8.28592491e+00, 1.48059996e-02, 7.22599998e-02, 1.78859310e+01,
       -2.84590006e-01, 2.77900010e-01, 2.36713004e+00, -3.72520015e-02,
       1.25392005e-01, 6.97065783e+00, -2.80019990e-03, 1.22579999e-01,
       1.14680004e+01, 4.46709991e-03, 1.39009997e-01, 1.54949999e+01,
       1.87679995e-02, 1.20264001e-01, 1.89367237e+01, 1.31200003e-02,
       1.46643996e-01, 1.52825880e+01, 1.29600000e-02, 1.27936006e-01,
       1.47522278e+01, 6.42349990e-03, 1.19889997e-01, 1.63829994e+01,
       9.01290029e-03, 1.12209998e-01, 1.54960003e+01, 6.99709984e-04,
       1.24880001e-01, 1.62040005e+01, 3.53919994e-03, 1.44449994e-01,
       1.53699999e+01, 5.22449985e-03, 1.44309998e-01, 1.69330006e+01,
       9.67510045e-03, 1.31929994e-01, 1.64899998e+01, 9.29279998e-03,
       1.33420005e-01, 1.69050007e+01, 6.45110011e-03, 1.15139998e-01,
       1.74130001e+01, -1.48910005e-03, 1.49330005e-01, 1.42399998e+01,
       1.05360001e-02, 1.39544994e-01, 1.64648075e+01, 1.55170001e-02,
       1.33111998e-01, 1.64069786e+01, 1.37520004e-02, 1.28497005e-01,
       1.74071808e+01, 1.42590003e-02, 1.26016006e-01, 1.46640635e+01,
       1.51739996e-02, 1.26036003e-01, 1.66362934e+01, 1.16860000e-02,
       1.31511003e-01, 1.79173832e+01, -3.04967594e+01, 2.25624809e+01,
       6.14549994e-01, 3.70180011e-02, 2.95759998e-02, 4.99774122e+00,
       -2.80270010e-01, 2.49359995e-01, 4.99631023e+00, -4.47490007e-01,
       3.89569998e-01, 5.00261021e+00, -1.49770007e-01, 1.22160003e-01,
       4.99531984e+00, -7.34539982e-03, 9.36859995e-02, 3.54500008e+01,
       -5.83620012e-01, 5.30290008e-01, 5.12110996e+00, -4.99569997e-02,
       6.57150000e-02, 4.99786377e+00, -1.84210002e-01, 1.98640004e-01,
       7.37839985e+00, 5.99180022e-03, 6.38030022e-02, 4.48870010e+01,
       -3.95880014e-01, 3.89939994e-01, 5.75951004e+00, -4.67860000e-03,
       7.85460025e-02, 3.23860016e+01, -3.00370008e-01, 2.79870003e-01,
       5.29026985e+00, 5.69419982e-03, 6.21300004e-02, 4.50509987e+01,
       -8.78318634e+01, 6.47529984e+01, 3.34529996e-01, 5.61930006e-03,
       6.21830001e-02, 4.42949982e+01, -1.96539998e-01, 1.80170000e-01,
       5.33174992e+00, 1.01760002e-02, 8.27649981e-02, 2.64186134e+01,
       -6.79809999e+00, 5.06869984e+00, 1.10510004e+00, -3.09650004e-01,
       2.81489998e-01, 4.99561977e+00, -1.13849998e-01, 1.32310003e-01,
       4.99856997e+00, -1.51309997e-01, 1.95409998e-01, 6.92948008e+00,
       -1.76325703e+01, 1.30507097e+01, 7.64280021e-01, -1.18150003e-01,
       1.43830001e-01, 7.34773016e+00, -4.99240011e-02, 8.80109966e-02,
       4.99819517e+00, -2.49499995e-02, 4.70909998e-02, 4.99572706e+00,
       -9.56850033e-03, 3.18824016e-02, 5.00208282e+00, 7.11379992e-03,
       3.33600007e-02, 2.02080002e+01, 1.45393005e-02, 9.13279969e-03,
       4.99726295e+00, -4.03960012e-02, 5.75399995e-02, 5.00204086e+00,
       2.83419993e-02, 2.27070004e-02, 5.00595999e+00, -3.98700014e-02,
       5.57800010e-02, 5.00203991e+00, 4.89559993e-02, -1.18209999e-02,
       5.00243092e+00, -4.23689991e-01, 3.92300010e-01, 5.00112009e+00,
       2.09973995e-02, 7.05070002e-03, 4.99743128e+00, 3.64825986e-02,
       2.20400002e-03, 5.00226688e+00, -4.54331894e+01, 3.34864006e+01,
       1.69870004e-01, 3.28099988e-02, 2.89099999e-02, 5.00575304e+00,
       -3.38281898e+01, 2.50758495e+01, 4.50430006e-01, -2.82641907e+01,
       2.08397999e+01, 2.03779995e-01, 3.47069986e-02, -2.03820001e-02,
       8.83809566e+00, 2.70080008e-02, 1.55324996e-01, 1.32705135e+01,
       -9.76500008e-03, 1.59480006e-01, 1.69449997e+01, -2.77720004e-01,
       3.98079991e-01, 7.12076998e+00, 2.64340006e-02, 1.71960995e-01,
       1.72175713e+01, -1.35460002e-02, 2.17588007e-01, 1.45006447e+01,
       -2.55706692e+01, 1.90078506e+01, 7.86700010e-01, -1.06484003e+01,
       7.92749977e+00, 1.37049997e+00, -4.70204086e+01, 3.48104515e+01,
       5.87960005e-01, -7.43160009e-01, 6.98220015e-01, 3.17301011e+00,
       2.68799998e-02, 1.11322001e-01, 1.62870960e+01, 1.98420007e-02,
       7.69010037e-02, 1.46518269e+01, -8.42341690e+01, 6.21637115e+01,
       2.80519992e-01, 2.67009996e-02, 9.39349979e-02, 1.49193497e+01,
       2.35210005e-02, 1.00399002e-01, 1.61399536e+01, -3.12420011e-01,
       3.90619993e-01, 5.03394985e+00, -3.46009994e+00, 2.73769999e+00,
       1.73249996e+00, -7.49349967e-02, 1.69836998e-01, 1.01009569e+01,
       -5.83110313e+01, 4.30156097e+01, 3.77130002e-01, -3.47082405e+01,
       2.56021309e+01, 4.52140003e-01, -2.57769990e+00, 1.92600000e+00,
       1.09630001e+00, -5.93970001e-01, 5.51789999e-01, 5.00735998e+00,
       -1.42689999e-02, 1.58614993e-01, 2.06055336e+01, -4.48529989e-01,
       4.41630006e-01, 6.04246998e+00, -4.43030000e-01, 4.58189994e-01,
       6.17558002e+00, -3.43910009e-01, 3.32700014e-01, 5.21356010e+00,
       1.40749998e-02, 1.63229004e-01, 2.35464115e+01, 1.38600003e-02,
       9.37599987e-02, 1.37369652e+01, -4.12850007e-02, 8.04060027e-02,
       9.69008827e+00, -2.09789991e+00, 1.69649994e+00, 2.45600009e+00,
       -2.06489995e-01, 3.09819996e-01, 7.84320021e+00, -9.92050022e-02,
       2.31078997e-01, 1.00111170e+01, -2.61619985e-01, 3.56770009e-01,
       8.51599026e+00, -3.09260003e-02, 9.49309990e-02, 1.15520515e+01,
       -2.77529507e+01, 2.06284294e+01, 7.77819991e-01, -9.53890011e-03,
       6.93000033e-02, 2.29689999e+01, -3.95889997e-01, 4.25550014e-01,
       5.15923023e+00, -8.04329991e-01, 7.39639997e-01, 5.15427017e+00,
       -3.71950008e-02, 1.65048003e-01, 1.37497187e+01, -6.16739988e-01,
       5.75969994e-01, 5.01021004e+00, -1.87870002e+00, 1.44130003e+00,
       1.67379999e+00 ]
labels_mat: !!opencv-matrix
   rows: 1100
   cols: 1
   dt: f
   data: [ 1., 1., 1., 1., 1., 1., 1., 1., 1., 1., 1., 1., 1., 1., 1.,
       1., 1., 1., 1., 1., 1., 1., 1., 1., 1., 1., 1., 1., 1., 1., 1.,
       1., 1., 1., 1., 1., 1., 1., 1., 1., 0., 0., 0., 0., 0., 0., 0.,
       0., 0., 0., 0., 0., 0., 0., 0., 0., 0., 0., 0., 0., 1., 1., 1.,
       1., 1., 1., 1., 1., 1., 1., 1., 1., 1., 1., 1., 1., 1., 1., 1.,
       1., 0., 0., 0., 0., 0., 0., 0., 0., 0., 0., 0., 0., 0., 0., 0.,
       0., 0., 0., 0., 0., 1., 1., 1., 1., 1., 1., 1., 1., 1., 1., 1.,
       1., 1., 1., 1., 1., 1., 1., 1., 1., 1., 1., 1., 1., 1., 1., 1.,
       1., 1., 1., 1., 1., 1., 1., 1., 1., 1., 1., 1., 1., 1., 1., 1.,
       1., 1., 1., 1., 1., 1., 1., 1., 1., 1., 1., 1., 1., 1., 1., 1.,
       1., 0., 0., 0., 0., 0., 0., 0., 0., 0., 0., 0., 0., 0., 0., 0.,
       0., 0., 0., 0., 0., 1., 1., 1., 1., 1., 1., 1., 1., 1., 1., 1.,
       1., 1., 1., 1., 1., 1., 1., 1., 1., 1., 1., 1., 1., 1., 1., 1.,
       1., 1., 1., 1., 1., 1., 1., 1., 1., 1., 1., 1., 1., 0., 0., 0.,
       0., 0., 0., 0., 0., 0., 0., 0., 0., 0., 0., 0., 0., 0., 0., 0.,
       0., 0., 0., 0., 0., 0., 0., 0., 0., 0., 0., 0., 0., 0., 0., 0.,
       0., 0., 0., 0., 0., 1., 1., 1., 1., 1., 1., 1., 1., 1., 1., 1.,
       1., 1., 1., 1., 1., 1., 1., 1., 1., 0., 0., 0., 0., 0., 0., 0.,
       0., 0., 0., 0., 0., 0., 0., 0., 0., 0., 0., 0., 0., 0., 0., 0.,
       0., 0., 0., 0., 0., 0., 0., 0., 0., 0., 0., 0., 0., 0., 0., 0.,
       0., 0., 0., 0., 0., 0., 0., 0., 0., 0., 0., 0., 0., 0., 0., 0.,
       0., 0., 0., 0., 0., 0., 0., 0., 0., 0., 0., 0., 0., 0., 0., 0.,
       0., 0., 0., 0., 0., 0., 0., 0., 0., 1., 1., 1., 1., 1., 1., 1.,
       1., 1., 1., 1., 1., 1., 1., 1., 1., 1., 1., 1., 1., 1., 1., 1.,
       1., 1., 1., 1., 1., 1., 1., 1., 1., 1., 1., 1., 1., 1., 1., 1.,
       1., 0., 0., 0., 0., 0., 0., 0., 0., 0., 0., 0., 0., 0., 0., 0.,
       0., 0., 0., 0., 0., 0., 0., 0., 0., 0., 0., 0., 0., 0., 0., 0.,
       0., 0., 0., 0., 0., 0., 0., 0., 0., 1., 1., 1., 1., 1., 1., 1.,
       1., 1., 1., 1., 1., 1., 1., 1., 1., 1., 1., 1., 1., 0., 0., 0.,
